-9.016983956098556519e-02
1.598263159394264221e-03
-5.793393775820732117e-02
-1.957810074090957642e-01
-2.046505510807037354e-01
2.924537099897861481e-02
-6.104182824492454529e-02
-7.499215751886367798e-02
-3.028121031820774078e-02
-2.391676902770996094e-01
-1.151076778769493103e-01
1.664133369922637939e-02
-3.128304705023765564e-02
6.093979347497224808e-03
-6.742551922798156738e-02
4.524590447545051575e-02
7.627134770154953003e-02
-3.082462027668952942e-02
9.710191935300827026e-02
7.141728419810533524e-03
-3.008631058037281036e-02
-2.479103505611419678e-01
-1.800853013992309570e-01
-5.641001835465431213e-02
-2.251515984535217285e-01
-1.624702364206314087e-01
-1.455960720777511597e-01
-8.679200708866119385e-02
4.780711233615875244e-02
-3.531710803508758545e-02
9.309771656990051270e-02
1.803635805845260620e-02
1.633244566619396210e-02
8.670954406261444092e-02
7.974830269813537598e-02
1.293028891086578369e-01
2.183426469564437866e-01
7.593166083097457886e-02
9.866002202033996582e-02
-1.469562053680419922e-01
-9.123855829238891602e-02
6.861963123083114624e-02
-6.232048943638801575e-02
1.084173005074262619e-02
-6.928523629903793335e-02
9.773655980825424194e-02
1.942480355501174927e-01
2.268770933151245117e-01
7.223483920097351074e-02
8.326415717601776123e-02
1.974786259233951569e-02
1.709463298320770264e-01
1.926520019769668579e-01
1.174563914537429810e-01
4.293167218565940857e-02
-8.853644877672195435e-02
-1.397676467895507812e-01
-1.659844219684600830e-01
-3.772516846656799316e-01
-3.926900923252105713e-01
-1.618721783161163330e-01
-3.343755602836608887e-01
-3.157669603824615479e-01
2.882819995284080505e-02
1.471048444509506226e-01
9.126054495573043823e-02
4.980989918112754822e-02
6.243872269988059998e-02
-6.111777853220701218e-03
1.580587923526763916e-01
1.266429871320724487e-01
-2.611882798373699188e-02
2.110626250505447388e-01
1.099443659186363220e-01
-2.023920416831970215e-02
8.533875644207000732e-02
-1.213404014706611633e-01
-3.474710881710052490e-01
7.969133555889129639e-02
-1.705922745168209076e-02
-2.210607081651687622e-01
3.181025385856628418e-02
1.613545417785644531e-01
1.013985499739646912e-01
8.560239523649215698e-02
-7.357037812471389771e-02
-1.222182437777519226e-01
7.655467838048934937e-02
7.143984735012054443e-02
-1.019148305058479309e-01
7.867635227739810944e-03
5.013613775372505188e-02
-6.349341571331024170e-02
-1.396294236183166504e-01
2.518781088292598724e-02
7.633095979690551758e-02
-1.790766976773738861e-02
-4.807588178664445877e-03
5.720815807580947876e-02
-5.545376334339380264e-03
-1.372420787811279297e-01
-3.765870034694671631e-01
-2.753970026969909668e-01
-2.857655286788940430e-01
-3.462113738059997559e-01
-1.626502126455307007e-01
-1.625468283891677856e-01
-1.766483634710311890e-01
3.549160435795783997e-02
1.621040888130664825e-02
1.669440604746341705e-02
-2.299645729362964630e-02
1.374503597617149353e-02
1.226494610309600830e-01
4.547687247395515442e-02
3.073076717555522919e-02
9.042105078697204590e-02
1.709070950746536255e-01
1.185459867119789124e-01
-1.433867067098617554e-01
9.409602731466293335e-02
-9.113670140504837036e-02
-1.954030841588973999e-01
9.624431282281875610e-02
9.184858202934265137e-02
-1.576440967619419098e-02
2.227672785520553589e-01
1.509337127208709717e-01
1.328766578808426857e-03
1.507426500320434570e-01
5.299981310963630676e-02
-1.890218704938888550e-01
1.009614989161491394e-01
2.484069764614105225e-02
-2.717952132225036621e-01
1.092133745551109314e-01
1.352981179952621460e-01
5.511832609772682190e-02
-1.122543439269065857e-01
4.545162245631217957e-02
-3.755895793437957764e-02
7.764599751681089401e-03
2.396613731980323792e-02
-3.837819397449493408e-02
-2.852065861225128174e-01
-2.691270709037780762e-01
1.019520908594131470e-01
-1.905172616243362427e-01
-3.280480802059173584e-01
6.941019743680953979e-02
-4.598186910152435303e-02
-1.268407404422760010e-01
-1.285507529973983765e-01
2.223169431090354919e-02
1.404425948858261108e-01
3.887615725398063660e-02
1.672787517309188843e-01
2.655428647994995117e-01
-1.275480538606643677e-01
2.437964677810668945e-01
-1.608608514070510864e-01
7.150761038064956665e-02
7.889379560947418213e-02
-1.083090528845787048e-01
4.709017463028430939e-03
-2.417464703321456909e-01
-2.646740972995758057e-01
-1.683893799781799316e-01
-4.343273118138313293e-02
-1.027162373065948486e-01
-2.638442069292068481e-02
2.130900509655475616e-02
1.495163589715957642e-01
2.192488871514797211e-02
2.839491367340087891e-01
7.953313738107681274e-02
-2.442827671766281128e-01
1.011077314615249634e-01
-6.841836869716644287e-02
1.251881755888462067e-02
8.926818519830703735e-02
-4.914526361972093582e-03
-2.915774658322334290e-02
-5.270994827151298523e-02
-6.888029165565967560e-03
2.409140206873416901e-02
1.002877429127693176e-01
8.671242743730545044e-02
-5.278643965721130371e-02
2.212964696809649467e-03
-1.132140159606933594e-01
-1.380313783884048462e-01
2.276331037282943726e-01
-3.008422553539276123e-01
-2.407251894474029541e-01
-1.960666477680206299e-01
-3.987777829170227051e-01
-9.604355692863464355e-02
6.991049647331237793e-02
-1.480900030583143234e-02
-1.192640140652656555e-02
-3.420116379857063293e-02
3.854184150695800781e-01
-8.667043596506118774e-02
-5.220908671617507935e-02
2.091385722160339355e-01
-1.166357249021530151e-01
-8.089523017406463623e-02
3.914722800254821777e-02
1.786090433597564697e-01
1.939933896064758301e-01
-7.557746022939682007e-02
-4.983231890946626663e-03
9.743997454643249512e-02
4.796749353408813477e-02
1.327279582619667053e-02
-2.710373699665069580e-01
-3.574609756469726562e-01
-4.282784089446067810e-02
-4.117506742477416992e-01
-4.224632084369659424e-01
-2.205835729837417603e-01
-1.926896423101425171e-01
-3.040501475334167480e-01
-3.778099119663238525e-01
7.269687205553054810e-02
1.181266605854034424e-01
1.324701309204101562e-01
1.485906392335891724e-01
8.685383945703506470e-02
1.423552781343460083e-01
4.875925183296203613e-02
2.527800621464848518e-03
1.408969014883041382e-01
1.479545980691909790e-01
-8.372441679239273071e-02
1.129532698541879654e-02
7.474844157695770264e-02
-1.071089804172515869e-01
9.232712537050247192e-02
-2.668921090662479401e-02
-7.643987983465194702e-02
1.978804171085357666e-01
3.073680028319358826e-02
8.868332952260971069e-03
1.530247330665588379e-01
2.423519268631935120e-02
2.524859905242919922e-01
6.965088844299316406e-02
2.952121794223785400e-01
1.790511421859264374e-02
-2.454285044223070145e-03
2.779339849948883057e-01
-1.472469139844179153e-02
-1.507605016231536865e-01
2.674981653690338135e-01
-2.750569283962249756e-01
-1.017932221293449402e-01
9.472912643104791641e-04
2.116004936397075653e-03
-4.827457666397094727e-02
-6.015388667583465576e-02
-1.321565061807632446e-01
-8.727767318487167358e-02
-5.798531696200370789e-02
-1.247203052043914795e-01
-1.408801674842834473e-01
-3.299580886960029602e-02
-2.769588530063629150e-01
-9.697191417217254639e-02
1.538876742124557495e-01
4.229489713907241821e-02
-2.061130106449127197e-01
2.774557769298553467e-01
-1.188143715262413025e-01
2.061842009425163269e-03
1.035901308059692383e-01
-3.713283687829971313e-02
-7.267782092094421387e-02
-1.605724394321441650e-01
-1.027067974209785461e-01
2.304475288838148117e-03
1.952620036900043488e-02
-5.029125511646270752e-02
-3.708859905600547791e-02
-9.758310019969940186e-02
-6.261982768774032593e-02
2.437573671340942383e-02
-1.024035513401031494e-01
-1.889889240264892578e-01
1.747934147715568542e-02
-3.535970300436019897e-02
-1.354770064353942871e-01
-5.977286770939826965e-02
9.750090539455413818e-02
4.145837947726249695e-02
-1.285340040922164917e-01
1.026232019066810608e-01
1.118721738457679749e-01
5.664800107479095459e-02
-9.269131720066070557e-02
-4.566597193479537964e-02
-3.677279129624366760e-02
-1.417449414730072021e-01
6.309816986322402954e-02
6.607428193092346191e-03
7.239744067192077637e-02
-5.382993549574166536e-05
8.806936442852020264e-02
8.938594162464141846e-02
-1.703326851129531860e-01
-4.181296378374099731e-02
-2.376559004187583923e-02
4.203419014811515808e-02
-1.500077638775110245e-02
2.505898289382457733e-02
1.013874709606170654e-01
4.653081670403480530e-02
-1.019489541649818420e-01
-2.374228090047836304e-02
-1.788335442543029785e-01
-7.976333145052194595e-04
1.717082597315311432e-02
-1.658444106578826904e-01
-2.865560539066791534e-02
-4.374108836054801941e-02
6.988336890935897827e-02
-1.101754084229469299e-01
1.887813955545425415e-02
1.297151297330856323e-01
3.673892095685005188e-02
-5.020501837134361267e-02
4.136947169899940491e-02
-1.143773198127746582e-01
-1.462786644697189331e-01
-1.207073032855987549e-01
7.116147130727767944e-02
-1.140234768390655518e-01
-1.037050634622573853e-01
-9.881968051195144653e-02
-6.778918951749801636e-02
-1.094362363219261169e-01
-4.749034717679023743e-02
-1.415653079748153687e-01
3.360780775547027588e-01
1.231951639056205750e-01
4.244868457317352295e-02
3.079496026039123535e-01
-4.171070456504821777e-02
-9.477402083575725555e-03
2.208501845598220825e-01
4.302940890192985535e-02
9.619286656379699707e-02
1.226292178034782410e-01
-6.149064004421234131e-02
-1.063763052225112915e-01
-2.148898094892501831e-01
9.507729113101959229e-02
-1.034889221191406250e-01
-2.094744145870208740e-02
1.427109092473983765e-01
8.717639371752738953e-03
-6.480536609888076782e-02
9.742483496665954590e-02
9.399665892124176025e-02
-6.198383867740631104e-02
1.582133024930953979e-01
4.290595650672912598e-03
-4.533001780509948730e-02
-2.816017530858516693e-02
5.104721337556838989e-02
1.096417605876922607e-01
1.006115451455116272e-01
1.040850207209587097e-01
9.600429236888885498e-02
-2.988497354090213776e-02
-8.950728923082351685e-02
-1.590202935039997101e-02
3.108846582472324371e-02
2.770334295928478241e-02
-6.650441139936447144e-02
-2.473166398704051971e-02
-1.776369512081146240e-01
-2.120589837431907654e-02
-3.723503090441226959e-03
-1.287754327058792114e-01
5.354226753115653992e-02
-1.440610885620117188e-01
3.033626824617385864e-02
2.253785878419876099e-01
3.535637632012367249e-02
7.263791561126708984e-02
2.133566588163375854e-01
2.123484015464782715e-02
7.802031189203262329e-02
1.744373887777328491e-01
1.269268989562988281e-01
3.447540104389190674e-02
4.365764930844306946e-02
-3.015288338065147400e-02
6.990697234869003296e-02
-1.060741841793060303e-01
7.789549231529235840e-02
8.508236706256866455e-02
9.716342203319072723e-03
-8.861139416694641113e-02
1.294424198567867279e-02
-9.755829721689224243e-02
3.404677612707018852e-03
-5.745022371411323547e-02
-6.963705271482467651e-02
5.124958232045173645e-03
-2.237789332866668701e-02
2.336963079869747162e-02
6.771378964185714722e-02
5.312619730830192566e-03
-1.430662125349044800e-01
1.548605784773826599e-02
9.821325540542602539e-02
3.019800409674644470e-02
4.107775166630744934e-02
4.619944095611572266e-02
1.530717965215444565e-02
-1.966921389102935791e-01
-4.749048873782157898e-02
5.398109182715415955e-02
7.812944054603576660e-02
-3.723283857107162476e-02
4.061517119407653809e-02
-1.341564804315567017e-01
-9.895626455545425415e-02
9.656888246536254883e-02
3.942112438380718231e-03
5.874146893620491028e-02
1.330962628126144409e-01
1.027258336544036865e-01
-9.205175936222076416e-02
1.141178756952285767e-01
7.937232404947280884e-02
2.602669596672058105e-01
-5.418261513113975525e-02
1.327120233327150345e-02
1.389087438583374023e-01
-1.260541193187236786e-02
-1.457719653844833374e-01
2.838908694684505463e-02
8.592724800109863281e-02
-1.777460277080535889e-01
-8.458010852336883545e-02
-1.015695556998252869e-01
-9.335046634078025818e-03
4.105916991829872131e-02
-4.895002767443656921e-02
-2.455980479717254639e-01
-2.207385450601577759e-01
-7.366006076335906982e-02
3.649552166461944580e-02
2.458101324737071991e-02
-8.635714650154113770e-02
-6.063107401132583618e-02
-6.697073578834533691e-02
-9.802970290184020996e-02
1.109018474817276001e-01
1.701991111040115356e-01
9.635547548532485962e-02
-5.284895747900009155e-02
5.465141683816909790e-02
4.482575878500938416e-02
-1.320746541023254395e-01
3.382718563079833984e-02
-7.211694866418838501e-02
-1.403447240591049194e-01
-7.030694186687469482e-02
-7.772213965654373169e-02
-1.211235672235488892e-01
9.321711026132106781e-03
4.902651906013488770e-02
3.280159831047058105e-01
2.749545872211456299e-01
4.500717855989933014e-03
-1.141074299812316895e-02
2.589318752288818359e-01
1.942294538021087646e-01
6.276516616344451904e-02
4.557392746210098267e-02
1.942756772041320801e-01
1.319264173507690430e-01
1.456676423549652100e-01
4.162579029798507690e-02
2.529470250010490417e-02
1.630776077508926392e-01
1.089809909462928772e-01
-9.238143265247344971e-02
-2.072571665048599243e-01
6.629377603530883789e-02
1.217769682407379150e-01
1.523513346910476685e-01
6.136969476938247681e-02
1.820567101240158081e-01
2.672750055789947510e-01
8.596888929605484009e-02
-1.709283739328384399e-01
-2.751445025205612183e-02
1.686850935220718384e-01
-8.928055316209793091e-02
1.982719078660011292e-02
1.239333450794219971e-01
-8.876152336597442627e-02
-5.938548967242240906e-02
6.266762316226959229e-02
9.964662790298461914e-02
1.308350358158349991e-02
-1.751310750842094421e-02
3.663886338472366333e-02
6.737448275089263916e-02
2.045889198780059814e-02
-8.575201779603958130e-02
-1.670327619649469852e-03
-7.726676017045974731e-02
-1.503610163927078247e-01
-8.849460631608963013e-02
-1.691699475049972534e-01
3.893496235832571983e-03
4.421582072973251343e-02
-8.085428178310394287e-02
4.628468304872512817e-02
9.087289869785308838e-02
5.835118889808654785e-02
-9.071420878171920776e-02
-8.757176250219345093e-02
-8.084033429622650146e-02
9.775309264659881592e-02
-7.918409071862697601e-03
-1.070086658000946045e-01
5.730164796113967896e-02
1.429550796747207642e-01
-4.034806974232196808e-03
-1.282790601253509521e-01
-1.244373805820941925e-02
7.963942736387252808e-02
-3.131504356861114502e-02
-1.260770484805107117e-02
-4.698779061436653137e-02
4.225517809391021729e-02
3.585060313344001770e-02
-8.805614709854125977e-02
4.909625276923179626e-02
-2.302080020308494568e-02
3.008888289332389832e-02
1.925711892545223236e-02
-2.574097923934459686e-02
6.552757322788238525e-02
-9.588427841663360596e-02
-2.767247892916202545e-02
-3.428670763969421387e-02
-4.044324625283479691e-03
-2.035604976117610931e-02
4.302141070365905762e-02
-1.347404420375823975e-01
7.570362091064453125e-02
2.302583493292331696e-02
2.702954784035682678e-02
-1.094315499067306519e-01
-2.754157595336437225e-02
-4.886138811707496643e-02
-6.247496232390403748e-02
-1.218762919306755066e-01
2.512766420841217041e-01
9.750057011842727661e-02
-3.361674398183822632e-02
7.717312872409820557e-02
2.227828502655029297e-01
2.688380777835845947e-01
-1.661628048168495297e-04
-5.209179967641830444e-02
2.454675883054733276e-01
1.371632665395736694e-01
-1.615563966333866119e-02
1.058702766895294189e-01
7.683903723955154419e-02
9.164795279502868652e-02
9.340280294418334961e-02
1.009099036455154419e-01
2.507284283638000488e-02
6.223895028233528137e-02
-4.153215140104293823e-02
-2.403700025752186775e-03
3.871795907616615295e-02
5.516995862126350403e-02
9.866529144346714020e-03
1.083488836884498596e-01
1.012207344174385071e-01
9.282638318836688995e-03
2.481854408979415894e-01
-1.444167345762252808e-01
-9.388954937458038330e-02
4.882352054119110107e-02
-2.400468289852142334e-01
-6.254704296588897705e-02
-1.285069882869720459e-01
1.218895334750413895e-02
-4.084806889295578003e-02
-4.868678003549575806e-02
1.451671272516250610e-01
4.391498863697052002e-02
1.231715828180313110e-01
8.666549623012542725e-02
4.171678796410560608e-02
3.746950253844261169e-02
-6.564517039805650711e-03
-2.610015869140625000e-02
-9.279147535562515259e-02
7.998314499855041504e-02
8.426266908645629883e-02
1.241441071033477783e-01
3.359197825193405151e-02
3.656337410211563110e-02
1.084669008851051331e-01
1.234374865889549255e-01
1.257604062557220459e-01
7.981231063604354858e-02
1.467155069112777710e-01
-2.221611648565158248e-04
1.006270498037338257e-01
1.985433399677276611e-01
1.365812271833419800e-01
2.033361345529556274e-01
2.125465273857116699e-01
1.361782699823379517e-01
2.304301112890243530e-01
-1.445709466934204102e-01
-3.318783342838287354e-01
-5.691723525524139404e-02
-1.328697651624679565e-01
-5.894895195960998535e-01
-2.473164498805999756e-01
-6.294780969619750977e-02
-3.052010238170623779e-01
2.941878139972686768e-02
-4.095429927110671997e-02
-3.698288276791572571e-02
4.981717839837074280e-02
1.897735893726348877e-01
1.130305454134941101e-01
1.474596187472343445e-02
1.544436365365982056e-01
9.237129986286163330e-02
1.624004393815994263e-01
-1.166385039687156677e-02
-5.974195525050163269e-02
3.505470231175422668e-02
-6.886968016624450684e-02
-3.576786443591117859e-02
-1.257018744945526123e-02
-1.298581063747406006e-02
-8.793473243713378906e-02
1.199914216995239258e-01
4.757335782051086426e-02
3.817257471382617950e-03
1.930760033428668976e-02
3.646662458777427673e-02
-3.392415866255760193e-02
2.416655048727989197e-02
9.745207428932189941e-02
-2.944813109934329987e-02
5.274636205285787582e-03
1.942843347787857056e-01
1.331885457038879395e-01
4.951018840074539185e-02
1.191311404109001160e-01
1.550835222005844116e-01
5.504211783409118652e-02
-1.009904891252517700e-01
-1.270201802253723145e-01
-1.574112027883529663e-01
-1.620861440896987915e-01
-4.105054736137390137e-01
-1.962631493806838989e-01
-2.262422740459442139e-01
-3.448677062988281250e-01
-1.707923859357833862e-01
-1.021151617169380188e-01
-2.387293279170989990e-01
8.344057714566588402e-04
-7.152772974222898483e-03
1.232213675975799561e-01
1.323103159666061401e-01
7.211802154779434204e-02
9.397425502538681030e-02
4.922424629330635071e-02
-1.183464452624320984e-01
-1.276720464229583740e-01
-9.217827022075653076e-02
-6.743160635232925415e-02
-5.137820541858673096e-02
7.209090888500213623e-02
1.667633280158042908e-02
-1.439145114272832870e-02
-2.619505301117897034e-02
-1.020419038832187653e-02
7.494635879993438721e-02
1.366909742355346680e-01
-2.664223909378051758e-01
-4.528422355651855469e-01
-5.970399826765060425e-02
-2.151235938072204590e-01
-3.736742138862609863e-01
-1.259540766477584839e-01
-6.763778626918792725e-02
-2.029866874217987061e-01
-4.251562990248203278e-03
1.657024025917053223e-01
1.179051771759986877e-01
4.859991371631622314e-02
7.504573464393615723e-02
1.604990959167480469e-01
2.354192361235618591e-02
-5.478200619108974934e-04
6.654107570648193359e-02
-3.870776668190956116e-02
-1.525954306125640869e-01
-9.406142681837081909e-02
-2.395668327808380127e-01
-2.634088993072509766e-01
-2.865308225154876709e-01
-3.319807052612304688e-01
-2.342734932899475098e-01
-1.842685341835021973e-01
-2.625958919525146484e-01
-9.667683392763137817e-02
-4.463151693344116211e-01
-4.574044346809387207e-01
-3.460080027580261230e-01
-5.197026133537292480e-01
-2.609997093677520752e-01
-1.755959987640380859e-01
-8.540483564138412476e-02
9.298925846815109253e-02
-5.449019372463226318e-02
-1.843614503741264343e-02
-7.939081639051437378e-02
-1.663074642419815063e-02
-8.024407550692558289e-03
-8.067838102579116821e-02
-3.422893956303596497e-02
1.861483789980411530e-03
-2.204800955951213837e-02
5.304963886737823486e-02
-9.036412835121154785e-02
9.609999507665634155e-02
-1.321851834654808044e-02
-1.248906850814819336e-01
-1.886874809861183167e-02
1.925772428512573242e-01
8.270184695720672607e-02
1.658865362405776978e-01
8.334944397211074829e-02
-2.202041447162628174e-02
-1.217531561851501465e-01
2.965387143194675446e-02
3.789385780692100525e-02
-1.281624287366867065e-01
7.126522064208984375e-02
2.284294553101062775e-02
-7.465520175173878670e-04
-4.513818919658660889e-01
-4.290213882923126221e-01
-3.410441875457763672e-01
-2.405770719051361084e-01
-2.512435019016265869e-01
-2.139415144920349121e-01
-3.233917523175477982e-04
6.129935011267662048e-02
5.833424627780914307e-02
6.342105567455291748e-02
1.143875271081924438e-01
4.105248302221298218e-02
5.816465616226196289e-02
1.745665818452835083e-02
-5.348983407020568848e-02
1.923877596855163574e-01
2.116687446832656860e-01
-3.256710246205329895e-02
4.623876884579658508e-02
-5.257761850953102112e-02
-8.625546842813491821e-02
1.185297220945358276e-02
4.784568399190902710e-02
1.405109534971415997e-03
1.269793063402175903e-01
2.199180126190185547e-01
5.812110379338264465e-03
2.470271475613117218e-02
8.211901411414146423e-03
-1.041242759674787521e-02
-2.824058011174201965e-02
3.531562164425849915e-02
8.449961990118026733e-02
-4.192610830068588257e-02
8.397082984447479248e-02
1.504749953746795654e-01
7.443578541278839111e-02
1.677894145250320435e-01
8.360379934310913086e-02
8.441740646958351135e-03
1.053894385695457458e-01
5.309034604579210281e-03
6.313187628984451294e-02
1.682777404785156250e-01
9.895943850278854370e-02
1.411520037800073624e-02
-1.337971165776252747e-02
2.215291187167167664e-02
-6.644227355718612671e-02
-1.007960215210914612e-01
9.984514862298965454e-02
-5.880172178149223328e-02
-3.758888691663742065e-02
1.162670701742172241e-01
1.492970343679189682e-02
1.196923386305570602e-02
7.734107971191406250e-02
4.607207328081130981e-02
-2.062870860099792480e-01
-5.462564900517463684e-02
1.852140016853809357e-02
-1.889405101537704468e-01
6.668953597545623779e-02
-4.934249445796012878e-02
-2.013175785541534424e-01
-1.021915897727012634e-01
-1.179005801677703857e-01
-9.163992106914520264e-02
-1.040728986263275146e-01
-1.342373043298721313e-01
-6.982424110174179077e-02
-2.879886515438556671e-02
1.039381101727485657e-01
1.292153447866439819e-01
1.284267306327819824e-01
9.790339320898056030e-02
1.245926097035408020e-01
2.310240082442760468e-02
4.029273241758346558e-02
9.833866357803344727e-02
1.070308908820152283e-01
1.479565203189849854e-01
6.156370416283607483e-02
9.381256997585296631e-02
-1.745131239295005798e-02
6.340572983026504517e-02
7.136836647987365723e-02
-1.280802935361862183e-01
1.176695898175239563e-01
2.235700935125350952e-02
-1.091739833354949951e-01
-1.000027582049369812e-01
-1.728538423776626587e-01
5.860847979784011841e-02
-1.966546289622783661e-03
-1.004451513290405273e-01
8.037994056940078735e-02
-5.444539710879325867e-02
-5.937047302722930908e-02
-1.251638680696487427e-01
8.602225035429000854e-02
-1.256295442581176758e-01
6.785150617361068726e-02
2.824206650257110596e-01
1.989848315715789795e-01
1.998094841837882996e-02
4.135058261454105377e-03
-7.357606291770935059e-02
5.084945261478424072e-02
1.434047073125839233e-01
-7.277711480855941772e-02
2.578961849212646484e-01
9.655674546957015991e-02
-9.370754659175872803e-02
-2.967117168009281158e-02
-2.257994413375854492e-01
-2.970602512359619141e-01
-7.766788452863693237e-02
1.907099969685077667e-02
-1.957594454288482666e-01
7.309342175722122192e-02
1.686095595359802246e-01
2.351615391671657562e-02
2.035890519618988037e-01
1.598354130983352661e-01
2.016428112983703613e-01
1.046338453888893127e-01
8.494407683610916138e-02
1.146456599235534668e-01
-3.464624285697937012e-02
-7.809285819530487061e-02
-1.799564957618713379e-01
-1.843741089105606079e-01
-1.138997450470924377e-01
-9.391210973262786865e-02
-6.907710433006286621e-02
1.266715824604034424e-01
5.803284794092178345e-02
1.418416649103164673e-01
2.423260360956192017e-01
1.346770972013473511e-01
1.921969503164291382e-01
9.048703312873840332e-02
8.860103040933609009e-02
1.623818278312683105e-01
2.080464661121368408e-01
2.541125118732452393e-01
1.228389143943786621e-01
1.595875471830368042e-01
5.753527954220771790e-02
3.707164898514747620e-02
3.078390099108219147e-02
3.499334678053855896e-02
-6.291854660958051682e-03
1.255299150943756104e-01
-6.613510847091674805e-02
-8.300610631704330444e-02
4.822552949190139771e-02
-1.391159892082214355e-01
1.716081947088241577e-01
-2.070551216602325439e-01
-1.255925595760345459e-01
-2.036642655730247498e-02
-6.660410761833190918e-02
-1.278256531804800034e-02
-1.351173222064971924e-01
-1.094606220722198486e-01
-1.046568825840950012e-01
-8.803876489400863647e-02
6.055223196744918823e-02
-1.061250567436218262e-01
-2.503411471843719482e-02
-2.411696016788482666e-01
-2.431653141975402832e-01
-1.247415095567703247e-01
4.732446372509002686e-02
-6.173501163721084595e-02
1.006185822188854218e-02
7.594355195760726929e-02
9.614621102809906006e-02
8.582033216953277588e-02
-1.776524335145950317e-01
-9.737084060907363892e-02
-1.165992021560668945e-01
-2.265771180391311646e-01
-1.885593533515930176e-01
-5.003315210342407227e-02
-1.436333637684583664e-02
-9.661279618740081787e-04
-1.910860240459442139e-01
-1.641725748777389526e-01
-1.134036555886268616e-01
-3.450617194175720215e-02
-1.027158349752426147e-01
1.334486994892358780e-02
4.674810543656349182e-02
8.367964625358581543e-02
2.192806303501129150e-01
2.912131324410438538e-02
6.861522793769836426e-02
-3.740330785512924194e-02
1.418012529611587524e-01
6.782175041735172272e-03
-1.252975314855575562e-01
-1.188926398754119873e-02
-3.091692626476287842e-01
-1.601363569498062134e-01
5.653775110840797424e-02
-1.937575042247772217e-01
6.150082126259803772e-02
-1.893450021743774414e-01
-1.973164230585098267e-01
-2.734155952930450439e-02
8.858780562877655029e-02
5.758196488022804260e-02
1.235512644052505493e-01
-3.357756510376930237e-02
-4.975198581814765930e-02
-1.404968351125717163e-01
6.387399882078170776e-02
-2.957469038665294647e-02
8.834537118673324585e-02
8.954090997576713562e-03
1.005468666553497314e-01
1.480778306722640991e-01
2.411978542804718018e-01
-5.860641226172447205e-02
5.930742248892784119e-02
-1.205801442265510559e-01
-7.377029955387115479e-02
1.592184752225875854e-01
-2.060626894235610962e-01
-1.834318041801452637e-01
-1.022447086870670319e-02
-3.695490211248397827e-02
9.237882494926452637e-02
-4.095832630991935730e-02
-2.136189956218004227e-03
2.744892053306102753e-02
-1.087425127625465393e-01
-5.282321572303771973e-02
-5.693018808960914612e-02
1.361232548952102661e-01
1.634865105152130127e-01
-8.066663146018981934e-02
-2.853582985699176788e-02
2.334726899862289429e-01
2.069739848375320435e-01
4.392633214592933655e-02
-8.858864009380340576e-02
1.646097302436828613e-01
2.778204679489135742e-01
-1.241021305322647095e-01
-3.187708854675292969e-01
-1.429359316825866699e-01
-2.947191298007965088e-01
-3.411866128444671631e-01
-1.411129385232925415e-01
-1.029017940163612366e-01
-1.326016485691070557e-01
-3.296685963869094849e-02
-8.208671957254409790e-02
-4.961891565471887589e-03
1.666521877050399780e-01
-2.866439707577228546e-02
-1.359042339026927948e-02
5.611639842391014099e-02
1.554246544837951660e-01
-9.812856465578079224e-02
5.536101013422012329e-02
-1.963922530412673950e-01
3.064654208719730377e-02
5.047233775258064270e-02
-1.705940961837768555e-01
-2.150774467736482620e-03
8.982592821121215820e-02
-6.187108531594276428e-02
5.651206709444522858e-03
1.896495581604540348e-03
-5.327261611819267273e-02
-4.736737534403800964e-02
-2.186706988140940666e-04
-3.017061203718185425e-02
-6.155727431178092957e-02
-2.243986353278160095e-02
-9.877230972051620483e-02
-4.348736256361007690e-02
-9.910384193062782288e-03
-1.018347516655921936e-01
-7.175746560096740723e-02
9.781736135482788086e-02
-1.621627993881702423e-02
-1.296217441558837891e-01
7.691358029842376709e-02
8.028796315193176270e-02
-1.212082803249359131e-02
-1.378459781408309937e-01
-2.058741003274917603e-01
-1.494948863983154297e-01
-8.843659609556198120e-02
-7.642168551683425903e-02
-5.287666320800781250e-01
-4.352227151393890381e-01
4.241401329636573792e-02
-1.707686632871627808e-01
-4.636639952659606934e-01
-1.568704396486282349e-01
2.150107733905315399e-02
2.335782535374164581e-02
-4.093767330050468445e-02
6.936513353139162064e-03
1.399944629520177841e-02
1.560577303171157837e-01
1.772767119109630585e-02
-1.194972321391105652e-01
6.763057783246040344e-03
-2.686710096895694733e-02
-5.075002089142799377e-02
1.120832785964012146e-01
-1.698764413595199585e-02
-1.556691229343414307e-01
9.973514080047607422e-02
7.205884158611297607e-02
-1.385242342948913574e-01
-1.326380763202905655e-03
1.336608231067657471e-01
1.961401998996734619e-01
2.610431052744388580e-02
-6.448190659284591675e-03
5.298468098044395447e-02
2.932090312242507935e-03
-6.509572733193635941e-03
-1.808728426694869995e-01
1.052935943007469177e-01
-1.202094554901123047e-01
-1.042640656232833862e-01
7.335752248764038086e-02
-1.207476332783699036e-01
-9.180063754320144653e-02
3.201970830559730530e-02
7.799054682254791260e-02
1.061803475022315979e-01
-1.529067009687423706e-01
3.063036501407623291e-02
1.328173130750656128e-01
-1.540998667478561401e-01
-4.783973097801208496e-01
-3.095529600977897644e-02
8.901164680719375610e-02
-2.077520936727523804e-01
-4.115933179855346680e-02
1.323209702968597412e-01
7.450698316097259521e-02
-1.065294072031974792e-01
6.177558004856109619e-02
-5.479424446821212769e-02
-1.786799356341362000e-02
7.218668609857559204e-02
4.119951277971267700e-02
-4.493513144552707672e-03
-2.420542389154434204e-02
5.490057170391082764e-02
-2.146198414266109467e-02
-2.430565841495990753e-02
-6.325086578726768494e-03
-1.544409990310668945e-01
8.034456521272659302e-03
-9.928692877292633057e-02
-1.280388832092285156e-01
9.837958216667175293e-02
2.316793985664844513e-02
1.352659165859222412e-01
1.999762803316116333e-01
1.295668035745620728e-01
5.321092903614044189e-02
8.745698630809783936e-02
1.069905981421470642e-01
4.810369387269020081e-02
2.621591649949550629e-02
2.448934689164161682e-02
1.763469278812408447e-01
6.638509035110473633e-02
3.399805165827274323e-03
-4.117212817072868347e-02
2.217094302177429199e-01
1.067958846688270569e-01
-4.511709790676832199e-03
-3.874411880970001221e-01
-1.441864073276519775e-01
-1.129318103194236755e-01
-2.021280825138092041e-01
-2.918037120252847672e-03
2.351560629904270172e-02
7.029148936271667480e-02
-5.572326853871345520e-02
-4.568051919341087341e-02
-1.267536431550979614e-01
7.112514972686767578e-02
-2.625100128352642059e-02
1.866207718849182129e-01
2.984422743320465088e-01
1.141943112015724182e-01
2.967855334281921387e-01
1.429304331541061401e-01
5.459592118859291077e-02
1.712932139635086060e-01
1.486187428236007690e-01
-2.503281692042946815e-03
-1.571148484945297241e-01
-2.520878016948699951e-01
-9.498991817235946655e-02
7.198126614093780518e-02
-3.901102766394615173e-02
-2.524727955460548401e-02
1.036567986011505127e-01
7.310620695352554321e-02
1.007551699876785278e-01
2.125405967235565186e-01
1.158340126276016235e-01
-1.184823065996170044e-01
3.268764540553092957e-02
5.810419470071792603e-02
-5.045042932033538818e-02
2.343862876296043396e-02
7.765081524848937988e-02
7.284269481897354126e-02
-2.916829288005828857e-02
6.074534729123115540e-02
7.104974240064620972e-02
2.561116516590118408e-01
1.992575079202651978e-01
-6.293335556983947754e-02
7.081110496073961258e-03
-1.348446011543273926e-01
-4.064379334449768066e-01
4.660729691386222839e-02
-8.241241425275802612e-02
7.966431230306625366e-02
-1.633949577808380127e-01
3.459998592734336853e-02
1.704007238149642944e-01
-4.566161632537841797e-01
-2.513979375362396240e-01
-1.905376911163330078e-01
-2.328917682170867920e-01
-2.608018182218074799e-02
-1.048811431974172592e-02
-5.078646168112754822e-02
-4.004843160510063171e-02
-1.729903668165206909e-01
8.643110841512680054e-02
-1.720767468214035034e-01
-1.902135014533996582e-01
4.042344912886619568e-02
-5.521140247583389282e-02
-5.717407912015914917e-02
-3.214555680751800537e-01
-9.450930170714855194e-03
1.349153667688369751e-01
-1.544813364744186401e-01
-1.296248733997344971e-01
2.974190516397356987e-03
-1.003360748291015625e-01
-6.469393521547317505e-02
2.468947470188140869e-01
-9.781772643327713013e-02
2.691965550184249878e-02
7.018624246120452881e-02
2.592557668685913086e-01
4.976684972643852234e-02
-1.339101642370223999e-01
-5.280125886201858521e-02
-2.356111556291580200e-01
3.002249449491500854e-02
-1.518428027629852295e-01
-1.979247480630874634e-02
2.573970258235931396e-01
-2.675891518592834473e-01
-6.373368203639984131e-02
3.397592902183532715e-02
-9.331754408776760101e-03
1.270368099212646484e-01
1.195827871561050415e-01
8.821918070316314697e-02
6.407549977302551270e-02
-4.735974967479705811e-02
-2.079073488712310791e-01
-1.225250735878944397e-01
1.169121488928794861e-01
1.468802839517593384e-01
2.220002710819244385e-01
2.316035330295562744e-01
2.982548177242279053e-01
2.265152931213378906e-01
1.212571710348129272e-01
-9.011452645063400269e-02
-6.193451210856437683e-02
7.921726442873477936e-03
-1.163661107420921326e-02
-9.688072651624679565e-02
5.002134479582309723e-03
-6.717774085700511932e-03
-1.841944269835948944e-02
-1.796064712107181549e-02
1.995992287993431091e-02
-4.392040893435478210e-02
2.324314787983894348e-02
-1.498556733131408691e-01
5.579850077629089355e-02
1.441798657178878784e-01
-7.453800737857818604e-02
1.515307575464248657e-01
-3.577487543225288391e-02
2.996277995407581329e-03
-1.131957918405532837e-01
-2.576167583465576172e-01
-6.326080858707427979e-02
-1.645912826061248779e-01
1.153742596507072449e-01
-2.993650734424591064e-01
1.211713477969169617e-01
1.483628153800964355e-01
3.433525934815406799e-02
-4.078990966081619263e-02
5.790370330214500427e-02
-5.140351131558418274e-02
2.783161029219627380e-02
5.799416825175285339e-02
-3.550998866558074951e-01
-1.021279841661453247e-01
1.841344088315963745e-01
2.224426567554473877e-01
9.667719900608062744e-02
-1.332972496747970581e-01
-1.079425588250160217e-01
2.496523410081863403e-01
2.545528113842010498e-01
-2.533925175666809082e-01
-2.698901295661926270e-01
3.995658084750175476e-02
-1.316428631544113159e-01
-3.978864550590515137e-01
-4.625621438026428223e-02
-4.466915726661682129e-01
-3.703429102897644043e-01
-2.493945807218551636e-01
-2.530258893966674805e-01
-4.649374186992645264e-01
-3.051064312458038330e-01
6.313413381576538086e-02
-7.186359912157058716e-02
-5.366914719343185425e-02
3.962798789143562317e-02
-2.387679181993007660e-03
1.316168904304504395e-01
-8.624244481325149536e-02
-4.952182248234748840e-02
-3.196477890014648438e-02
-1.089479401707649231e-01
-2.282809279859066010e-02
2.310310453176498413e-01
-6.382650882005691528e-02
-6.683103274554014206e-03
1.277927309274673462e-01
1.723902672529220581e-02
-1.364239118993282318e-02
-2.375987544655799866e-02
4.218837991356849670e-02
3.057287633419036865e-02
-6.660823244601488113e-03
-5.525415018200874329e-02
1.273119151592254639e-01
1.346649527549743652e-01
-1.924176961183547974e-01
-6.099347397685050964e-02
-3.609612584114074707e-02
-1.833589673042297363e-01
3.888740437105298042e-03
1.286273747682571411e-01
6.008077040314674377e-02
9.896019473671913147e-03
-3.117374144494533539e-02
-1.221716403961181641e-01
-5.513228103518486023e-02
-7.262554019689559937e-02
-1.576616168022155762e-01
-8.299111574888229370e-02
8.768192678689956665e-02
-1.785631924867630005e-01
-2.818237543106079102e-01
-4.480038285255432129e-01
-1.139487996697425842e-01
-1.881246566772460938e-01
-3.308977484703063965e-01
-4.903629049658775330e-02
9.965129941701889038e-02
1.192960441112518311e-01
2.236318439245223999e-01
-1.528989057987928391e-02
2.253695949912071228e-02
1.005412116646766663e-01
-2.044717222452163696e-02
-2.801606245338916779e-02
-7.835625112056732178e-02
-2.524789236485958099e-02
1.140805240720510483e-02
6.951691955327987671e-02
6.854368746280670166e-02
1.455078274011611938e-02
-8.880539983510971069e-02
3.631891310214996338e-02
1.657547615468502045e-02
5.962163209915161133e-02
-6.248273327946662903e-02
6.516843289136886597e-02
-9.181781206279993057e-05
-5.248410999774932861e-02
4.533435218036174774e-03
-3.067435696721076965e-02
-2.445630729198455811e-02
4.391431808471679688e-02
7.515554875135421753e-02
-4.047102853655815125e-02
1.105410382151603699e-01
1.046114936470985413e-01
-6.781147420406341553e-02
1.154789105057716370e-01
2.375081554055213928e-02
9.161420166492462158e-02
-2.634797804057598114e-02
-1.803870312869548798e-02
3.295950591564178467e-02
3.405009508132934570e-01
-1.699218899011611938e-01
-5.025352835655212402e-01
-1.084293499588966370e-01
-5.875656753778457642e-02
-9.244687855243682861e-02
-3.213935196399688721e-01
1.875253766775131226e-02
-6.641805171966552734e-03
8.134827017784118652e-02
-4.992028325796127319e-02
2.678563632071018219e-02
-1.657721027731895447e-02
1.167972665280103683e-02
3.097818233072757721e-02
3.660670667886734009e-02
8.066982030868530273e-02
5.430468171834945679e-02
9.841965883970260620e-02
8.415992558002471924e-02
1.031243801116943359e-01
9.302307153120636940e-04
3.224957734346389771e-02
1.939284503459930420e-01
2.308204472064971924e-01
2.478971630334854126e-01
1.671024709939956665e-01
3.415287286043167114e-02
-1.357735693454742432e-01
7.177157700061798096e-02
9.383978694677352905e-02
-2.868862748146057129e-01
-3.469307124614715576e-01
-6.305755581706762314e-03
1.328485738486051559e-02
1.074589118361473083e-01
1.532655805349349976e-01
5.978927388787269592e-02
1.029271855950355530e-01
1.564719527959823608e-01
1.080680564045906067e-01
7.465181499719619751e-02
5.022247135639190674e-02
-9.330391883850097656e-03
-1.530290395021438599e-01
-2.617926150560379028e-02
-8.796659111976623535e-02
-1.899224668741226196e-01
-8.266044408082962036e-02
-1.106624305248260498e-01
-1.047960743308067322e-01
-1.062813177704811096e-01
9.560473263263702393e-02
2.536094188690185547e-01
3.064715564250946045e-01
3.416618108749389648e-01
2.267907559871673584e-01
1.898270100355148315e-01
4.408363252878189087e-02
3.684736788272857666e-01
2.554731369018554688e-01
-6.733478605747222900e-02
-1.442879438400268555e-01
-6.874392926692962646e-02
-5.200275778770446777e-02
1.179123576730489731e-02
-1.409277915954589844e-01
5.523671582341194153e-02
-3.982906416058540344e-02
-9.796973317861557007e-02
-7.140419632196426392e-02
-6.055082008242607117e-02
-4.440368339419364929e-02
-1.684352457523345947e-01
-1.254796236753463745e-01
-1.220807898789644241e-02
6.757953017950057983e-02
2.252297252416610718e-01
4.253683239221572876e-02
1.795568503439426422e-02
3.179562836885452271e-02
-8.894877135753631592e-02
1.353356987237930298e-02
7.734309136867523193e-02
-8.870933949947357178e-02
1.285390406847000122e-01
7.513168454170227051e-02
6.737969070672988892e-02
1.740100532770156860e-01
6.331113725900650024e-02
1.837388128042221069e-01
-2.572778612375259399e-02
1.178860291838645935e-01
2.896066308021545410e-01
2.642957568168640137e-01
1.499221175909042358e-01
-4.004669189453125000e-02
1.025044079869985580e-02
-1.696791052818298340e-01
-1.152523308992385864e-01
-7.953010499477386475e-02
-1.788335889577865601e-01
-1.001960039138793945e-01
2.346943691372871399e-02
-8.879604190587997437e-02
2.068022824823856354e-02
9.351889789104461670e-02
1.156524792313575745e-01
6.439742445945739746e-02
-1.684884577989578247e-01
-5.816824734210968018e-02
2.979503944516181946e-02
6.029981374740600586e-02
1.311632841825485229e-01
7.810244336724281311e-03
1.048104688525199890e-01
-2.657157368957996368e-02
-8.992305025458335876e-03
-1.921939104795455933e-01
-1.339429914951324463e-01
-1.219394952058792114e-01
3.886309638619422913e-02
3.717959672212600708e-02
-1.740271411836147308e-02
-8.959592087194323540e-04
-2.201890340074896812e-03
7.483752071857452393e-02
-1.457802355289459229e-01
9.365405142307281494e-02
4.669646546244621277e-02
1.363734304904937744e-01
1.116357296705245972e-01
-7.147338241338729858e-02
5.989541299641132355e-03
-5.821935832500457764e-02
9.989301115274429321e-02
3.337677195668220520e-02
-2.403774764388799667e-03
8.255486935377120972e-02
-5.286421254277229309e-02
2.584942849352955818e-03
-8.802252821624279022e-03
-1.218200325965881348e-01
-3.946717455983161926e-02
-2.996446192264556885e-02
3.474572300910949707e-02
-1.965451426804065704e-02
-1.256522238254547119e-01
-1.464100033044815063e-01
1.430922746658325195e-02
-9.483248926699161530e-03
-3.238420560956001282e-02
-5.673358589410781860e-02
9.849986061453819275e-03
-2.274287790060043335e-01
-1.769552826881408691e-01
-5.425573512911796570e-02
6.593136489391326904e-02
-6.053310260176658630e-02
1.090352144092321396e-02
9.945655614137649536e-02
-6.657190620899200439e-02
3.009927645325660706e-02
5.593842267990112305e-02
4.900046437978744507e-02
-1.126011684536933899e-01
1.092301681637763977e-01
1.086333859711885452e-02
-7.786777336150407791e-03
-6.047463044524192810e-02
-6.171804666519165039e-02
-8.525377511978149414e-02
-1.001182198524475098e-01
-8.601371943950653076e-02
3.212851285934448242e-02
1.406717151403427124e-01
1.145591288805007935e-01
4.236281290650367737e-02
3.153247386217117310e-02
-2.618924714624881744e-03
-1.788293719291687012e-01
-1.643525213003158569e-01
-1.987033635377883911e-01
-1.771897673606872559e-01
-9.631595015525817871e-02
-4.219099506735801697e-02
-1.998357474803924561e-02
-1.011079177260398865e-01
-1.131780967116355896e-01
-9.756280481815338135e-02
-8.488561958074569702e-02
-7.100869715213775635e-02
2.094461582601070404e-03
-1.134235784411430359e-02
-1.304112523794174194e-01
-6.036797165870666504e-02
1.298995167016983032e-01
1.123558282852172852e-01
8.715198189020156860e-02
2.350895255804061890e-01
4.433980584144592285e-02
3.958763554692268372e-02
1.942315399646759033e-01
-1.003824099898338318e-01
-1.186226494610309601e-02
1.569259166717529297e-01
1.351504921913146973e-01
-5.912037566304206848e-02
1.736818253993988037e-01
1.676451414823532104e-01
-4.962041229009628296e-02
-5.420840159058570862e-02
-3.036921024322509766e-01
-2.321518361568450928e-01
3.296761307865381241e-03
-2.134272605180740356e-01
-1.771114468574523926e-01
1.248108781874179840e-02
-4.220999777317047119e-02
6.774009764194488525e-02
1.483303159475326538e-01
9.415195137262344360e-02
1.477245390415191650e-01
1.060188561677932739e-01
1.596278399229049683e-01
-6.839657435193657875e-04
3.070808351039886475e-01
2.064793258905410767e-01
8.046568930149078369e-02
1.169679015874862671e-01
-2.509529292583465576e-01
-3.660502135753631592e-01
6.502928584814071655e-02
8.682021498680114746e-02
8.683139458298683167e-03
-5.754421465098857880e-03
-5.392600595951080322e-02
-3.496622294187545776e-02
7.511419802904129028e-02
1.291488111019134521e-01
1.044893860816955566e-01
1.135005727410316467e-01
2.271740436553955078e-01
-1.307809352874755859e-01
1.941832005977630615e-01
8.508652448654174805e-02
-3.461139202117919922e-01
-7.738921046257019043e-02
-1.689488440752029419e-01
-2.835965156555175781e-01
1.130813658237457275e-01
4.683846235275268555e-02
-4.913247376680374146e-02
1.076911911368370056e-01
-8.084108680486679077e-02
-2.145300060510635376e-01
-2.045823726803064346e-03
4.917900264263153076e-02
-9.414557367563247681e-02
-1.168842092156410217e-01
-4.355765134096145630e-02
-4.928455129265785217e-02
7.189057767391204834e-02
1.533088088035583496e-01
9.184411726891994476e-03
1.516103595495223999e-01
1.438620686531066895e-01
-3.887521848082542419e-02
2.791850864887237549e-01
8.504719287157058716e-02
5.627848953008651733e-02
6.014829874038696289e-02
-9.845677018165588379e-02
-2.398596107959747314e-01
4.826034884899854660e-03
-2.481195703148841858e-02
-2.065514177083969116e-01
-3.021954298019409180e-01
-5.854378640651702881e-02
-1.006537750363349915e-01
-5.034410580992698669e-02
1.596147119998931885e-01
1.839672923088073730e-01
3.957601636648178101e-02
2.703556418418884277e-01
9.211184829473495483e-02
9.208231419324874878e-02
1.489000767469406128e-01
-8.499149978160858154e-02
1.071759164333343506e-01
8.309150487184524536e-02
-6.978207081556320190e-02
7.151408493518829346e-02
-2.032468616962432861e-01
-2.011152058839797974e-01
-1.627841442823410034e-01
-1.688129007816314697e-01
-7.443764805793762207e-02
-3.241787478327751160e-02
3.770325705409049988e-02
1.456782687455415726e-03
1.153883114457130432e-01
1.193874627351760864e-01
6.274455785751342773e-02
1.706897094845771790e-02
-8.443633466958999634e-02
-1.261814385652542114e-01
4.830497130751609802e-02
-4.773404821753501892e-02
-7.305662333965301514e-02
1.603333279490470886e-02
-5.512863397598266602e-02
-2.184981107711791992e-01
8.714896440505981445e-02
-4.907826334238052368e-02
-2.285754121840000153e-02
2.114158868789672852e-02
-3.487586230039596558e-02
-1.052845492959022522e-01
6.705438345670700073e-02
6.466497480869293213e-02
-7.001227885484695435e-02
1.681277602910995483e-01
1.465777307748794556e-01
3.870772942900657654e-02
-3.210901841521263123e-02
-3.641371801495552063e-02
-4.413320496678352356e-02
-2.604526467621326447e-02
5.743598192930221558e-02
-3.308671340346336365e-02
1.000558063387870789e-01
5.823075771331787109e-02
1.287275403738021851e-01
-1.074028089642524719e-01
-1.198702231049537659e-01
2.200475335121154785e-02
-1.560418754816055298e-01
-1.744569092988967896e-01
-1.811618357896804810e-01
1.399520188570022583e-01
2.300424575805664062e-01
1.943219103850424290e-03
4.596656933426856995e-02
-7.255696691572666168e-03
-1.789901256561279297e-01
-2.090877294540405273e-02
-8.595924824476242065e-02
-1.058842539787292480e-01
-9.888736903667449951e-02
8.160449564456939697e-02
-9.315231442451477051e-02
-1.138989180326461792e-01
8.938812464475631714e-02
1.041438207030296326e-01
-1.924501806497573853e-01
-5.523309856653213501e-02
6.454066839069128036e-03
-1.845511235296726227e-02
4.308301582932472229e-02
-1.409794837236404419e-01
4.754379391670227051e-02
-1.822906434535980225e-01
-1.394662708044052124e-01
4.942115023732185364e-02
-2.265130430459976196e-01
-2.051811069250106812e-01
-3.462513163685798645e-02
1.268313676118850708e-01
1.062754765152931213e-01
2.181866671890020370e-03
1.016095727682113647e-01
1.615985929965972900e-01
-7.275453209877014160e-02
6.287251412868499756e-02
7.349209487438201904e-02
6.420832127332687378e-02
7.583869248628616333e-02
-4.779402632266283035e-03
1.294783316552639008e-02
1.642947085201740265e-02
-1.285032331943511963e-01
6.141485646367073059e-02
-1.425643265247344971e-01
-9.350039064884185791e-02
-2.954287827014923096e-01
-7.981776446104049683e-02
-5.172136425971984863e-02
5.668476596474647522e-02
6.201164796948432922e-02
-5.459621176123619080e-02
1.356830000877380371e-01
8.597512543201446533e-02
2.498067170381546021e-02
-2.566623091697692871e-01
1.620245166122913361e-02
7.457080483436584473e-02
-9.408779442310333252e-02
2.181849181652069092e-01
1.130219399929046631e-01
-1.249970588833093643e-02
1.044805422425270081e-01
4.212919622659683228e-02
-1.665417291224002838e-02
-2.264252454042434692e-01
-1.887446939945220947e-01
-7.536402344703674316e-02
-1.465123891830444336e-01
-9.726531803607940674e-02
-1.813442409038543701e-01
-2.694430015981197357e-02
-5.751063674688339233e-02
-1.341596543788909912e-01
4.330707713961601257e-02
-3.195722028613090515e-02
-1.631386876106262207e-01
2.431277632713317871e-01
1.539344787597656250e-01
-2.416107058525085449e-01
2.560888417065143585e-02
2.809716947376728058e-02
-4.824395477771759033e-02
-1.796378791332244873e-01
-1.885099261999130249e-01
-2.001662179827690125e-02
-6.242293748073279858e-04
-3.410720825195312500e-02
2.204463332891464233e-01
1.445295661687850952e-01
2.038733512163162231e-01
9.087642654776573181e-03
-2.113741822540760040e-02
8.488371223211288452e-02
1.193023398518562317e-01
-1.459969300776720047e-02
-9.013869613409042358e-02
5.704263970255851746e-02
-4.533583298325538635e-02
-2.640691772103309631e-02
-1.099451212212443352e-03
-2.571217715740203857e-01
-2.002272754907608032e-02
-3.519769757986068726e-02
-1.727156490087509155e-01
-6.649253517389297485e-02
1.511768251657485962e-01
1.058631483465433121e-02
1.765534579753875732e-01
1.191408373415470123e-02
-3.625778853893280029e-02
-9.252085536718368530e-02
3.279868140816688538e-02
4.278929159045219421e-02
3.567773476243019104e-02
1.841343007981777191e-02
7.898522913455963135e-02
-2.269650623202323914e-02
-3.083252310752868652e-01
-3.165880441665649414e-01
1.083775684237480164e-01
-1.802320778369903564e-01
-1.062118932604789734e-01
1.377299278974533081e-01
-1.786633133888244629e-01
-1.686092168092727661e-01
1.363823711872100830e-01
-2.251102030277252197e-01
-1.786958575248718262e-01
1.037328168749809265e-01
-1.414103209972381592e-01
-1.781938672065734863e-01
7.894649356603622437e-02
3.683693334460258484e-02
-1.426828745752573013e-02
-1.774865947663784027e-02
-1.335250139236450195e-01
-2.099288851022720337e-01
-2.252110466361045837e-02
-1.181043311953544617e-01
-1.649413406848907471e-01
-2.963654994964599609e-01
8.779136836528778076e-02
1.395805627107620239e-01
5.978732183575630188e-02
-2.003545165061950684e-01
-2.909654974937438965e-01
-1.497160047292709351e-01
-3.372215628623962402e-01
-4.027517735958099365e-01
-3.155488669872283936e-01
-5.042658001184463501e-02
-1.264014989137649536e-01
6.486772000789642334e-02
4.310235008597373962e-02
-1.162591800093650818e-01
-5.852300673723220825e-02
1.591545939445495605e-01
-1.507730931043624878e-01
-2.241388261318206787e-01
3.172348737716674805e-01
2.005337364971637726e-02
-1.899671554565429688e-01
-3.292082995176315308e-02
-3.171691787429153919e-04
-1.360669285058975220e-01
-1.570157147943973541e-02
4.174369946122169495e-02
-3.069670870900154114e-02
5.902034789323806763e-02
1.966680586338043213e-01
2.424148917198181152e-01
-2.084807120263576508e-02
-1.638082116842269897e-01
7.843691855669021606e-04
1.069866344332695007e-01
-2.184666693210601807e-01
-2.523734867572784424e-01
1.444168388843536377e-01
-3.960107639431953430e-02
-1.881491541862487793e-01
-3.912834450602531433e-03
-1.700875163078308105e-01
-2.785736322402954102e-01
-1.015303283929824829e-01
-1.259324550628662109e-01
-3.033748865127563477e-01
-1.996378228068351746e-02
4.411694779992103577e-02
1.849575936794281006e-01
-6.648115813732147217e-02
1.009951811283826828e-02
1.720962673425674438e-01
3.802990168333053589e-02
-8.138858526945114136e-02
1.211276203393936157e-01
4.677384719252586365e-02
4.044455289840698242e-02
1.713060289621353149e-01
1.221425980329513550e-01
-1.480233222246170044e-01
-2.160284817218780518e-01
8.932473510503768921e-02
-1.637354046106338501e-01
-3.333629071712493896e-01
3.029497265815734863e-01
2.222916632890701294e-01
8.118713647127151489e-02
3.348540887236595154e-02
4.422730952501296997e-02
-4.236143082380294800e-02
-5.931795015931129456e-02
-1.148959249258041382e-01
-7.874218374490737915e-02
-1.857081353664398193e-01
-1.594327390193939209e-02
-1.701506227254867554e-01
1.163843721151351929e-01
-1.174263209104537964e-01
-5.636800453066825867e-02
1.455722004175186157e-01
-1.395499855279922485e-01
-2.158973664045333862e-01
2.321108430624008179e-01
9.868384897708892822e-02
6.208088248968124390e-02
-1.420171707868576050e-01
1.967138051986694336e-01
1.003332994878292084e-02
-9.982857853174209595e-02
1.472811251878738403e-01
2.043074667453765869e-01
-2.569683790206909180e-01
-6.789334118366241455e-02
2.205028682947158813e-01
-9.331889450550079346e-02
1.038906052708625793e-01
9.993065893650054932e-02
-1.163931339979171753e-01
1.128357946872711182e-01
1.028253808617591858e-01
6.701504439115524292e-02
1.153905317187309265e-01
1.644961088895797729e-01
4.594320058822631836e-02
1.584851294755935669e-01
1.004518717527389526e-01
-1.254349052906036377e-01
1.171775609254837036e-01
4.347799718379974365e-02
-7.923550158739089966e-02
3.702334361150860786e-03
6.535688042640686035e-02
4.931971058249473572e-02
3.803241997957229614e-02
-1.918797940015792847e-02
9.351466596126556396e-02
-9.363876283168792725e-02
-4.771289974451065063e-02
6.049188226461410522e-02
-6.380140036344528198e-02
5.228191614151000977e-02
9.279017895460128784e-02
7.163431495428085327e-02
1.145194172859191895e-01
-3.701857477426528931e-02
5.066175758838653564e-02
1.242739409208297729e-01
-2.089349180459976196e-02
6.649064272642135620e-02
5.694846063852310181e-02
3.740413859486579895e-02
8.654493722133338451e-04
-5.788248963654041290e-03
2.195191197097301483e-02
5.946639925241470337e-02
-1.547547150403261185e-02
6.559485942125320435e-02
1.212775409221649170e-01
1.352361738681793213e-01
4.965000785887241364e-03
-1.388018131256103516e-01
-1.464631408452987671e-01
-7.880828529596328735e-02
-1.178202852606773376e-01
-4.724526032805442810e-02
6.928394734859466553e-02
3.486406803131103516e-02
-1.513598114252090454e-02
-6.040510907769203186e-02
-2.202663803473114967e-03
-1.969625800848007202e-01
-1.627087444067001343e-01
-8.332537114620208740e-02
-1.356737464666366577e-01
-8.860001713037490845e-02
-9.570350497961044312e-02
-1.908712983131408691e-01
8.033739030361175537e-02
-1.023896783590316772e-01
6.332341581583023071e-02
1.876041665673255920e-02
1.002651453018188477e-02
1.206161603331565857e-01
-1.075110435485839844e-01
-2.654190361499786377e-02
-4.308768361806869507e-02
3.357623144984245300e-02
4.485127702355384827e-02
-3.608681261539459229e-02
-6.001951987855136395e-06
5.390632152557373047e-02
-2.029955945909023285e-02
1.075200438499450684e-01
1.066107004880905151e-01
3.684516251087188721e-02
7.099992781877517700e-02
7.670755684375762939e-02
3.106252476572990417e-02
5.196058005094528198e-02
1.208176538348197937e-01
1.011100262403488159e-01
4.146701539866626263e-04
2.620881050825119019e-02
4.375742375850677490e-02
9.997448883950710297e-03
-1.321627795696258545e-01
-2.599268034100532532e-02
1.889034807682037354e-01
1.088816821575164795e-01
-6.301523745059967041e-02
5.753468722105026245e-02
-6.507329642772674561e-02
7.390213012695312500e-02
-1.485019028186798096e-01
8.846202492713928223e-02
3.926974534988403320e-02
5.652203783392906189e-02
9.147163480520248413e-02
-1.115957554429769516e-02
9.118441492319107056e-02
2.099574655294418335e-01
-2.457195892930030823e-02
1.172572076320648193e-01
-5.327126011252403259e-02
1.968859881162643433e-01
3.839379549026489258e-02
-9.681070595979690552e-02
-5.567117780447006226e-02
-3.097943775355815887e-02
-1.231636181473731995e-01
-1.208470910787582397e-01
-6.479863822460174561e-02
-1.619388014078140259e-01
-1.666715443134307861e-01
3.698871284723281860e-02
-1.088624745607376099e-01
-1.763623803853988647e-01
1.060236319899559021e-01
-3.535342961549758911e-02
2.894008159637451172e-02
-1.950489170849323273e-02
6.608008872717618942e-03
1.380695104598999023e-01
3.666446730494499207e-02
-7.415144238620996475e-03
1.393242329359054565e-01
8.086264133453369141e-02
-2.051439881324768066e-01
-9.694554843008518219e-03
-9.143956005573272705e-02
1.415389357134699821e-03
-1.081530973315238953e-01
1.734718307852745056e-02
8.018788695335388184e-02
-1.254335939884185791e-01
2.698020078241825104e-03
1.592150181531906128e-01
3.045103512704372406e-02
-6.573972851037979126e-02
1.046859174966812134e-01
-1.571726053953170776e-01
-1.054961308836936951e-01
1.240267306566238403e-01
-6.288018077611923218e-02
-6.789949536323547363e-02
1.856385767459869385e-01
-1.494418084621429443e-01
6.053017824888229370e-02
6.835543364286422729e-02
-7.741893082857131958e-02
6.266030669212341309e-02
1.254448443651199341e-01
7.876328378915786743e-02
1.847737431526184082e-01
2.967147156596183777e-02
5.205851793289184570e-02
-1.003350690007209778e-01
-1.003404483199119568e-01
-1.485546827316284180e-01
-7.917178422212600708e-02
-1.858670148067176342e-03
-1.503978371620178223e-01
8.540897071361541748e-02
2.405171096324920654e-02
8.123173378407955170e-03
-6.004021689295768738e-02
-1.855162978172302246e-01
1.854458600282669067e-01
1.306144595146179199e-01
-2.130917906761169434e-01
1.934230774641036987e-01
2.996718697249889374e-02
-1.601999700069427490e-01
1.370898783206939697e-01
7.458386942744255066e-03
-5.723488517105579376e-03
-9.533973410725593567e-03
1.146114319562911987e-01
1.488821953535079956e-01
4.011970013380050659e-02
7.170621305704116821e-02
1.086003631353378296e-01
-5.439867079257965088e-02
-1.981938444077968597e-02
-7.602189481258392334e-02
-3.818567469716072083e-02
-1.168387308716773987e-01
-5.088404752314090729e-03
-2.474366920068860054e-03
-4.459034278988838196e-02
-6.148894503712654114e-02
6.153342779725790024e-03
1.177635341882705688e-01
1.784882247447967529e-01
5.666771158576011658e-02
1.045777648687362671e-01
1.882984340190887451e-01
7.898753136396408081e-02
7.747408002614974976e-02
4.028449207544326782e-02
1.513306945562362671e-01
-4.230703040957450867e-02
-1.906763762235641479e-01
-1.893982887268066406e-01
-1.448178738355636597e-01
-1.486284136772155762e-01
-2.841968648135662079e-02
-2.132893726229667664e-02
-8.254140615463256836e-02
-1.171018406748771667e-01
-1.304513663053512573e-01
-4.160366058349609375e-01
-2.602294087409973145e-01
-2.233748137950897217e-01
-1.536698639392852783e-01
-2.255102843046188354e-01
-5.982551351189613342e-02
-1.224414110183715820e-01
-5.838094651699066162e-02
2.056817859411239624e-01
1.131700649857521057e-01
5.055646970868110657e-02
7.322237640619277954e-02
-2.447554096579551697e-02
1.006599068641662598e-01
1.647780835628509521e-02
3.287030756473541260e-02
4.235801100730895996e-02
1.863444223999977112e-02
3.885079175233840942e-02
2.077149301767349243e-01
1.254978775978088379e-01
1.447229832410812378e-01
2.596584148705005646e-03
-2.034940570592880249e-02
-2.241471968591213226e-02
4.059983417391777039e-02
-6.787772476673126221e-02
-8.940516412258148193e-02
-1.045987233519554138e-01
-5.155428871512413025e-02
-3.360605239868164062e-02
2.701053395867347717e-02
1.222478076815605164e-01
-4.054674413055181503e-03
1.481534689664840698e-01
2.996176481246948242e-02
-4.476696997880935669e-02
-3.912751749157905579e-02
2.811164781451225281e-02
-9.389127790927886963e-02
-8.821780234575271606e-02
-9.857238084077835083e-02
-4.360982775688171387e-02
6.300811469554901123e-02
-3.093138150870800018e-02
-1.203306019306182861e-01
-9.806276112794876099e-02
-6.754322908818721771e-03
-5.047214031219482422e-02
-1.060926318168640137e-01
-1.938061267137527466e-01
-2.537138760089874268e-01
-9.082984924316406250e-02
-4.512973874807357788e-02
5.896651372313499451e-02
1.097844243049621582e-01
1.078768521547317505e-01
2.024642191827297211e-02
-2.659989707171916962e-02
-5.552631989121437073e-02
7.471000310033559799e-03
2.364539913833141327e-02
-4.418754205107688904e-02
4.490155354142189026e-02
1.825532503426074982e-02
-1.479312963783740997e-02
-1.371116098016500473e-02
-3.433810546994209290e-02
-7.457979023456573486e-02
-4.433380812406539917e-02
-8.845322579145431519e-02
-3.430863842368125916e-02
8.739597164094448090e-03
-5.900685861706733704e-02
-3.329747822135686874e-03
-1.137463599443435669e-01
-1.362208556383848190e-02
1.230718102306127548e-02
-1.281791478395462036e-01
-1.082637980580329895e-01
1.074399147182703018e-02
5.113353207707405090e-02
5.088810995221138000e-02
1.431365758180618286e-01
5.674218013882637024e-02
1.566942334175109863e-01
9.412717819213867188e-02
7.319784909486770630e-02
1.437763720750808716e-01
1.220183819532394409e-01
2.512200549244880676e-02
9.311962872743606567e-02
1.027517169713973999e-01
9.563869982957839966e-02
4.141660034656524658e-02
6.403702497482299805e-02
7.707836478948593140e-02
9.339403361082077026e-02
-1.081781089305877686e-01
-8.679112046957015991e-02
-2.055662218481302261e-03
3.956964984536170959e-02
-4.057139903306961060e-02
4.121451824903488159e-02
9.480717126280069351e-04
-2.354415506124496460e-02
3.507457440719008446e-03
4.355664923787117004e-02
4.301426187157630920e-02
6.100070104002952576e-02
7.220947742462158203e-02
8.763815462589263916e-02
4.414903372526168823e-02
1.637536287307739258e-02
1.488750334829092026e-02
8.899168670177459717e-02
8.187603205442428589e-02
-4.184362664818763733e-02
6.543615460395812988e-02
-4.701968654990196228e-02
-7.405328750610351562e-02
-3.126747906208038330e-02
-9.101408720016479492e-02
-1.747101545333862305e-01
1.800446771085262299e-02
3.099815547466278076e-02
-1.399460621178150177e-02
1.033117994666099548e-01
3.383385483175516129e-03
7.010963559150695801e-02
4.012686386704444885e-02
1.261737663298845291e-03
1.940926164388656616e-01
3.939040377736091614e-02
6.383642554283142090e-02
-2.915675938129425049e-01
7.443037629127502441e-02
1.081673149019479752e-02
-1.898175328969955444e-01
-3.418834879994392395e-02
-8.804834447801113129e-03
-2.015167027711868286e-01
-6.250730901956558228e-02
1.922890357673168182e-02
1.336127752438187599e-03
6.574210524559020996e-02
-2.531801462173461914e-01
8.479938842356204987e-03
-3.162340447306632996e-02
3.285882622003555298e-02
7.294872403144836426e-02
7.296417839825153351e-03
1.452134251594543457e-01
-1.582801342010498047e-01
-5.785952322185039520e-03
3.062551142647862434e-03
-1.056567505002021790e-01
-9.016986005008220673e-03
4.023606330156326294e-02
-7.990425825119018555e-02
-1.067796126008033752e-01
-1.641418933868408203e-01
-3.209383040666580200e-02
-1.858857087790966034e-02
1.370948087424039841e-02
-1.434509009122848511e-01
-5.982068181037902832e-02
3.888010047376155853e-03
-1.164181232452392578e-01
-9.500989317893981934e-02
1.210026517510414124e-01
1.637795269489288330e-01
1.015688478946685791e-01
1.256739348173141479e-01
3.111017644405364990e-01
1.247094050049781799e-01
2.014613449573516846e-01
2.695122659206390381e-01
1.265321820974349976e-01
8.092796057462692261e-02
3.297078423202037811e-03
8.922821283340454102e-02
-1.469175517559051514e-01
-2.457279562950134277e-01
-8.046924136579036713e-03
-1.226394400000572205e-01
-3.187726736068725586e-01
-1.488759070634841919e-01
5.924463644623756409e-02
-4.198009520769119263e-02
4.125958681106567383e-02
4.053181037306785583e-02
-8.857768774032592773e-02
-2.356251887977123260e-02
6.926518678665161133e-02
-7.135476917028427124e-02
-6.659181416034698486e-02
-8.188942819833755493e-02
-5.640978738665580750e-02
2.316393144428730011e-02
1.030328348278999329e-01
-3.487892681732773781e-03
-3.661234304308891296e-02
1.484455168247222900e-01
-1.185939684510231018e-01
-4.507265402935445309e-04
2.813709527254104614e-02
-1.030584275722503662e-01
-8.015626110136508942e-03
-2.587571926414966583e-02
-1.511985063552856445e-01
-7.288096472620964050e-03
-1.624245941638946533e-01
-1.364870518445968628e-01
-7.563206553459167480e-02
7.603810634464025497e-03
-1.535121630877256393e-02
8.351481705904006958e-02
-8.914935588836669922e-02
1.174878180027008057e-01
3.021405311301350594e-03
-1.708387583494186401e-01
1.196724548935890198e-01
-6.058381870388984680e-03
6.785943359136581421e-02
4.565020278096199036e-02
-3.413313068449497223e-03
1.145081520080566406e-01
-2.806227421388030052e-04
2.932291664183139801e-02
9.479144215583801270e-02
-3.102584276348352432e-03
1.257329732179641724e-01
8.541071414947509766e-02
-1.161985322833061218e-01
6.758537888526916504e-02
5.659988150000572205e-02
-6.393685191869735718e-02
3.553125634789466858e-02
8.913621306419372559e-02
6.846274435520172119e-02
-6.105854362249374390e-02
1.719859838485717773e-01
8.939319849014282227e-02
-1.591375917196273804e-01
1.241876855492591858e-01
2.007272243499755859e-01
6.452908366918563843e-02
1.985794454813003540e-01
5.460070446133613586e-02
2.489562779664993286e-01
-7.193236052989959717e-02
2.864386327564716339e-02
-8.178680203855037689e-03
2.364521287381649017e-02
-3.434930741786956787e-02
4.841662198305130005e-02
-5.946561321616172791e-02
7.642881479114294052e-03
2.453533373773097992e-02
1.698084920644760132e-02
-6.463454570621252060e-03
-3.425839543342590332e-02
-4.882379248738288879e-02
-8.367101848125457764e-02
4.532325640320777893e-02
1.281015127897262573e-01
-4.298160597681999207e-02
-1.640741899609565735e-02
-2.920141071081161499e-02
-1.077462732791900635e-01
-2.123823761940002441e-01
-1.193417310714721680e-01
-7.853912189602851868e-03
-2.889254316687583923e-02
-1.006538569927215576e-01
-2.028797417879104614e-01
-1.650160253047943115e-01
1.895865052938461304e-02
1.857551634311676025e-01
1.344232708215713501e-01
-7.850652933120727539e-02
-3.285566344857215881e-02
-8.946569263935089111e-02
-2.007289677858352661e-01
-3.610140457749366760e-02
-3.823567926883697510e-02
-2.588722854852676392e-02
-1.962689161300659180e-01
-1.705627143383026123e-01
4.405600950121879578e-02
-1.812994182109832764e-01
-2.782822251319885254e-01
-1.992814475670456886e-03
-8.411744982004165649e-02
7.983465678989887238e-03
-4.906011372804641724e-02
1.278171390295028687e-01
-2.735790610313415527e-02
-1.743615977466106415e-02
-1.007002890110015869e-01
-1.643802523612976074e-01
-2.054234594106674194e-01
-1.427213102579116821e-01
-1.626737117767333984e-01
8.427106589078903198e-02
4.284084215760231018e-02
1.697839647531509399e-01
-6.530182063579559326e-02
4.526278749108314514e-02
1.038524881005287170e-01
1.281732041388750076e-02
3.415901586413383484e-02
7.653020322322845459e-02
1.191892698407173157e-01
1.478780955076217651e-01
-4.052443429827690125e-02
-1.264490783214569092e-01
1.476411819458007812e-01
-7.778691127896308899e-03
-2.273958325386047363e-01
1.726194024085998535e-01
4.144281521439552307e-02
6.053203716874122620e-02
-4.610522184520959854e-03
7.074404507875442505e-02
2.860822342336177826e-02
8.484079688787460327e-02
1.850317269563674927e-01
-9.579788893461227417e-02
-6.999704986810684204e-02
9.876850526779890060e-04
3.807926177978515625e-02
-1.227390486747026443e-02
9.698595851659774780e-02
-1.711495667695999146e-01
-1.142625231295824051e-02
1.109123006463050842e-01
-1.314711719751358032e-01
-1.042802855372428894e-01
-7.451564818620681763e-02
2.978538395836949348e-04
3.773481771349906921e-02
1.001442521810531616e-01
-7.749866694211959839e-02
1.498412787914276123e-01
1.489275246858596802e-01
-1.971952915191650391e-01
-1.600170433521270752e-01
6.509237457066774368e-03
-1.488922536373138428e-01
-3.151592016220092773e-01
-7.684463262557983398e-02
-4.476644471287727356e-02
-3.240737020969390869e-01
-2.958596944808959961e-01
1.335031241178512573e-01
-1.812076866626739502e-01
-5.898441374301910400e-02
2.207082062959671021e-01
2.113746851682662964e-01
-7.333905249834060669e-02
9.101602435111999512e-02
2.525509595870971680e-01
6.486952304840087891e-02
-1.591458171606063843e-01
7.484664022922515869e-02
1.067995429039001465e-01
-1.989776343107223511e-01
-3.131747841835021973e-01
-7.451539486646652222e-02
-1.913828402757644653e-01
-3.213079869747161865e-01
-1.667710989713668823e-01
-1.887792721390724182e-02
-1.595416814088821411e-01
-1.208664551377296448e-01
9.870578534901142120e-03
1.375020146369934082e-01
1.242370083928108215e-01
-8.010855875909328461e-03
7.493170350790023804e-02
-5.750834941864013672e-02
-1.976680159568786621e-01
-1.467528343200683594e-01
-1.090740412473678589e-01
1.908806413412094116e-01
1.121944859623908997e-01
2.076003700494766235e-01
5.340237170457839966e-02
1.870298013091087341e-02
1.307857930660247803e-01
6.546874344348907471e-02
-1.254580169916152954e-01
-7.401815801858901978e-02
7.144621014595031738e-02
5.360011011362075806e-02
1.287359446287155151e-01
3.429639711976051331e-02
6.587231904268264771e-02
1.179395541548728943e-01
-1.836129873991012573e-01
-2.314993366599082947e-02
-4.536145180463790894e-02
6.792555749416351318e-02
-2.426298335194587708e-02
-2.495788969099521637e-02
1.002298295497894287e-01
-2.756030671298503876e-02
-8.578024804592132568e-02
-6.789222359657287598e-02
-2.780997157096862793e-01
-7.571503520011901855e-02
1.106522902846336365e-01
1.581160724163055420e-01
1.151708960533142090e-01
5.383194889873266220e-03
1.091538220643997192e-01
1.636150777339935303e-01
5.726730450987815857e-02
1.025115400552749634e-01
7.872484624385833740e-02
7.595974206924438477e-02
-6.532598286867141724e-03
-5.006286501884460449e-02
-8.811282925307750702e-03
-1.281858682632446289e-01
-4.409933835268020630e-02
-1.706518679857254028e-01
-1.027116775512695312e-01
1.393018011003732681e-02
6.003876775503158569e-02
4.263871908187866211e-02
4.891115427017211914e-02
-4.344008117914199829e-02
1.808835007250308990e-02
-1.125607788562774658e-01
-1.458572149276733398e-01
-2.169658541679382324e-01
-1.032195538282394409e-01
-8.356131613254547119e-02
-4.885277897119522095e-02
1.609933972358703613e-01
-1.106491237878799438e-01
-1.334313154220581055e-01
4.543724656105041504e-02
-1.478383839130401611e-01
-2.665407769381999969e-02
-2.956575900316238403e-02
-6.074829772114753723e-02
-2.248793989419937134e-01
-1.989386975765228271e-01
-2.987336218357086182e-01
-3.905657529830932617e-01
-4.336321651935577393e-01
-1.479309499263763428e-01
-1.723837703466415405e-01
-1.726704537868499756e-01
5.470485240221023560e-02
9.555294364690780640e-02
1.542129088193178177e-02
1.789023354649543762e-02
8.937248587608337402e-02
5.658980458974838257e-02
7.579700648784637451e-02
1.721277683973312378e-01
-8.455711603164672852e-02
5.826277658343315125e-02
7.059168536216020584e-03
-1.051751337945461273e-02
-4.097766429185867310e-02
-7.348962873220443726e-02
-2.626189589500427246e-02
-2.895965240895748138e-02
-7.010121643543243408e-02
-4.678204283118247986e-02
-2.847277745604515076e-02
-4.231571406126022339e-02
-1.018823683261871338e-01
-4.277631267905235291e-02
-5.999882146716117859e-02
-1.406905055046081543e-01
2.147805877029895782e-02
-3.440701216459274292e-02
-2.032916620373725891e-02
5.701484158635139465e-02
-2.563870977610349655e-03
1.282382607460021973e-01
1.683417707681655884e-01
-5.033982452005147934e-03
1.535692512989044189e-01
9.043955057859420776e-02
5.889219045639038086e-02
1.437091678380966187e-01
-1.083046868443489075e-01
-8.545807003974914551e-02
6.774704158306121826e-02
-1.012044176459312439e-01
-4.153705388307571411e-02
6.408692151308059692e-02
-1.719683259725570679e-01
-3.819549456238746643e-02
1.238581538200378418e-01
-6.301006674766540527e-02
7.915654033422470093e-02
2.127064391970634460e-02
1.374260932207107544e-01
5.383508652448654175e-02
6.720911711454391479e-02
1.501851994544267654e-02
6.879203766584396362e-02
9.644140303134918213e-02
-2.475775592029094696e-02
5.165142938494682312e-03
1.313743591308593750e-01
3.570458665490150452e-02
1.703607104718685150e-02
1.554738171398639679e-02
-9.742040187120437622e-02
-8.418548107147216797e-02
5.337167531251907349e-02
4.010970517992973328e-02
6.228523328900337219e-02
-2.580542117357254028e-02
9.551554918289184570e-02
-8.025212585926055908e-02
4.248692840337753296e-02
5.747414380311965942e-02
2.149873040616512299e-02
7.338466495275497437e-02
7.323387265205383301e-02
-1.484906524419784546e-01
5.276515334844589233e-02
7.895106822252273560e-02
-1.166478022933006287e-01
4.419218166731297970e-04
1.020593717694282532e-01
-8.817444741725921631e-02
1.261106580495834351e-01
-5.492432042956352234e-02
-2.420489937067031860e-01
-1.574700623750686646e-01
-8.730731904506683350e-02
-2.440256029367446899e-01
-1.935553997755050659e-01
-1.880964934825897217e-01
-2.069680988788604736e-01
-6.164761260151863098e-02
6.998570263385772705e-02
3.967242687940597534e-02
-1.004032092168927193e-03
2.954210527241230011e-02
-1.629922688007354736e-01
2.274379283189773560e-01
2.262545190751552582e-02
1.454624235630035400e-01
2.680138277355581522e-04
1.435649544000625610e-01
3.753677383065223694e-02
-9.536308795213699341e-02
-7.348273415118455887e-03
-6.861203163862228394e-02
1.833262108266353607e-02
1.353101283311843872e-01
-6.033965200185775757e-02
-4.081341251730918884e-02
1.015198305249214172e-01
1.017791852355003357e-01
3.559976443648338318e-02
2.150848135352134705e-02
-2.857578694820404053e-01
-1.027018502354621887e-01
2.543312497437000275e-02
-9.784264862537384033e-02
-1.257036626338958740e-01
3.986990824341773987e-02
1.160675734281539917e-01
7.703639566898345947e-02
-6.892006844282150269e-02
5.375082790851593018e-02
-1.396388560533523560e-01
-1.163994297385215759e-01
-3.734293952584266663e-02
9.432705491781234741e-02
5.535916984081268311e-02
-5.108216777443885803e-02
6.580205261707305908e-02
3.520159423351287842e-02
-1.906651407480239868e-01
-7.093778252601623535e-02
-6.612250115722417831e-03
-1.282519549131393433e-01
-2.446880936622619629e-01
9.807977080345153809e-02
2.779706567525863647e-02
-1.494395881891250610e-01
-1.071137492544949055e-03
1.239633932709693909e-01
8.822852373123168945e-02
1.030351221561431885e-01
-5.033732205629348755e-02
2.758103609085083008e-01
9.350541979074478149e-02
2.238552719354629517e-01
5.809564888477325439e-02
1.914733350276947021e-01
2.441099435091018677e-01
1.881589293479919434e-01
2.738766372203826904e-01
2.241089642047882080e-01
3.656850755214691162e-01
1.650993674993515015e-01
8.167076855897903442e-02
5.241831392049789429e-02
1.477374881505966187e-01
4.679841175675392151e-02
-1.777153611183166504e-01
4.996529221534729004e-02
9.854419529438018799e-02
1.312197446823120117e-01
-4.981993138790130615e-02
7.151151075959205627e-04
-1.465439647436141968e-01
-6.050861254334449768e-02
-1.504748612642288208e-01
-1.436323821544647217e-01
-1.349811851978302002e-01
-2.078887075185775757e-01
-2.730605751276016235e-02
-2.329597435891628265e-02
-2.046274393796920776e-02
-4.877400025725364685e-02
8.680032193660736084e-02
-2.468055859208106995e-02
-3.302986547350883484e-02
6.244065240025520325e-02
1.460694521665573120e-01
-1.344120949506759644e-01
1.469542831182479858e-01
2.262854129076004028e-01
9.276977181434631348e-02
-1.612675935029983521e-01
-4.122386872768402100e-02
3.675900399684906006e-02
-1.779225021600723267e-01
-1.739121079444885254e-01
-2.402531541883945465e-02
-4.304673522710800171e-02
1.052046716213226318e-01
-6.408163905143737793e-02
-1.469721272587776184e-02
7.683686167001724243e-02
-9.920779615640640259e-02
1.376150082796812057e-02
-9.934823960065841675e-02
1.320270299911499023e-01
1.473505496978759766e-01
7.623802125453948975e-02
1.971330493688583374e-03
1.012765169143676758e-01
-1.571358181536197662e-02
-6.372155994176864624e-02
-6.427668500691652298e-03
7.085166871547698975e-02
1.780927181243896484e-02
-2.150972187519073486e-02
-3.695973008871078491e-02
-8.450596779584884644e-02
9.592789411544799805e-02
-1.399427652359008789e-01
1.383358333259820938e-02
-1.056951191276311874e-02
-1.173973307013511658e-01
-2.371215960010886192e-03
8.340636640787124634e-02
-2.272481620311737061e-01
-5.649455264210700989e-02
1.554898172616958618e-01
-1.773241907358169556e-01
-2.164986170828342438e-02
1.526779234409332275e-01
3.563899397850036621e-01
-1.151286810636520386e-01
1.751390993595123291e-01
7.642075419425964355e-02
9.247917681932449341e-02
-7.162865251302719116e-02
2.847931981086730957e-01
1.541628092527389526e-01
8.897100389003753662e-02
2.893328480422496796e-02
2.849486768245697021e-01
1.905917227268218994e-01
1.512349992990493774e-01
1.532095074653625488e-01
4.274477809667587280e-02
6.127806007862091064e-02
1.101564392447471619e-01
-2.443702518939971924e-01
-1.219625249505043030e-01
-1.291497349739074707e-01
7.551714032888412476e-02
6.727211922407150269e-02
1.589778810739517212e-01
2.205840647220611572e-01
1.317953169345855713e-01
1.269756555557250977e-01
1.782496273517608643e-01
8.156180381774902344e-02
3.455840796232223511e-02
-1.317468583583831787e-01
-7.319263368844985962e-02
-1.179388985037803650e-01
1.791472882032394409e-01
1.525676250457763672e-01
-4.036387056112289429e-02
-4.355379939079284668e-02
-2.745214402675628662e-01
-2.995148897171020508e-01
4.795403406023979187e-02
7.422874867916107178e-02
2.241218984127044678e-01
-1.722101271152496338e-01
-3.210242688655853271e-01
-1.252767890691757202e-01
-2.237952053546905518e-01
-3.266218304634094238e-01
-1.637153923511505127e-01
-2.078941613435745239e-01
-1.445736549794673920e-02
-1.882319152355194092e-02
1.354174464941024780e-01
1.227613687515258789e-01
-7.922581583261489868e-02
1.803898066282272339e-02
-1.196890603750944138e-02
-1.034141331911087036e-01
-1.955212838947772980e-02
1.136811301112174988e-01
5.899016186594963074e-02
-1.437193434685468674e-02
5.243974272161722183e-03
-5.097941681742668152e-02
-5.099402740597724915e-02
-4.060404747724533081e-02
-3.078296408057212830e-02
-2.861999571323394775e-01
-1.591511368751525879e-01
-8.333910256624221802e-02
1.713019236922264099e-02
1.625315248966217041e-01
2.729956507682800293e-01
-1.573688536882400513e-02
1.591060310602188110e-01
1.677504330873489380e-01
-1.153372153639793396e-01
-5.384477600455284119e-02
-1.231407746672630310e-02
1.016741022467613220e-01
2.583775818347930908e-01
1.252724081277847290e-01
1.853487193584442139e-01
2.735983729362487793e-01
1.290058791637420654e-01
-2.853879472240805626e-03
8.002316206693649292e-02
-1.210700497031211853e-01
-7.876905798912048340e-02
-1.491667479276657104e-01
-7.504481822252273560e-02
-1.534105241298675537e-01
-1.591710597276687622e-01
-1.893503516912460327e-01
-6.196092441678047180e-02
-1.234590485692024231e-01
-1.471932083368301392e-01
1.280682533979415894e-01
3.637344539165496826e-01
1.975134462118148804e-01
7.534796744585037231e-02
1.666098684072494507e-01
6.616838276386260986e-02
3.585377633571624756e-01
1.512263417243957520e-01
1.084279939532279968e-01
-1.421563029289245605e-01
-2.222691476345062256e-01
-2.717003226280212402e-02
3.136846795678138733e-02
-2.250178456306457520e-01
4.336231574416160583e-02
-2.815641276538372040e-02
-2.060642540454864502e-01
-6.716944277286529541e-02
-1.143165826797485352e-01
-1.287297904491424561e-02
8.142889291048049927e-02
-2.070791721343994141e-01
-1.471208333969116211e-01
1.573548018932342529e-01
3.446634858846664429e-02
7.343538105487823486e-02
1.160364076495170593e-01
-1.915343552827835083e-01
-3.099397122859954834e-01
-2.094839811325073242e-01
-1.399878263473510742e-01
-1.752472221851348877e-01
6.009535398334264755e-03
-6.367392838001251221e-02
-5.177495256066322327e-02
-1.644098944962024689e-02
1.274789031594991684e-02
-1.806451939046382904e-02
1.256678551435470581e-01
-2.368177287280559540e-02
-1.730822771787643433e-02
-8.363089524209499359e-03
-5.566008388996124268e-02
-7.785920798778533936e-02
-4.489035159349441528e-02
7.704396545886993408e-02
1.321158558130264282e-01
2.142866849899291992e-01
6.367480754852294922e-02
8.361355960369110107e-02
1.187376156449317932e-01
-1.783848553895950317e-01
-1.119393035769462585e-01
-2.434047684073448181e-02
-1.825786381959915161e-01
-1.640436053276062012e-02
1.175132766366004944e-01
-1.378977447748184204e-01
-1.052306741476058960e-01
5.282065644860267639e-02
-3.931500762701034546e-02
-3.773530572652816772e-02
8.907715231180191040e-02
-1.196858659386634827e-02
-7.697079330682754517e-02
9.815646708011627197e-02
-3.903175890445709229e-02
5.153650790452957153e-02
-6.836313754320144653e-03
-4.214790835976600647e-02
-1.723235845565795898e-01
4.367039725184440613e-02
-8.677690476179122925e-02
2.687099874019622803e-01
3.024432957172393799e-01
9.288362413644790649e-02
2.255183607339859009e-01
2.059344947338104248e-02
9.254438430070877075e-02
-1.988101005554199219e-01
-9.553337097167968750e-02
1.201731488108634949e-01
-2.152811884880065918e-01
-1.769382357597351074e-01
7.380917668342590332e-02
-2.407646775245666504e-01
-2.554149627685546875e-01
3.106378577649593353e-02
4.344530776143074036e-02
3.528467565774917603e-02
4.669966548681259155e-02
1.405113786458969116e-01
-2.451538341119885445e-03
1.742796003818511963e-01
8.539293706417083740e-02
-9.686084091663360596e-02
2.407978521659970284e-03
-6.535906344652175903e-02
-6.886836141347885132e-02
1.295993030071258545e-01
-1.644248664379119873e-01
-4.600526019930839539e-02
-5.055110901594161987e-02
1.368081271648406982e-01
-5.358649790287017822e-02
-1.977992951869964600e-01
1.459706015884876251e-02
-2.077127993106842041e-02
6.487060338258743286e-02
6.647916138172149658e-02
-2.470443397760391235e-01
3.786437585949897766e-02
-2.239955216646194458e-01
-6.433459371328353882e-02
-1.529072672128677368e-01
-1.961104422807693481e-01
-1.487357616424560547e-01
-5.686082318425178528e-02
-2.216570079326629639e-01
-7.370577007532119751e-02
-1.972262859344482422e-01
4.537110030651092529e-02
-1.070152502506971359e-02
-8.824880421161651611e-02
-7.934416085481643677e-02
-5.718442052602767944e-02
-3.521112352609634399e-02
-1.044429652392864227e-02
-1.853535622358322144e-01
2.068917155265808105e-01
-1.286559104919433594e-01
-1.196966040879487991e-02
-1.914206594228744507e-01
-9.238385595381259918e-03
-8.085551112890243530e-02
-1.607107929885387421e-02
3.968393057584762573e-02
-1.033049747347831726e-01
-4.960769042372703552e-02
-2.950076945126056671e-02
-6.882617622613906860e-02
3.486326709389686584e-02
-7.245076354593038559e-03
-5.551589652895927429e-02
1.101046204566955566e-01
-3.165282681584358215e-02
-2.870979905128479004e-01
1.419730782508850098e-01
-2.273770719766616821e-01
-4.275513440370559692e-02
-6.632920354604721069e-02
-5.011005327105522156e-02
-1.605430990457534790e-02
-1.023733168840408325e-01
-8.361227810382843018e-03
3.543604537844657898e-02
-1.344137638807296753e-01
-7.004884630441665649e-02
8.672395348548889160e-02
1.296342015266418457e-01
-1.027093306183815002e-01
-2.079089172184467316e-03
7.819735445082187653e-03
-1.753826439380645752e-02
1.293537765741348267e-01
-9.863601624965667725e-02
2.056026607751846313e-01
1.470198333263397217e-01
-2.125423960387706757e-02
1.404699683189392090e-01
7.250883430242538452e-02
1.740433573722839355e-01
1.100543141365051270e-01
-1.021178439259529114e-01
5.076616629958152771e-02
-1.265332698822021484e-01
7.569242268800735474e-02
1.119858026504516602e-01
-6.748916208744049072e-02
-1.168869957327842712e-01
1.564325392246246338e-01
-1.424589306116104126e-01
4.785773158073425293e-02
7.809588313102722168e-02
-3.696948289871215820e-02
1.284916847944259644e-01
3.187140822410583496e-02
1.057939007878303528e-01
1.653341203927993774e-01
4.887693375349044800e-02
3.520210459828376770e-02
-7.265479117631912231e-02
5.964441969990730286e-02
-2.820400893688201904e-02
-5.528949573636054993e-02
-1.140092387795448303e-01
-5.468973144888877869e-02
-1.545164268463850021e-02
-7.841758430004119873e-02
-2.785163931548595428e-03
-8.117593824863433838e-02
-9.741993993520736694e-02
-3.651455417275428772e-02
-5.923135578632354736e-02
-8.836561441421508789e-02
3.262823447585105896e-02
4.410884529352188110e-02
-5.317715927958488464e-02
-1.421177387237548828e-01
-1.736322492361068726e-01
7.696612179279327393e-02
-1.561567038297653198e-01
-2.426050789654254913e-02
2.563807368278503418e-01
3.619078993797302246e-01
2.706835567951202393e-01
1.974407732486724854e-01
-9.566629678010940552e-02
-3.363173007965087891e-01
-5.633312277495861053e-03
-1.920031458139419556e-01
-7.863177359104156494e-02
-1.604600101709365845e-01
-8.087144792079925537e-02
3.324701264500617981e-02
1.002335846424102783e-01
2.909634634852409363e-02
-9.215900301933288574e-02
6.096912920475006104e-02
-6.130351126194000244e-02
4.646849632263183594e-02
2.395576536655426025e-01
8.667425811290740967e-02
8.816985413432121277e-03
-3.168631717562675476e-02
-3.517630994319915771e-01
-1.065843626856803894e-01
-4.098960012197494507e-02
-1.448239833116531372e-01
6.233664602041244507e-02
-1.341053843498229980e-01
1.367346197366714478e-01
2.537624537944793701e-01
1.447403281927108765e-01
2.163987457752227783e-01
-7.379923481494188309e-03
2.243993282318115234e-01
-6.946713663637638092e-03
5.990639328956604004e-02
1.230105683207511902e-01
-6.028012838214635849e-03
-1.059507206082344055e-01
-5.218061059713363647e-02
-1.113734245300292969e-01
-6.592394411563873291e-02
-1.552807688713073730e-01
-7.268302887678146362e-02
-7.158919423818588257e-02
-3.632529079914093018e-02
-1.478054672479629517e-01
7.793120294809341431e-02
-3.143052160739898682e-01
-3.098844587802886963e-01
-3.401328921318054199e-01
-3.389952480792999268e-01
-2.244082242250442505e-01
-3.375055789947509766e-01
2.046427726745605469e-01
9.668125957250595093e-02
-1.179770156741142273e-01
-1.665454953908920288e-01
-7.041694968938827515e-02
-2.205146104097366333e-02
-1.331315189599990845e-01
1.057810857892036438e-01
4.123261943459510803e-02
-1.181377843022346497e-01
-1.663572192192077637e-01
-1.082358043640851974e-02
-1.415998637676239014e-01
-2.648082375526428223e-02
5.366833508014678955e-02
-7.135729491710662842e-02
-5.161800235509872437e-02
1.221298202872276306e-01
6.407814472913742065e-02
-9.470494836568832397e-02
-1.296569555997848511e-01
-1.931724697351455688e-01
8.482310920953750610e-02
3.504534484818577766e-03
1.018497571349143982e-01
7.585757225751876831e-02
1.147443726658821106e-01
5.415622144937515259e-02
-2.679106034338474274e-02
-5.850300658494234085e-03
-9.786654263734817505e-03
-4.094249755144119263e-02
8.834323287010192871e-02
5.369457975029945374e-02
1.382965594530105591e-01
2.987495437264442444e-02
1.163593679666519165e-01
1.178400740027427673e-01
3.105500638484954834e-01
8.260899037122726440e-02
8.159954845905303955e-02
-1.267071813344955444e-01
-1.025299429893493652e-01
-8.503278344869613647e-02
-1.696014851331710815e-01
-5.234242230653762817e-02
-9.763229638338088989e-02
-5.995953455567359924e-02
-1.795996725559234619e-01
7.339931093156337738e-03
8.933206647634506226e-02
-2.512338757514953613e-02
1.028873920440673828e-01
2.322015613317489624e-01
-1.254866123199462891e-01
6.610575318336486816e-02
1.501528024673461914e-01
4.508803412318229675e-02
1.240620538592338562e-01
1.055848076939582825e-01
-2.261999435722827911e-02
1.640454083681106567e-01
-7.570546120405197144e-03
1.060011908411979675e-01
2.755126357078552246e-02
-5.948911979794502258e-02
-3.832490742206573486e-01
-6.234210133552551270e-01
-2.228900045156478882e-01
-3.343057036399841309e-01
-4.866852890700101852e-03
5.111127719283103943e-02
-8.626012504100799561e-02
-1.721704192459583282e-02
4.515272006392478943e-02
-1.410335153341293335e-01
-6.718344241380691528e-02
-1.706230267882347107e-02
4.695074260234832764e-02
5.737766996026039124e-02
1.427209377288818359e-01
-3.680637106299400330e-02
-2.249176949262619019e-01
-2.204976417124271393e-02
-8.649870008230209351e-02
-1.281105130910873413e-01
-1.309304777532815933e-02
-3.964230045676231384e-02
-1.281359046697616577e-01
-7.972621917724609375e-02
2.820440232753753662e-01
-8.230309002101421356e-03
3.575479090213775635e-01
1.724622398614883423e-01
4.787391126155853271e-01
2.178968191146850586e-01
3.211517632007598877e-01
2.327260673046112061e-01
6.207022815942764282e-02
2.178526967763900757e-01
-7.504738122224807739e-02
4.528126865625381470e-02
-9.035076200962066650e-02
-2.488008439540863037e-01
-8.896712958812713623e-02
-1.495763566344976425e-02
-8.413689583539962769e-02
5.908821523189544678e-02
-9.610030800104141235e-02
8.116766810417175293e-02
2.109062224626541138e-01
6.219295039772987366e-02
8.953964710235595703e-02
-7.124330103397369385e-02
-9.949883073568344116e-02
-1.295905858278274536e-01
2.915545180439949036e-02
1.283233761787414551e-01
-1.825571060180664062e-01
-1.998361572623252869e-02
-5.616549029946327209e-02
-4.781391471624374390e-02
1.182718500494956970e-01
7.273031026124954224e-02
1.237005740404129028e-01
-6.370637100189924240e-03
-2.570218872278928757e-03
8.607720583677291870e-02
-2.261473238468170166e-02
1.233045756816864014e-01
-1.978175640106201172e-01
-1.571127027273178101e-01
2.860117703676223755e-02
-4.046775773167610168e-02
2.809485234320163727e-02
9.511475265026092529e-02
-1.421067565679550171e-01
7.097468525171279907e-02
-1.414668709039688110e-01
5.781283974647521973e-02
2.009233981370925903e-01
-1.004539281129837036e-01
-1.055682823061943054e-02
-2.666498124599456787e-01
-6.094297021627426147e-02
2.764300629496574402e-02
-4.399538412690162659e-02
2.075614221394062042e-02
-1.030401811003684998e-01
-1.131972149014472961e-01
-1.608985066413879395e-01
-2.170509099960327148e-01
1.610477715730667114e-01
-2.125342376530170441e-03
9.396547824144363403e-02
2.200979553163051605e-02
9.136730432510375977e-02
-7.026275992393493652e-02
1.087696850299835205e-01
5.986470356583595276e-02
-8.331612683832645416e-03
-6.787259876728057861e-02
-1.053373888134956360e-01
1.939371377229690552e-01
2.915399521589279175e-02
2.127289921045303345e-01
-1.042205244302749634e-01
3.318292275071144104e-02
-1.501042693853378296e-01
2.336710877716541290e-02
2.058645784854888916e-01
-5.257778987288475037e-02
-7.300756126642227173e-02
5.049705505371093750e-02
3.433793038129806519e-02
9.994811378419399261e-03
1.031283661723136902e-02
-7.056386023759841919e-02
-9.990665316581726074e-02
4.573626816272735596e-02
6.558607518672943115e-02
-2.654350996017456055e-01
1.166344210505485535e-01
-2.144145369529724121e-01
2.272517234086990356e-01
1.295692324638366699e-01
1.577693969011306763e-01
1.385178864002227783e-01
-2.966686189174652100e-01
9.430842101573944092e-02
1.292589604854583740e-01
-2.031193114817142487e-02
1.922762095928192139e-01
-4.937505349516868591e-02
-5.637174844741821289e-02
-3.458041325211524963e-02
1.076215729117393494e-01
-1.084263203665614128e-05
8.552191779017448425e-03
-5.629013851284980774e-02
-5.849468335509300232e-02
5.506409332156181335e-02
1.153460331261157990e-02
6.261942535638809204e-02
-1.009339280426502228e-02
7.719218730926513672e-02
5.447819828987121582e-02
-1.427295245230197906e-02
1.946019381284713745e-01
3.208254277706146240e-02
1.115601286292076111e-01
2.354089915752410889e-02
-7.817606674507260323e-04
-1.187289413064718246e-02
-1.840766705572605133e-02
6.366806477308273315e-02
-1.412832438945770264e-01
-8.860456198453903198e-02
-8.351035416126251221e-02
-1.595337092876434326e-01
-1.732015311717987061e-01
-1.069782674312591553e-01
-5.124131590127944946e-02
-5.308303236961364746e-02
2.164623141288757324e-02
1.269360482692718506e-01
-1.752356067299842834e-03
3.877143561840057373e-02
4.366534203290939331e-02
-1.344364974647760391e-02
-8.960293605923652649e-03
-3.808054141700267792e-03
-8.562286198139190674e-02
-1.184216663241386414e-01
6.838618963956832886e-02
2.941941842436790466e-02
6.682136654853820801e-02
3.704860806465148926e-02
7.414618134498596191e-02
4.932238161563873291e-02
2.150567434728145599e-02
4.468808323144912720e-02
-1.208692975342273712e-02
-1.593486815690994263e-01
-4.166150465607643127e-02
1.586779356002807617e-01
-2.489203810691833496e-01
-1.371067017316818237e-01
-2.189372852444648743e-02
-1.390605568885803223e-01
-9.392389655113220215e-02
-7.688239216804504395e-02
-2.529725804924964905e-02
-7.421761006116867065e-02
8.232329040765762329e-03
-1.412251144647598267e-01
-1.696558892726898193e-01
-3.012800961732864380e-02
-7.813929766416549683e-02
-1.492850482463836670e-01
-7.683437317609786987e-02
1.289474666118621826e-01
-3.962231427431106567e-02
1.627225726842880249e-01
-1.830308139324188232e-01
-1.107657849788665771e-01
8.597187697887420654e-03
-1.513842046260833740e-01
-1.456806510686874390e-01
-1.131135895848274231e-01
-2.373411059379577637e-01
-2.971313297748565674e-01
-2.070293277502059937e-01
-1.105283051729202271e-01
-4.010640457272529602e-02
-3.482541441917419434e-02
-1.683766208589076996e-02
-1.701591163873672485e-02
1.629111729562282562e-02
-3.017620369791984558e-02
-8.577594533562660217e-03
4.528320580720901489e-02
-8.615156263113021851e-02
7.263021171092987061e-02
5.628732033073902130e-03
-5.102084577083587646e-02
1.496950536966323853e-01
3.348080441355705261e-02
-3.868823125958442688e-02
-1.921238601207733154e-01
-1.325536519289016724e-01
-2.091295421123504639e-01
-4.191819429397583008e-01
-1.609310805797576904e-01
-3.658713772892951965e-02
-3.117244839668273926e-01
-1.365053355693817139e-01
-6.674750894308090210e-02
-5.686093354597687721e-04
-1.244108974933624268e-01
1.024500727653503418e-01
8.033608645200729370e-02
-5.426682904362678528e-02
-3.531045094132423401e-02
1.185626983642578125e-01
4.809141531586647034e-02
-2.179702520370483398e-01
-1.275446861982345581e-01
-1.294244825839996338e-01
-1.451947987079620361e-01
-2.672498226165771484e-01
-8.146730810403823853e-02
-2.004060745239257812e-01
-1.784779131412506104e-01
2.755155600607395172e-02
5.224425718188285828e-02
6.294522434473037720e-02
-2.600860781967639923e-02
1.635666703805327415e-04
6.827556341886520386e-02
-1.100376062095165253e-02
4.651624243706464767e-03
3.782990947365760803e-02
-4.475854337215423584e-02
-1.117525696754455566e-01
2.674895711243152618e-02
1.671768957749009132e-03
-2.176924608647823334e-02
1.376947462558746338e-01
5.516149476170539856e-02
3.259490057826042175e-02
1.265345979481935501e-02
5.560267344117164612e-02
5.100469663739204407e-02
1.840969920158386230e-02
1.015051081776618958e-01
-1.343483757227659225e-02
1.019403189420700073e-01
1.096385717391967773e-01
-7.840733975172042847e-02
1.078472062945365906e-01
8.977745473384857178e-02
-9.984004497528076172e-02
-7.208959013223648071e-02
-5.806746333837509155e-02
8.961268514394760132e-02
8.450143039226531982e-02
4.652644321322441101e-02
6.532113254070281982e-02
6.716767698526382446e-02
-7.736072409898042679e-03
7.057930529117584229e-02
1.126641631126403809e-01
6.259034574031829834e-02
7.947868108749389648e-02
1.007702425122261047e-01
9.041418088600039482e-04
-4.467365890741348267e-02
1.801454424858093262e-01
7.424259930849075317e-02
-2.424938529729843140e-01
-1.594581007957458496e-01
-7.060678303241729736e-02
-1.425994038581848145e-01
-2.320090681314468384e-01
-1.317750364542007446e-01
-6.848816573619842529e-02
-1.188944801688194275e-01
-2.733713947236537933e-02
-7.979168742895126343e-02
-2.210701704025268555e-01
-2.119355089962482452e-02
-5.464111268520355225e-02
-1.003338769078254700e-01
-5.171566456556320190e-02
1.307203620672225952e-01
-8.339999616146087646e-02
-6.782636046409606934e-03
1.568233370780944824e-01
1.612662225961685181e-01
7.220181077718734741e-02
3.944258391857147217e-02
-1.281783077865839005e-02
1.063383668661117554e-01
1.273891478776931763e-01
1.395229808986186981e-02
-1.225817129015922546e-01
-2.313591986894607544e-01
-9.779521822929382324e-02
-1.928412914276123047e-01
-1.406218409538269043e-01
-1.198718994855880737e-01
-1.256395690143108368e-02
-4.821848496794700623e-02
4.959669709205627441e-02
-5.490369722247123718e-02
7.065852731466293335e-02
3.502827603369951248e-04
-1.702266000211238861e-02
5.959957465529441833e-02
-1.025387346744537354e-01
-9.099237620830535889e-02
-6.630788743495941162e-02
-2.438732609152793884e-02
-2.222176939249038696e-01
3.083798661828041077e-02
1.081752497702836990e-02
-1.476743817329406738e-01
2.058553695678710938e-01
2.480924129486083984e-01
1.156166419386863708e-01
2.505967319011688232e-01
2.226713448762893677e-01
9.672141820192337036e-02
-1.291379779577255249e-01
-1.275988370180130005e-01
-5.539983510971069336e-02
1.736561655998229980e-01
1.340892612934112549e-01
5.151414871215820312e-02
1.863282024860382080e-01
9.408287703990936279e-02
-1.927796937525272369e-02
-2.568094246089458466e-02
-6.523146480321884155e-02
-2.014042343944311142e-03
7.196185737848281860e-02
3.485359624028205872e-02
-5.292856320738792419e-02
-3.617629408836364746e-02
-5.010196566581726074e-02
-3.409489989280700684e-02
-9.571153670549392700e-02
1.369632780551910400e-03
-2.618937380611896515e-02
1.286665946245193481e-01
2.530165016651153564e-01
1.780054122209548950e-01
1.720183528959751129e-02
1.721673458814620972e-01
1.116196513175964355e-01
-1.712777167558670044e-01
-8.733748644590377808e-02
-2.005619406700134277e-01
-1.986061483621597290e-01
-2.835586965084075928e-01
-6.694737076759338379e-02
-2.253056913614273071e-01
-6.992547214031219482e-02
2.314869873225688934e-02
-6.298714876174926758e-02
-6.475208699703216553e-02
8.316568285226821899e-02
6.338150799274444580e-02
2.257377058267593384e-01
1.869877576828002930e-01
-7.377482950687408447e-02
3.120500408113002777e-02
-1.064315214753150940e-01
2.205664366483688354e-01
2.501536011695861816e-01
7.709918171167373657e-02
8.721634745597839355e-03
-9.031153470277786255e-02
-1.934536546468734741e-01
-1.149499788880348206e-01
-1.825013756752014160e-01
-1.281730532646179199e-01
1.442772448062896729e-01
5.016956478357315063e-02
-8.375567197799682617e-02
-8.700162172317504883e-03
-1.488699018955230713e-01
6.090451031923294067e-03
-1.004666984081268311e-01
-3.031801581382751465e-01
-6.485334783792495728e-02
6.975932419300079346e-02
6.180122122168540955e-02
1.221355274319648743e-01
6.383587419986724854e-02
3.418301418423652649e-02
-1.638779342174530029e-01
-8.416023850440979004e-02
-3.665122389793395996e-02
-1.154355853796005249e-01
-3.568304330110549927e-02
2.700786665081977844e-02
-1.511159241199493408e-01
3.478980809450149536e-02
3.691088408231735229e-02
-8.088838309049606323e-03
3.796702623367309570e-02
6.403058022260665894e-02
-3.085164725780487061e-02
4.535298794507980347e-02
2.654820121824741364e-02
-1.288202032446861267e-02
1.108503527939319611e-02
9.061527997255325317e-02
7.736722379922866821e-02
-1.319321393966674805e-01
-9.295509010553359985e-02
-2.334848940372467041e-01
3.904005512595176697e-02
8.335808664560317993e-02
-3.594785928726196289e-02
7.144577056169509888e-02
5.956373363733291626e-02
1.052094772458076477e-01
-7.974426448345184326e-02
1.831461116671562195e-02
-7.558705657720565796e-02
-1.604210585355758667e-01
-7.951105386018753052e-02
-1.031957715749740601e-01
7.568438351154327393e-02
-9.747748076915740967e-02
-8.201652765274047852e-02
6.347708404064178467e-02
6.771739572286605835e-02
-5.445675924420356750e-02
1.023704186081886292e-01
-1.262775808572769165e-01
1.788947731256484985e-02
3.250662004575133324e-03
7.869821041822433472e-02
1.711712032556533813e-01
-1.180000137537717819e-02
7.136239856481552124e-02
-1.697066426277160645e-02
-3.226985037326812744e-02
-2.230034768581390381e-01
-1.244202628731727600e-01
-3.293328732252120972e-02
-7.671503722667694092e-02
3.435774892568588257e-02
1.776286587119102478e-02
1.096917539834976196e-01
4.254312440752983093e-02
-1.020256802439689636e-01
-1.076174974441528320e-01
-6.958431005477905273e-02
9.823038708418607712e-04
3.883026540279388428e-02
4.022363945841789246e-02
-2.727549709379673004e-02
-7.618603855371475220e-02
-3.611048683524131775e-03
-8.796869963407516479e-02
-7.270050793886184692e-02
-1.182331964373588562e-01
1.541619002819061279e-01
-4.852455854415893555e-02
8.662217855453491211e-02
7.858395576477050781e-02
9.367379546165466309e-02
1.427040100097656250e-01
-1.723157018423080444e-01
-2.176556736230850220e-01
-2.116888612508773804e-01
1.466610003262758255e-02
6.179537251591682434e-02
-3.062212280929088593e-02
-1.947863399982452393e-02
4.962339252233505249e-02
2.451592311263084412e-02
1.185311526060104370e-01
2.291327714920043945e-01
3.321264088153839111e-01
2.659596800804138184e-01
2.062534838914871216e-01
2.535708546638488770e-01
1.046998053789138794e-01
-6.154413521289825439e-02
1.187245100736618042e-01
-1.051179319620132446e-01
-7.135136425495147705e-02
-4.817945510149002075e-02
-3.337018564343452454e-02
-2.924433350563049316e-02
6.880670040845870972e-02
3.072731383144855499e-02
-6.723597645759582520e-02
-1.875977367162704468e-01
-7.108656316995620728e-02
-2.295807600021362305e-01
-6.011233851313591003e-02
-4.546914622187614441e-02
-2.337640523910522461e-02
-1.734617650508880615e-01
2.346112765371799469e-02
5.229597911238670349e-02
5.386342108249664307e-02
-9.893367066979408264e-03
8.253422379493713379e-02
-4.980532824993133545e-02
5.739672109484672546e-02
1.722584515810012817e-01
-3.673192113637924194e-02
2.525956602767109871e-03
4.382924735546112061e-02
-7.554119080305099487e-02
3.192157298326492310e-02
-1.470114141702651978e-01
-1.630261540412902832e-01
5.151243880391120911e-02
-2.614106833934783936e-01
-2.832071483135223389e-01
1.396838296204805374e-02
-2.031576931476593018e-01
-7.400105893611907959e-02
2.087650299072265625e-01
2.573091769590973854e-03
1.849039793014526367e-01
1.748490482568740845e-01
-1.589509248733520508e-01
1.390364021062850952e-01
-5.457271356135606766e-03
-1.459657847881317139e-01
1.777300834655761719e-01
-4.667142033576965332e-02
1.660729013383388519e-02
-1.058921962976455688e-01
3.231506794691085815e-02
-9.207120747305452824e-04
-3.022616170346736908e-02
-6.626201327890157700e-03
1.660790853202342987e-02
-2.792882267385721207e-03
-2.046747207641601562e-01
-1.868674010038375854e-01
-3.531050682067871094e-01
-7.057914137840270996e-02
-1.873909085988998413e-01
-1.517129093408584595e-01
1.128568500280380249e-01
-3.625232726335525513e-02
3.088888339698314667e-02
-1.077084988355636597e-02
2.606149911880493164e-01
-9.020681679248809814e-02
-4.805350676178932190e-02
1.497005224227905273e-01
-3.153613582253456116e-02
1.606438308954238892e-02
1.244054436683654785e-01
-1.083437055349349976e-01
-6.798093020915985107e-02
-2.058842480182647705e-01
-1.070378795266151428e-01
1.137506589293479919e-02
-2.128129750490188599e-01
-3.102884069085121155e-02
7.028471678495407104e-02
-1.542313247919082642e-01
4.110981710255146027e-03
-1.488068252801895142e-01
-8.716931939125061035e-02
3.847201168537139893e-02
-6.316962838172912598e-02
-1.543380022048950195e-01
3.231167420744895935e-02
-1.216925755143165588e-01
-8.716551214456558228e-02
1.525523234158754349e-02
-4.141838755458593369e-03
1.268051378428936005e-02
-1.976399272680282593e-01
-1.674236916005611420e-02
-1.400033831596374512e-01
-2.354549467563629150e-01
-1.753919757902622223e-02
-1.321599334478378296e-01
-5.363611876964569092e-02
-3.855193778872489929e-02
4.239540174603462219e-02
-1.218224037438631058e-02
1.592607423663139343e-02
-1.652306467294692993e-01
1.959249377250671387e-02
-1.782316528260707855e-02
-1.947042346000671387e-01
-4.244259372353553772e-02
5.681293830275535583e-02
-4.740551486611366272e-02
-2.990295365452766418e-02
