5.635678023099899292e-02
1.219454556703567505e-01
5.967772752046585083e-02
-1.433143317699432373e-01
1.003770083189010620e-01
1.578648388385772705e-01
-3.687342628836631775e-02
5.197222158312797546e-02
6.562291830778121948e-02
7.249853760004043579e-02
8.589681237936019897e-02
-1.021314710378646851e-01
1.417638808488845825e-01
3.215880692005157471e-02
-1.532207578420639038e-01
-3.917975816875696182e-03
-6.810707598924636841e-02
-1.715949773788452148e-01
8.211871609091758728e-03
1.133621111512184143e-02
-5.537996068596839905e-02
1.782704703509807587e-02
4.471668228507041931e-02
-3.114015795290470123e-02
-4.794404283165931702e-02
1.172717511653900146e-01
1.076890677213668823e-01
3.760069236159324646e-02
-3.681891039013862610e-02
-1.719552874565124512e-01
2.064603567123413086e-02
-7.936440408229827881e-02
-9.387245774269104004e-02
-1.575406193733215332e-01
-8.019109815359115601e-02
1.940827071666717529e-02
-2.150429636240005493e-01
2.224996238946914673e-01
3.393595218658447266e-01
-3.881351947784423828e-01
4.386933520436286926e-02
6.322801858186721802e-02
-4.328104853630065918e-01
-5.331265181303024292e-02
1.459826976060867310e-01
-1.017208173871040344e-01
-4.929970204830169678e-02
1.262644380331039429e-01
-6.129370257258415222e-02
-2.784955501556396484e-02
1.005470380187034607e-01
1.202767640352249146e-01
2.716148644685745239e-02
2.018369287252426147e-01
-8.546628989279270172e-03
2.020026743412017822e-02
-6.245573610067367554e-02
2.883394621312618256e-02
-4.459590092301368713e-02
1.595504581928253174e-01
1.290588267147541046e-02
-1.737529784440994263e-01
-2.375535294413566589e-02
1.098073348402976990e-01
4.383891448378562927e-02
-4.591309279203414917e-02
-1.305292695760726929e-01
-1.594804227352142334e-01
-1.492486987262964249e-02
6.542226672172546387e-02
4.964102804660797119e-02
-2.563420832157135010e-01
-1.362684220075607300e-01
6.239584460854530334e-02
8.251082897186279297e-02
-9.537957608699798584e-02
-3.182811290025711060e-02
1.162921860814094543e-01
7.676964253187179565e-02
3.778247535228729248e-02
1.571935117244720459e-01
-4.406164959073066711e-02
-5.421733856201171875e-02
-1.000423729419708252e-01
-6.066180393099784851e-02
-1.658897288143634796e-02
1.169361099600791931e-01
-7.501952350139617920e-02
-3.236557245254516602e-01
-9.359758347272872925e-02
9.887157380580902100e-02
5.716625228524208069e-02
3.427195250988006592e-01
-1.001940444111824036e-01
-1.884969621896743774e-01
4.845274612307548523e-02
-1.356735229492187500e-01
-1.486053410917520523e-02
-1.595129519701004028e-01
5.210600420832633972e-02
1.233335509896278381e-01
1.557913869619369507e-01
-5.983671173453330994e-02
2.024247311055660248e-03
-3.915455937385559082e-02
5.173223093152046204e-02
3.162268316373229027e-03
-3.455245867371559143e-02
-6.992703676223754883e-02
-9.204573929309844971e-03
-4.933468252420425415e-02
3.390461578965187073e-02
-4.895972460508346558e-02
2.481838911771774292e-01
1.655700206756591797e-01
-7.280526310205459595e-02
1.125965043902397156e-01
-2.104276604950428009e-02
-4.410565644502639771e-02
2.933491021394729614e-02
-2.446284703910350800e-02
9.665419906377792358e-02
1.186741143465042114e-02
2.121965289115905762e-01
1.309649795293807983e-01
2.006142288446426392e-01
1.337524205446243286e-01
6.007318943738937378e-02
-8.514975011348724365e-02
-8.312831073999404907e-02
-7.147202640771865845e-02
-5.781611427664756775e-02
1.068242117762565613e-01
2.477257326245307922e-02
-6.695936620235443115e-02
1.398711558431386948e-02
-1.042097434401512146e-01
7.701264321804046631e-02
6.789156794548034668e-02
1.584249548614025116e-02
3.825327381491661072e-02
5.507004633545875549e-02
-8.047046512365341187e-02
9.338511526584625244e-02
1.478415876626968384e-01
-7.310424745082855225e-02
-2.772993445396423340e-01
3.637865558266639709e-02
-9.754488617181777954e-02
-1.828400194644927979e-01
9.099692851305007935e-02
9.918364137411117554e-02
-6.307268142700195312e-02
-1.271952986717224121e-01
2.424239553511142731e-02
5.385445058345794678e-02
-1.022846400737762451e-01
-3.103685751557350159e-02
1.121084019541740417e-01
-2.842416986823081970e-02
-5.322376638650894165e-02
1.015141308307647705e-01
-3.313220664858818054e-02
-3.961761668324470520e-02
-2.898709774017333984e-01
3.189057111740112305e-02
-4.248887300491333008e-03
-3.793530166149139404e-02
4.532192274928092957e-02
5.011922866106033325e-02
4.037455841898918152e-02
1.855444610118865967e-01
-5.094790086150169373e-02
-2.308408468961715698e-01
1.029402092099189758e-01
-7.460304349660873413e-02
-2.568103373050689697e-01
1.619966775178909302e-01
-3.127831220626831055e-02
-6.297134608030319214e-02
5.042198300361633301e-02
-1.472443193197250366e-01
-4.656369239091873169e-02
2.873579971492290497e-02
-1.543068289756774902e-01
6.209202855825424194e-02
-3.930507227778434753e-03
-5.724898353219032288e-02
-1.559644639492034912e-01
1.319022476673126221e-01
4.287526011466979980e-02
-1.141039878129959106e-01
-5.048258230090141296e-02
-2.160541415214538574e-01
-1.219161525368690491e-01
8.066368103027343750e-02
6.020966917276382446e-02
-6.815672665834426880e-02
-2.495458871126174927e-01
-3.447857499122619629e-02
1.434843428432941437e-02
-9.181714802980422974e-02
4.401503130793571472e-02
1.602297089993953705e-02
-5.844395980238914490e-02
-4.113220423460006714e-02
8.784240484237670898e-02
6.278436630964279175e-03
-1.017945334315299988e-01
-1.916094720363616943e-01
2.083880454301834106e-01
-4.991938546299934387e-02
-7.314022630453109741e-02
-3.838058933615684509e-02
-2.440899237990379333e-02
-8.446063846349716187e-02
6.310231238603591919e-02
-1.145426481962203979e-01
-5.773278698325157166e-02
5.297089368104934692e-02
-4.894925747066736221e-03
1.103933379054069519e-01
1.314251869916915894e-01
-5.110213905572891235e-02
1.415051668882369995e-01
7.293277978897094727e-02
3.097442165017127991e-02
1.298178732395172119e-01
9.755986928939819336e-02
-6.231683865189552307e-02
-4.410962387919425964e-02
-2.353261783719062805e-02
-4.652835428714752197e-02
5.870512872934341431e-02
-1.058502309024333954e-02
-2.934358417987823486e-01
-3.168229386210441589e-02
-5.043192207813262939e-02
-1.281061023473739624e-01
-1.417278498411178589e-02
5.033627524971961975e-02
9.266682714223861694e-02
-7.273674756288528442e-02
-6.300456821918487549e-03
3.617664566263556480e-03
-7.160073518753051758e-02
8.041368424892425537e-02
4.967359825968742371e-02
6.327643990516662598e-02
7.701721787452697754e-02
4.782585054636001587e-02
2.111642956733703613e-01
1.655752807855606079e-01
5.989852175116539001e-02
7.934223115444183350e-02
-9.985902905464172363e-02
-5.058061331510543823e-03
-8.040045201778411865e-02
-7.808087021112442017e-02
-2.408940717577934265e-02
2.282031998038291931e-02
1.745207607746124268e-01
1.117149591445922852e-01
1.091316938400268555e-01
-9.721829742193222046e-02
-5.640213564038276672e-02
-1.047241687774658203e-01
4.955164343118667603e-02
3.640101104974746704e-02
-1.103724837303161621e-01
-9.106425940990447998e-02
9.967509657144546509e-03
-1.675536334514617920e-01
-3.558067232370376587e-02
-1.620727181434631348e-01
1.588420243933796883e-03
-3.013807348906993866e-02
-4.415025562047958374e-02
5.299104005098342896e-02
5.840186960995197296e-03
-2.043198198080062866e-01
-2.070079892873764038e-01
6.473550945520401001e-02
-1.161126717925071716e-01
1.512683033943176270e-01
1.419526189565658569e-01
-2.152109593152999878e-01
6.009308621287345886e-02
1.308688893914222717e-03
-7.583308964967727661e-02
2.740115523338317871e-01
-1.004161015152931213e-01
7.951481640338897705e-02
2.665744721889495850e-01
-3.675097972154617310e-02
1.840129941701889038e-01
3.086341023445129395e-01
1.526830941438674927e-01
3.414016962051391602e-02
-1.986935436725616455e-01
-2.461134642362594604e-02
-2.701314166188240051e-02
-2.971205115318298340e-01
3.186142072081565857e-02
6.102325394749641418e-02
-5.123043805360794067e-02
-9.639026224613189697e-02
-8.157855272293090820e-02
-2.808377742767333984e-01
-8.101907372474670410e-02
-1.295468360185623169e-01
-1.470366567373275757e-01
1.282047480344772339e-02
3.455668920651078224e-03
1.326071768999099731e-01
9.047807008028030396e-02
-5.965466145426034927e-03
6.703712046146392822e-02
-1.799102872610092163e-01
-3.978374227881431580e-02
1.395684666931629181e-02
-2.071028389036655426e-02
-5.149413272738456726e-02
6.094684079289436340e-02
-2.997635900974273682e-01
-1.469707787036895752e-01
3.484698832035064697e-01
-6.620763540267944336e-01
-2.024199366569519043e-01
3.705898821353912354e-01
-1.868518143892288208e-01
7.818010449409484863e-02
3.851088881492614746e-01
-5.933299288153648376e-02
-2.433840371668338776e-02
5.357532203197479248e-02
6.235413998365402222e-02
-2.766311727464199066e-02
6.887211930006742477e-04
1.226923167705535889e-01
-7.011253386735916138e-02
-3.276123479008674622e-02
6.040992215275764465e-02
-2.208009213209152222e-01
-1.490081101655960083e-01
8.973363786935806274e-02
1.081142053008079529e-01
2.288906462490558624e-02
-8.026956766843795776e-02
6.185719370841979980e-02
2.444255053997039795e-01
2.027733810245990753e-02
3.692803438752889633e-03
1.011972874402999878e-01
-8.316573500633239746e-02
-2.595231309533119202e-02
-1.217620372772216797e-01
1.129994913935661316e-02
-6.464169174432754517e-02
-7.632121443748474121e-02
1.107105761766433716e-01
-6.531084328889846802e-02
-1.396801173686981201e-01
1.820337958633899689e-02
-1.205294057726860046e-01
-2.628483064472675323e-02
-1.016161963343620300e-01
-9.843231737613677979e-02
2.822368405759334564e-02
8.318857848644256592e-02
5.251003429293632507e-02
1.921100467443466187e-01
-1.842898875474929810e-01
4.582982044667005539e-03
8.158292621374130249e-02
-1.299903839826583862e-01
-1.393368989229202271e-01
4.839177802205085754e-02
-1.158694252371788025e-01
-1.184111647307872772e-02
1.549709588289260864e-01
-1.687858998775482178e-01
-4.561893641948699951e-02
3.044391572475433350e-01
-2.051602154970169067e-01
-6.678195297718048096e-02
2.446998208761215210e-01
6.922692060470581055e-02
7.378204911947250366e-02
1.726156622171401978e-01
-2.399533055722713470e-02
-8.911197632551193237e-02
1.513924635946750641e-02
-6.284757703542709351e-02
-2.427124977111816406e-02
1.892030984163284302e-01
-2.946541272103786469e-02
-3.735435381531715393e-02
-8.764930814504623413e-02
1.774007827043533325e-02
-1.431678682565689087e-01
1.678765751421451569e-02
-1.592301726341247559e-01
1.603836119174957275e-01
1.978934705257415771e-01
7.277591526508331299e-02
8.722088485956192017e-02
-1.061665192246437073e-01
8.826794475317001343e-02
-8.248899132013320923e-03
-3.239772468805313110e-02
1.511825621128082275e-01
-6.883507966995239258e-02
1.018992625176906586e-02
-1.491648256778717041e-01
7.695654779672622681e-02
-2.356616705656051636e-01
1.951549053192138672e-01
1.237915754318237305e-01
-1.645710915327072144e-01
3.514098376035690308e-02
8.272688835859298706e-02
1.512039601802825928e-01
5.496374145150184631e-02
-6.272623687982559204e-02
6.142657622694969177e-02
1.660680323839187622e-01
-1.158422455191612244e-01
-2.290920354425907135e-03
1.354484856128692627e-01
-2.273553423583507538e-02
6.796846538782119751e-02
1.163896545767784119e-01
1.654980331659317017e-01
-6.694475561380386353e-02
1.018913984298706055e-01
2.875781245529651642e-02
-1.482904404401779175e-01
-2.622216474264860153e-03
5.854979902505874634e-02
-1.213689707219600677e-02
-1.358761042356491089e-01
1.439284440129995346e-02
1.698961667716503143e-02
-1.686943471431732178e-01
-8.414801210165023804e-02
-1.349566876888275146e-02
2.360499463975429535e-02
3.135482547804713249e-03
9.276056289672851562e-02
8.692813664674758911e-02
-4.951412975788116455e-02
5.247100442647933960e-02
1.226233765482902527e-01
-1.209204047918319702e-01
-3.248228132724761963e-02
1.088979691267013550e-01
1.081123724579811096e-01
1.691516190767288208e-01
-2.808609977364540100e-02
4.928539693355560303e-02
-5.797729641199111938e-02
-2.495983615517616272e-02
3.123798593878746033e-02
-5.025486275553703308e-02
-1.150697246193885803e-01
-5.679895356297492981e-02
-4.029156174510717392e-03
-8.706445991992950439e-02
-8.397675119340419769e-03
2.260489165782928467e-01
-1.775781661272048950e-01
-2.328199446201324463e-01
2.121892012655735016e-02
-6.939457356929779053e-02
9.733384847640991211e-02
3.043574094772338867e-01
9.112927317619323730e-02
3.525950014591217041e-02
-1.061791554093360901e-01
-3.306107223033905029e-02
7.935664802789688110e-02
1.070406287908554077e-02
3.009590506553649902e-02
1.131647154688835144e-01
-9.572057425975799561e-02
7.504843175411224365e-02
-2.435173094272613525e-01
-5.552994459867477417e-02
-1.965218484401702881e-01
-1.477205753326416016e-01
-7.588938623666763306e-02
-9.386355429887771606e-02
1.901029236614704132e-02
-3.755284100770950317e-02
1.470772325992584229e-01
-3.721043840050697327e-02
-1.365480870008468628e-01
-5.862972140312194824e-02
-1.031011249870061874e-02
-2.508133649826049805e-01
-4.013264924287796021e-02
-2.813776023685932159e-02
-1.205381900072097778e-01
1.124757826328277588e-01
-8.241558820009231567e-02
9.924399852752685547e-02
1.484029293060302734e-01
-4.925866425037384033e-02
-1.576283276081085205e-01
1.383127123117446899e-01
-7.794343680143356323e-02
-1.541142612695693970e-01
-2.555546164512634277e-01
-2.057406157255172729e-01
1.377405077219009399e-01
-1.003507599234580994e-01
-1.144217401742935181e-01
2.005345374345779419e-01
-5.122017115354537964e-02
2.455227635800838470e-02
1.360590606927871704e-01
-1.444347947835922241e-01
-6.671354174613952637e-02
4.078968614339828491e-02
2.572005987167358398e-01
1.838814765214920044e-01
-4.954313859343528748e-02
5.042782425880432129e-02
7.759360596537590027e-03
3.208108618855476379e-02
2.273038029670715332e-01
8.673141151666641235e-02
-1.004250347614288330e-01
1.393438875675201416e-01
-1.610337346792221069e-01
-2.800228595733642578e-01
1.554702818393707275e-01
-9.958466887474060059e-02
1.301751285791397095e-01
-2.048525772988796234e-02
-3.335556015372276306e-02
-1.309820543974637985e-02
-4.382010921835899353e-02
-2.139064669609069824e-01
1.301960349082946777e-01
-4.797024652361869812e-02
-9.149546921253204346e-02
1.644344478845596313e-01
-4.652005806565284729e-02
-4.101084172725677490e-02
1.342764794826507568e-01
-1.138723716139793396e-01
-2.396018989384174347e-02
7.464145123958587646e-02
-1.399716287851333618e-01
1.587805151939392090e-02
7.118700444698333740e-02
1.541606336832046509e-01
-1.124956011772155762e-01
1.036128699779510498e-01
1.359519083052873611e-02
-8.640346676111221313e-02
-1.816123537719249725e-02
1.247971355915069580e-01
-1.881259493529796600e-02
-9.756670892238616943e-02
2.019992917776107788e-01
1.067059636116027832e-01
1.233871057629585266e-01
2.239150926470756531e-02
-1.427631378173828125e-01
-1.046238616108894348e-01
3.921724483370780945e-02
-7.718468457460403442e-02
-7.291577011346817017e-02
-1.261521037667989731e-02
-6.732121109962463379e-02
-2.648795843124389648e-01
-1.759179122745990753e-02
-1.436813771724700928e-01
-3.474343419075012207e-01
-1.679958403110504150e-01
-1.931325346231460571e-01
1.197559982538223267e-01
5.048139765858650208e-02
1.492401119321584702e-02
1.473578740842640400e-03
-1.330892648547887802e-02
1.178441047668457031e-01
5.794933438301086426e-02
1.206639185547828674e-01
7.089950144290924072e-02
4.296288639307022095e-02
-1.469035297632217407e-01
-1.230142563581466675e-01
-7.675116881728172302e-03
-2.530044019222259521e-01
-2.549207583069801331e-02
1.064056754112243652e-01
-1.651346981525421143e-01
-1.972787827253341675e-01
-2.188620157539844513e-02
6.623397767543792725e-02
-7.007110863924026489e-02
-1.554137468338012695e-01
-9.482315927743911743e-02
-1.223190054297447205e-01
5.147132650017738342e-02
5.373267084360122681e-02
-4.697883129119873047e-02
8.862636052072048187e-03
2.739551663398742676e-02
9.731198847293853760e-02
5.813444778323173523e-02
-2.715573646128177643e-02
1.056018695235252380e-01
1.577584594488143921e-01
-9.181402623653411865e-02
5.516138672828674316e-02
1.112922281026840210e-01
-1.524280607700347900e-01
-1.780643016099929810e-01
-1.347614079713821411e-01
-2.459693551063537598e-01
-2.737533748149871826e-01
-2.489273846149444580e-01
-2.122351080179214478e-01
-1.581201851367950439e-01
-2.242026180028915405e-01
8.082322031259536743e-02
5.702296271920204163e-02
-1.925284974277019501e-02
6.545656174421310425e-02
-4.829953610897064209e-02
-4.187444970011711121e-02
5.660960450768470764e-02
1.220632903277873993e-02
-3.573908284306526184e-02
-3.453700616955757141e-02
-4.464583937078714371e-03
-3.560864180326461792e-02
-1.509631872177124023e-01
-1.781282424926757812e-01
-1.266141235828399658e-01
-1.455208659172058105e-01
-6.090347096323966980e-02
-8.612842112779617310e-02
1.036385167390108109e-02
1.188919022679328918e-01
-1.109233796596527100e-01
3.035452961921691895e-02
5.426925420761108398e-02
-4.125404730439186096e-02
1.077543422579765320e-01
1.774057187139987946e-02
-8.747764676809310913e-02
6.365476548671722412e-02
-2.357486635446548462e-02
-1.312122792005538940e-01
6.679175794124603271e-02
-1.033956632018089294e-01
-1.751508116722106934e-01
-9.612128883600234985e-02
-2.090166695415973663e-02
5.792093276977539062e-02
1.556801348924636841e-01
2.482287585735321045e-01
9.553694725036621094e-02
1.412256360054016113e-01
3.015865683555603027e-01
2.162459641695022583e-01
1.741397567093372345e-02
2.221661657094955444e-01
2.736684679985046387e-01
1.067469343543052673e-01
-1.880213320255279541e-01
-3.042558133602142334e-01
-2.214833050966262817e-01
-1.869709193706512451e-01
-2.187977582216262817e-01
-1.813737601041793823e-01
3.910912200808525085e-02
4.882564768195152283e-02
2.204602770507335663e-02
1.255733668804168701e-01
6.636027246713638306e-02
-1.196331903338432312e-01
-1.826489903032779694e-02
-7.074244320392608643e-03
4.723243787884712219e-02
-8.455850929021835327e-02
-1.383364386856555939e-02
-9.050998836755752563e-02
-1.390945464372634888e-01
4.339127987623214722e-02
-3.196555674076080322e-01
-1.272078752517700195e-01
3.413691883906722069e-03
-8.868400007486343384e-02
-1.716756969690322876e-01
-6.161737721413373947e-03
-9.152146428823471069e-02
-1.585623174905776978e-01
-7.148471474647521973e-02
-1.001567915081977844e-01
-1.320890188217163086e-01
-4.725709930062294006e-02
-1.438589692115783691e-01
-1.429818272590637207e-01
-2.462263777852058411e-02
1.243258565664291382e-01
1.419103592634201050e-01
3.508451208472251892e-02
2.816190011799335480e-02
1.144958734512329102e-01
8.191482163965702057e-03
6.472209841012954712e-02
1.090136617422103882e-01
-9.903882630169391632e-03
1.809925772249698639e-02
-1.022991612553596497e-01
1.278790533542633057e-01
2.583977067843079567e-03
-1.763751655817031860e-01
1.764940619468688965e-01
-5.636456608772277832e-02
-6.816706806421279907e-02
2.184995682910084724e-03
1.427331715822219849e-01
-1.103642769157886505e-02
5.919982865452766418e-02
-1.388876438140869141e-01
-1.851723790168762207e-01
8.133975416421890259e-02
3.166221082210540771e-02
-1.265115756541490555e-02
-1.034501940011978149e-01
-7.291356474161148071e-02
1.002467721700668335e-01
1.444474160671234131e-01
8.663525432348251343e-02
6.947368383407592773e-02
9.973944723606109619e-02
8.074297010898590088e-02
-6.356481462717056274e-03
1.257018744945526123e-01
2.306113578379154205e-02
-7.873776555061340332e-02
4.039129987359046936e-02
9.175138175487518311e-02
-8.912622183561325073e-02
5.199244990944862366e-02
3.542147949337959290e-02
-1.580234915018081665e-01
-7.806279510259628296e-02
-2.125340551137924194e-01
-6.664897501468658447e-02
1.078987866640090942e-01
-2.690022289752960205e-01
-6.137380376458168030e-02
6.157153844833374023e-02
-8.325289934873580933e-02
-1.493616104125976562e-01
9.085508063435554504e-04
4.600901156663894653e-02
1.203346922993659973e-01
5.359734222292900085e-02
9.098941087722778320e-02
-3.142866492271423340e-02
9.076150506734848022e-02
-1.388813368976116180e-02
-1.534618437290191650e-01
5.715246498584747314e-02
-9.375322610139846802e-02
3.977881744503974915e-02
-2.451921552419662476e-01
-3.573262691497802734e-02
-2.036200910806655884e-01
-4.582126811146736145e-02
5.321934819221496582e-03
7.322745770215988159e-02
-1.014370247721672058e-01
2.317970432341098785e-02
-4.104492440819740295e-02
-3.967309370636940002e-03
-3.803870826959609985e-02
-1.309922784566879272e-01
2.044749259948730469e-02
1.493784785270690918e-02
9.417643398046493530e-02
-1.719533093273639679e-02
-3.581521287560462952e-02
1.157073751091957092e-01
1.637325286865234375e-01
2.673169970512390137e-02
7.907038927078247070e-02
1.814812272787094116e-01
1.816439628601074219e-02
-1.307131606154143810e-04
1.738248206675052643e-02
-9.457113593816757202e-02
-1.507512032985687256e-01
-1.215828955173492432e-01
-9.387965500354766846e-02
-1.518758982419967651e-01
-1.007419824600219727e-01
3.178003057837486267e-02
5.156278237700462341e-02
-4.020666703581809998e-03
-1.008899882435798645e-02
-2.046633511781692505e-01
1.193025857210159302e-01
-1.072617098689079285e-01
-1.958756595849990845e-01
-2.364789368584752083e-03
-2.226056531071662903e-02
-3.252414613962173462e-02
2.750783972442150116e-02
3.583140671253204346e-02
6.647811084985733032e-02
4.716638475656509399e-02
-6.116379052400588989e-02
3.939221613109111786e-03
8.466580510139465332e-02
1.550872065126895905e-02
-4.042961169034242630e-03
9.763944149017333984e-02
1.414614915847778320e-02
-2.836785465478897095e-02
-2.576824836432933807e-02
-8.056444115936756134e-03
-6.193329393863677979e-02
2.942630089819431305e-02
1.140110567212104797e-01
7.892107591032981873e-03
9.021921083331108093e-03
3.368327915668487549e-01
3.022075891494750977e-01
1.996282935142517090e-01
2.223991453647613525e-01
2.002439796924591064e-01
3.467099070549011230e-01
1.517470628023147583e-01
6.430889945477247238e-03
1.066828966140747070e-01
-4.660080373287200928e-02
-7.844210602343082428e-03
9.862004965543746948e-02
-5.904038622975349426e-02
-1.790731698274612427e-01
7.146808784455060959e-03
-9.050778299570083618e-02
-2.244789451360702515e-01
-9.272894263267517090e-02
-1.624717377126216888e-02
-3.952512517571449280e-02
1.014132499694824219e-01
-3.505266010761260986e-01
-3.243088424205780029e-01
2.754649147391319275e-02
-2.736041545867919922e-01
-1.494811773300170898e-01
-9.662278741598129272e-02
-1.188186276704072952e-02
-3.745549172163009644e-02
1.422132104635238647e-01
1.031417027115821838e-01
8.231171220541000366e-02
-8.838252164423465729e-03
8.532264828681945801e-02
8.134359121322631836e-02
2.256957255303859711e-02
1.692137494683265686e-02
-1.332713067531585693e-01
-5.061531439423561096e-02
2.500097639858722687e-02
-7.724306732416152954e-02
-1.053601596504449844e-02
6.316358596086502075e-02
7.625916600227355957e-02
7.185899466276168823e-02
8.390387147665023804e-02
-4.729718493763357401e-04
4.893359541893005371e-02
7.410994917154312134e-02
1.421620883047580719e-02
4.972429201006889343e-02
1.811060495674610138e-02
1.323241889476776123e-01
-3.338886424899101257e-02
3.285448625683784485e-02
8.771087974309921265e-02
1.573253571987152100e-01
-7.953517884016036987e-02
7.107962667942047119e-02
7.398839294910430908e-02
-2.861980535089969635e-02
1.557040680199861526e-02
6.364972889423370361e-02
6.619309633970260620e-02
-1.329345814883708954e-02
-2.065488249063491821e-01
9.269415587186813354e-02
2.324875257909297943e-02
-8.369010686874389648e-02
3.957847505807876587e-02
6.994508206844329834e-02
1.955147366970777512e-03
-4.655718803405761719e-02
3.193173184990882874e-02
2.866330184042453766e-02
3.193226829171180725e-02
3.776705637574195862e-02
-2.105195447802543640e-02
5.792907625436782837e-02
-1.372863799333572388e-01
1.153249889612197876e-01
1.246970221400260925e-01
3.991074487566947937e-02
1.632528156042098999e-01
-6.585883349180221558e-02
-9.951344132423400879e-02
-1.035291552543640137e-01
1.197632253170013428e-01
-7.385146617889404297e-02
-1.944551616907119751e-01
-1.387952119112014771e-01
1.567519456148147583e-02
2.038410305976867676e-02
2.778128534555435181e-02
2.846243605017662048e-02
4.868534859269857407e-03
-9.720250219106674194e-02
-9.723275154829025269e-02
-1.899454295635223389e-01
1.354632228612899780e-01
5.484808236360549927e-03
6.586933135986328125e-02
-3.669884055852890015e-02
4.129711538553237915e-02
-1.751087047159671783e-02
4.833166673779487610e-02
3.550082445144653320e-02
7.310070213861763477e-05
1.064924988895654678e-02
1.990741863846778870e-02
2.437493950128555298e-02
3.691671416163444519e-02
-1.547358483076095581e-01
4.522443190217018127e-02
-7.475814223289489746e-02
-2.014755606651306152e-01
-8.634388446807861328e-02
1.445375978946685791e-01
2.239139825105667114e-01
1.631154119968414307e-01
-6.335830688476562500e-02
-4.222323000431060791e-02
-5.867394059896469116e-02
4.864735156297683716e-02
-1.769827492535114288e-02
1.037390436977148056e-02
7.498090714216232300e-02
1.444879919290542603e-02
4.717665538191795349e-02
1.476384103298187256e-01
-9.008672088384628296e-02
2.487033046782016754e-02
1.149669475853443146e-02
1.107471296563744545e-03
-3.908066824078559875e-02
1.639644503593444824e-01
4.993935301899909973e-02
1.538547873497009277e-01
-1.360542327165603638e-01
-6.450472772121429443e-02
-7.402556389570236206e-02
-2.524801492691040039e-01
-3.071264028549194336e-01
-1.524985432624816895e-01
-1.377738360315561295e-02
-1.821767091751098633e-01
-6.833112984895706177e-02
-7.739971624687314034e-05
-1.407234091311693192e-02
-7.830243557691574097e-02
-9.444249793887138367e-03
1.456710100173950195e-01
2.537026070058345795e-02
9.747740626335144043e-02
-4.807977005839347839e-02
3.640585765242576599e-02
-4.729407280683517456e-02
-1.018864735960960388e-01
-8.663499355316162109e-02
-9.250169247388839722e-02
-4.589251708239316940e-03
-2.093381807208061218e-02
-1.878923922777175903e-02
5.595685541629791260e-02
9.408807754516601562e-02
-1.542387157678604126e-02
1.285507977008819580e-01
1.571214199066162109e-01
-6.971194595098495483e-02
-1.244066730141639709e-01
-6.559536606073379517e-02
-9.019419550895690918e-02
-1.628827005624771118e-01
-3.588294610381126404e-02
1.562086027115583420e-02
-7.311592251062393188e-02
5.040434375405311584e-02
2.437207996845245361e-01
7.395311444997787476e-02
7.181558758020401001e-02
1.607044041156768799e-01
1.450166702270507812e-01
1.598292887210845947e-01
1.849179416894912720e-01
1.786906868219375610e-01
-4.888024413958191872e-04
-9.887453168630599976e-02
8.291048556566238403e-02
-5.820947140455245972e-02
5.427360907196998596e-02
-2.880588769912719727e-01
-1.165315508842468262e-01
-8.076453953981399536e-02
-1.779363304376602173e-01
-2.294681780040264130e-02
2.423219010233879089e-02
-1.706256158649921417e-02
1.483241021633148193e-01
3.531789779663085938e-02
-1.279389113187789917e-01
3.068618290126323700e-02
1.593177951872348785e-02
-9.521301090717315674e-02
6.493001431226730347e-02
6.965244561433792114e-02
9.946241974830627441e-02
3.322682157158851624e-02
-7.177107036113739014e-02
7.543545216321945190e-02
7.808974385261535645e-02
6.018943618983030319e-03
2.407836960628628731e-03
-3.214438632130622864e-02
-7.941430807113647461e-02
-8.645205199718475342e-02
-1.683735400438308716e-01
-6.757286190986633301e-02
-1.779653877019882202e-01
-1.232115477323532104e-01
8.286787569522857666e-02
-8.738718926906585693e-02
-4.347096756100654602e-02
1.707069873809814453e-01
1.996395364403724670e-02
9.475495666265487671e-02
2.905855700373649597e-02
-7.634042948484420776e-02
-2.639341540634632111e-02
-3.040311159566044807e-03
-1.150950714945793152e-01
-2.026536874473094940e-02
-1.943698525428771973e-01
-3.462572395801544189e-01
-1.612612009048461914e-01
6.619305163621902466e-02
-1.156924143433570862e-01
2.927074208855628967e-02
-1.771209090948104858e-01
-8.171121031045913696e-02
5.545774009078741074e-03
8.771978318691253662e-02
-5.509611591696739197e-02
-7.025372236967086792e-03
6.727390922605991364e-03
-1.826921105384826660e-01
3.242349624633789062e-02
1.208302527666091919e-01
5.474136397242546082e-02
1.529840845614671707e-02
1.461760140955448151e-02
-7.008498162031173706e-02
5.357909575104713440e-02
9.769611060619354248e-02
7.665564864873886108e-02
-7.018539309501647949e-02
-1.387137770652770996e-01
-1.294752955436706543e-01
-4.524338245391845703e-02
-1.624724417924880981e-01
-1.651403158903121948e-01
-1.012867093086242676e-01
-9.315755963325500488e-02
-3.426462411880493164e-02
6.709994375705718994e-02
-2.151281088590621948e-01
-1.376191675662994385e-01
-6.137909740209579468e-02
-6.888804584741592407e-02
1.500707119703292847e-01
5.226224288344383240e-02
-1.235846877098083496e-01
-2.057920843362808228e-01
-1.271083652973175049e-01
1.154278889298439026e-01
6.613400578498840332e-02
5.687584634870290756e-03
-4.632218927145004272e-02
9.043098427355289459e-03
9.344478696584701538e-02
1.603027433156967163e-01
6.354364752769470215e-02
1.429107636213302612e-01
-2.593922801315784454e-02
-3.118555527180433273e-03
-5.522674694657325745e-02
-3.587481752038002014e-02
8.816963993012905121e-03
-7.261593639850616455e-02
2.122505009174346924e-01
6.717879325151443481e-02
-2.507322281599044800e-02
-1.528103053569793701e-01
-1.237112283706665039e-01
-8.529120683670043945e-02
-9.414048492908477783e-02
-9.539585560560226440e-02
-1.762932837009429932e-01
2.741407230496406555e-02
6.930971145629882812e-02
1.148817827925086021e-04
5.858719348907470703e-02
1.488242894411087036e-01
2.129717729985713959e-02
-2.416850998997688293e-02
-5.913076549768447876e-02
1.545801386237144470e-02
5.596915259957313538e-02
-7.549358904361724854e-02
5.699836090207099915e-02
7.009154558181762695e-02
-1.083682328462600708e-01
7.745250314474105835e-02
-7.661522179841995239e-02
-2.464382946491241455e-01
-1.186118721961975098e-01
4.338572174310684204e-02
-1.036724075675010681e-02
-1.016419306397438049e-01
-1.821330003440380096e-02
2.673210948705673218e-02
-3.464355366304516792e-03
-2.939749881625175476e-02
1.542253303341567516e-03
-5.486401729285717010e-03
6.267489492893218994e-02
-2.259587496519088745e-02
-1.555631905794143677e-01
1.809797994792461395e-02
1.281534433364868164e-01
8.829915523529052734e-02
-2.252350188791751862e-02
-1.518194936215877533e-02
1.090773195028305054e-02
-2.404259052127599716e-03
2.319691237062215805e-03
6.775896996259689331e-02
-1.740629784762859344e-02
6.528995931148529053e-02
1.247782930731773376e-01
4.779972136020660400e-02
3.619872406125068665e-02
-1.334041804075241089e-01
-6.430789828300476074e-02
-4.735972359776496887e-02
-5.774326995015144348e-02
8.093876391649246216e-02
7.833428680896759033e-02
1.729586422443389893e-01
-1.117681786417961121e-01
-1.660683602094650269e-01
2.116180397570133209e-02
7.131353765726089478e-02
-1.804062724113464355e-02
-1.366079896688461304e-01
-1.541089266538619995e-01
-1.848245412111282349e-01
-7.560206949710845947e-02
-1.010817382484674454e-02
-1.860821247100830078e-01
8.760860562324523926e-02
-1.237021088600158691e-01
-9.322069585323333740e-02
-4.470355808734893799e-02
6.926119327545166016e-02
-8.056974411010742188e-02
-1.261824369430541992e-02
-5.098859779536724091e-03
-5.684256553649902344e-02
-7.215724140405654907e-02
7.873993366956710815e-02
-2.252649217844009399e-01
6.435564905405044556e-02
7.609997689723968506e-02
2.784110791981220245e-02
-3.616128861904144287e-02
-3.026062063872814178e-02
1.247140988707542419e-01
1.636451855301856995e-02
8.127106726169586182e-02
-4.707802459597587585e-02
3.496139496564865112e-02
9.853757917881011963e-02
3.119215555489063263e-02
2.076637465506792068e-04
9.999312460422515869e-03
1.290973126888275146e-01
5.747671425342559814e-02
-8.146784454584121704e-02
-4.236645624041557312e-02
-7.132209837436676025e-02
-7.306405901908874512e-02
-1.014353483915328979e-01
-2.530914545059204102e-02
1.334554748609662056e-03
-1.412180513143539429e-01
-1.134228368755429983e-04
2.277320437133312225e-02
-9.322733432054519653e-02
-7.785660028457641602e-02
1.316744685173034668e-01
9.655100852251052856e-02
3.345618257299065590e-03
-1.769996620714664459e-02
1.359854340553283691e-01
6.891407817602157593e-02
7.636369764804840088e-02
8.860502392053604126e-03
-1.049435436725616455e-01
-3.712873905897140503e-02
-4.978161305189132690e-02
7.463546842336654663e-02
2.888443879783153534e-02
-1.221556887030601501e-01
-1.802191138267517090e-01
1.183605659753084183e-02
-1.880832202732563019e-02
4.432815313339233398e-02
-1.625466793775558472e-01
1.551124267280101776e-02
1.450868844985961914e-01
7.218281179666519165e-02
1.187274530529975891e-01
-2.516742236912250519e-02
1.080204993486404419e-01
1.071046143770217896e-01
2.150043398141860962e-01
3.360775485634803772e-02
-5.812177062034606934e-02
2.131792157888412476e-02
1.907672546803951263e-02
8.049517869949340820e-02
-5.387124791741371155e-02
7.290605455636978149e-02
1.270133852958679199e-01
3.810395300388336182e-02
-6.917186081409454346e-02
8.749536424875259399e-02
2.529137432575225830e-01
-5.416135862469673157e-02
-5.909079685807228088e-02
-1.293508708477020264e-01
-1.580728590488433838e-01
5.305753275752067566e-02
-1.132139489054679871e-01
-1.271668225526809692e-01
9.497661888599395752e-02
7.618217170238494873e-02
-1.061765477061271667e-01
3.384184837341308594e-02
5.464470759034156799e-02
-6.134996563196182251e-02
-6.618929095566272736e-03
-9.955482557415962219e-03
-3.350177407264709473e-02
-1.159934476017951965e-01
-6.668518483638763428e-02
7.315717637538909912e-02
1.658993512392044067e-01
1.132170110940933228e-02
6.100960448384284973e-02
6.561640650033950806e-03
8.827142417430877686e-02
3.309838101267814636e-02
1.655092090368270874e-01
3.511452674865722656e-02
-1.658395826816558838e-01
-1.266418695449829102e-01
-1.449439525604248047e-01
-4.457833245396614075e-02
2.103378176689147949e-01
1.625565886497497559e-01
1.726775765419006348e-01
8.126965723931789398e-03
1.422894597053527832e-01
-2.210894078016281128e-01
-1.322793215513229370e-02
-9.427526593208312988e-02
-9.394290857017040253e-03
-1.816334873437881470e-01
-5.468475818634033203e-02
-1.844601780176162720e-01
-3.064772188663482666e-01
-1.843824237585067749e-01
1.045644748955965042e-03
-7.139446586370468140e-02
-9.436926990747451782e-02
9.373485296964645386e-02
9.829325228929519653e-02
8.206260204315185547e-02
-4.320078343152999878e-02
1.794462054967880249e-01
1.611516475677490234e-01
-1.650664210319519043e-01
-7.734793424606323242e-02
-1.113856956362724304e-01
1.509273648262023926e-01
-4.065148532390594482e-03
1.543563045561313629e-02
1.491144951432943344e-02
-5.432420596480369568e-02
8.126289397478103638e-02
-4.262658953666687012e-02
-1.051711589097976685e-01
-1.045841723680496216e-01
1.205073818564414978e-01
3.909568488597869873e-02
-4.657574370503425598e-02
-8.726140111684799194e-02
4.231487587094306946e-02
1.054507941007614136e-01
9.334915131330490112e-02
-4.743206501007080078e-02
2.020531333982944489e-02
-1.617700904607772827e-01
-2.048196643590927124e-01
3.504786640405654907e-02
-1.636924296617507935e-01
-6.092770025134086609e-02
1.060548201203346252e-01
8.384549617767333984e-02
-2.855494990944862366e-02
-3.291785949841141701e-03
3.142496570944786072e-02
-3.596729785203933716e-02
1.191191654652357101e-02
4.531325399875640869e-02
4.410938173532485962e-02
1.441192179918289185e-01
6.525713205337524414e-02
-4.201062768697738647e-02
-1.782114244997501373e-02
1.362286210060119629e-01
-2.020154446363449097e-01
3.007365949451923370e-02
-2.903154119849205017e-03
-8.436094969511032104e-02
-2.260807454586029053e-01
1.456037312746047974e-01
1.161737591028213501e-01
1.507523655891418457e-01
-8.440562337636947632e-02
2.852509543299674988e-02
-4.009737819433212280e-02
-1.385050266981124878e-01
5.473400279879570007e-02
1.277927905321121216e-01
-1.441242545843124390e-01
6.414045579731464386e-03
2.870488166809082031e-02
1.517025846987962723e-02
-1.172415241599082947e-01
-9.064076840877532959e-02
1.362202018499374390e-01
1.236145347356796265e-01
4.911779984831809998e-02
6.529261171817779541e-02
1.076692948117852211e-03
-7.902980595827102661e-02
-3.609816730022430420e-02
-1.095302850008010864e-01
7.860799878835678101e-02
8.470177650451660156e-02
-2.558878362178802490e-01
-7.740952074527740479e-02
1.997607648372650146e-01
1.782178580760955811e-01
-1.054932251572608948e-01
4.725972935557365417e-02
-1.642535477876663208e-01
-1.165258064866065979e-01
2.526470832526683807e-02
2.432777173817157745e-02
-4.494575783610343933e-02
2.660800702869892120e-02
7.489407807588577271e-02
4.901224747300148010e-02
-6.435517966747283936e-02
-3.191758692264556885e-01
-1.011806726455688477e-01
-5.362116917967796326e-02
-5.042034015059471130e-02
-1.376549340784549713e-02
-4.738359898328781128e-02
-5.664622783660888672e-02
-3.190921992063522339e-02
1.442181020975112915e-01
9.552460908889770508e-02
5.456878244876861572e-02
1.531087048351764679e-02
-1.605503633618354797e-02
1.176653131842613220e-01
5.148431658744812012e-02
-1.641944497823715210e-01
-1.374907940626144409e-01
-8.408407121896743774e-02
-3.270489349961280823e-02
-1.016051322221755981e-02
1.853970438241958618e-01
-1.043779030442237854e-02
5.437140818685293198e-03
1.125009804964065552e-01
2.522526383399963379e-01
-1.433595828711986542e-02
-4.731952771544456482e-02
5.728769302368164062e-02
-1.154627203941345215e-01
-1.869411766529083252e-02
-2.446996122598648071e-01
-2.338102012872695923e-01
-2.830463051795959473e-01
-1.375281661748886108e-01
-1.043042391538619995e-01
9.116317331790924072e-02
5.877765640616416931e-02
3.321806341409683228e-02
4.389984533190727234e-02
-6.224347744137048721e-04
7.389523833990097046e-02
2.594377472996711731e-02
-6.674713641405105591e-02
1.664036698639392853e-02
1.414984166622161865e-01
-5.975351110100746155e-02
4.435224458575248718e-02
-2.459312602877616882e-02
-9.699362516403198242e-02
4.722827300429344177e-02
-1.002945080399513245e-01
-5.300750210881233215e-02
-1.286641657352447510e-01
3.368352726101875305e-02
7.090637087821960449e-02
2.249628603458404541e-01
-6.207684800028800964e-02
-1.181575059890747070e-01
-2.118574827909469604e-02
-6.160734221339225769e-02
6.608853489160537720e-02
-1.518059708178043365e-02
1.153696049004793167e-02
4.880414530634880066e-02
1.952649354934692383e-01
5.691573023796081543e-03
1.233959943056106567e-02
4.842366278171539307e-02
4.851350933313369751e-02
-1.614782586693763733e-02
-4.376495257019996643e-03
2.330720238387584686e-02
-6.424851715564727783e-02
-2.643455862998962402e-01
-1.696760803461074829e-01
-2.592215538024902344e-01
-4.435761868953704834e-01
-1.455590426921844482e-01
-2.823506295680999756e-01
-3.378297984600067139e-01
-7.211595773696899414e-02
-2.199536859989166260e-01
-2.367688901722431183e-02
-1.286387443542480469e-01
7.579554803669452667e-04
-8.465278893709182739e-03
-6.511615216732025146e-02
-2.061565816402435303e-01
-2.449973672628402710e-01
5.424785614013671875e-02
-3.346472978591918945e-02
-3.480689525604248047e-01
-1.403492242097854614e-01
-8.737798780202865601e-02
-1.334399580955505371e-01
-1.267207320779561996e-02
4.802253842353820801e-02
7.431050390005111694e-02
3.408980369567871094e-02
1.694889664649963379e-01
1.952527910470962524e-01
-6.737204641103744507e-02
-5.264687910676002502e-02
-9.398019313812255859e-02
-8.567014709115028381e-03
-2.585632726550102234e-02
-6.801225827075541019e-04
5.338428914546966553e-02
-2.435117810964584351e-01
-5.345826223492622375e-02
-1.855390667915344238e-01
-1.169081702828407288e-01
-1.683301478624343872e-01
-1.386984735727310181e-01
-1.314051151275634766e-01
-1.581565588712692261e-01
-2.260525673627853394e-01
-5.510561168193817139e-02
-2.735005319118499756e-02
-1.616480648517608643e-01
-1.260553151369094849e-01
-1.388901919126510620e-01
-6.820712238550186157e-02
-5.267569795250892639e-02
-2.381836809217929840e-02
-1.522979140281677246e-01
-1.025494784116744995e-01
5.587365850806236267e-02
-2.368261367082595825e-01
-4.595445692539215088e-01
-1.265077590942382812e-01
-1.920237392187118530e-01
-1.832202970981597900e-01
-1.495396345853805542e-01
-4.748427495360374451e-02
-9.525971114635467529e-02
3.797467797994613647e-02
-2.614212930202484131e-01
-2.278408408164978027e-01
-2.090361565351486206e-01
-5.473572015762329102e-02
-1.992823034524917603e-01
-1.764551699161529541e-01
1.252799481153488159e-01
7.003594189882278442e-02
1.288659572601318359e-01
4.439500719308853149e-02
3.813083469867706299e-02
1.540181338787078857e-01
-1.151609942317008972e-01
-1.319027394056320190e-01
-1.284986641258001328e-02
8.526508510112762451e-02
-1.098103001713752747e-01
-1.554803736507892609e-02
-1.481109205633401871e-02
-9.621239453554153442e-02
-6.954524666070938110e-02
-4.591560363769531250e-02
-7.187807559967041016e-02
1.901653222739696503e-02
3.830716758966445923e-02
-1.350159384310245514e-02
1.086911708116531372e-01
1.021181941032409668e-01
2.548208832740783691e-02
-2.113008685410022736e-02
1.456243097782135010e-01
5.467781797051429749e-02
1.942596733570098877e-01
6.124762818217277527e-02
2.397048752754926682e-03
-2.111577428877353668e-03
1.132906693965196609e-02
-3.981122002005577087e-02
7.464805990457534790e-02
4.119938705116510391e-03
1.142446845769882202e-01
1.434009671211242676e-01
-3.851442411541938782e-02
2.390583232045173645e-02
1.983356028795242310e-01
-8.678019046783447266e-02
-6.128645688295364380e-02
-7.548979669809341431e-02
6.396853178739547729e-02
1.041890382766723633e-01
-1.591942906379699707e-01
-2.664535492658615112e-02
3.789934515953063965e-02
9.344390034675598145e-02
2.135081589221954346e-02
1.179677322506904602e-01
3.195887804031372070e-02
-7.521497458219528198e-02
-2.522587589919567108e-02
2.660006098449230194e-02
1.342050582170486450e-01
1.455737054347991943e-01
6.813351064920425415e-02
6.166767794638872147e-03
2.038283832371234894e-02
8.807720988988876343e-02
-1.114887967705726624e-01
-4.986372217535972595e-02
1.824065595865249634e-01
-4.712677001953125000e-01
-4.969267249107360840e-01
-3.235372304916381836e-01
-2.357091456651687622e-01
-1.380260735750198364e-01
-1.662238836288452148e-01
-1.125430092215538025e-01
-5.167899653315544128e-02
-2.064396589994430542e-01
1.170222461223602295e-01
1.302721798419952393e-01
1.195243895053863525e-01
3.288812935352325439e-02
3.801790997385978699e-02
-5.508345738053321838e-02
1.650338992476463318e-03
1.808377727866172791e-02
-2.685883454978466034e-02
-9.344669431447982788e-02
-8.735870569944381714e-02
1.315153539180755615e-01
-2.438663989305496216e-01
-3.469217419624328613e-01
-2.080431431531906128e-01
-2.301877140998840332e-01
-2.458428591489791870e-01
-3.395406007766723633e-01
-6.492790766060352325e-03
6.293691694736480713e-02
1.502147410064935684e-02
3.688584268093109131e-02
-4.975867271423339844e-02
4.659832641482353210e-02
-8.991439640522003174e-02
-3.716647624969482422e-02
1.295929849147796631e-01
1.908868998289108276e-01
6.143333390355110168e-02
2.045074403285980225e-01
1.897440850734710693e-01
1.619389206171035767e-01
1.538721472024917603e-01
8.988433331251144409e-02
7.168637216091156006e-02
1.281262934207916260e-01
-2.389645725488662720e-01
-3.443916328251361847e-03
-6.390517204999923706e-02
-2.005129009485244751e-01
-3.090660274028778076e-01
-2.848082184791564941e-01
-1.706896126270294189e-01
-2.667397260665893555e-01
-2.951694130897521973e-01
5.850883573293685913e-02
7.522323727607727051e-02
4.866535216569900513e-02
-7.307865656912326813e-03
1.188634410500526428e-01
1.914505660533905029e-02
2.893181331455707550e-02
1.357792913913726807e-01
8.673663437366485596e-02
1.279150545597076416e-01
3.628535941243171692e-02
1.063327267765998840e-01
9.166412800550460815e-02
2.163557521998882294e-02
9.614102542400360107e-02
8.282358199357986450e-02
-7.777121383696794510e-03
4.108856990933418274e-02
1.330376369878649712e-03
4.602986387908458710e-03
1.613188982009887695e-01
-1.411183327436447144e-01
-1.803546547889709473e-01
-2.002740055322647095e-01
-2.023104578256607056e-02
-8.790336549282073975e-02
-8.982115983963012695e-02
1.044195219874382019e-01
2.210491150617599487e-02
2.667171508073806763e-02
6.407648324966430664e-02
1.648704558610916138e-01
6.199406925588846207e-03
4.515056964010000229e-03
1.603243947029113770e-01
1.111935675144195557e-01
-4.732295870780944824e-03
9.155970066785812378e-02
2.384816557168960571e-01
-5.807028710842132568e-02
-1.556935161352157593e-01
2.676467783749103546e-02
-1.094411015510559082e-01
-7.699571549892425537e-02
-1.199457561597228050e-03
-3.749665990471839905e-02
-2.621350884437561035e-01
-1.743267029523849487e-01
-1.018746122717857361e-01
-7.512564212083816528e-02
-9.504939615726470947e-02
-1.964627765119075775e-02
-5.329931527376174927e-02
5.632011219859123230e-02
-2.347839437425136566e-02
-6.044031307101249695e-02
-6.445427238941192627e-02
-4.628379270434379578e-02
-2.637930028140544891e-02
5.372826382517814636e-02
5.923290271311998367e-03
5.022375378757715225e-03
-8.952463418245315552e-02
-2.628070302307605743e-02
-2.515615150332450867e-02
-8.372151106595993042e-02
-4.503672476857900620e-03
-1.675069890916347504e-02
-7.698211073875427246e-02
-9.851358830928802490e-02
-4.409715160727500916e-02
-2.096947841346263885e-02
-5.708026513457298279e-02
-7.891251146793365479e-02
-6.213801354169845581e-02
-3.725513070821762085e-02
-3.583896206691861153e-03
-7.950185239315032959e-02
-6.590086221694946289e-02
-5.323266610503196716e-02
1.716912910342216492e-02
-2.755243144929409027e-02
-1.273555401712656021e-02
-4.080823063850402832e-02
1.169295608997344971e-02
-4.473071172833442688e-02
2.537165768444538116e-03
5.458889529109001160e-03
-1.076295599341392517e-01
-4.807019233703613281e-02
-3.713786229491233826e-02
3.592808544635772705e-02
-7.281578611582517624e-03
2.043710835278034210e-02
-1.085869316011667252e-02
1.625449582934379578e-02
-8.270103484392166138e-02
-3.150380402803421021e-02
-5.928224325180053711e-02
4.985263943672180176e-02
-1.969067193567752838e-02
3.443473950028419495e-02
-1.470717228949069977e-02
-3.457999601960182190e-02
-8.813469856977462769e-02
-1.873278245329856873e-02
1.909390464425086975e-02
-4.174487292766571045e-02
-9.430070966482162476e-02
-3.803688660264015198e-02
-4.529343917965888977e-02
-1.723624020814895630e-02
1.447538845241069794e-02
-5.934093520045280457e-02
-1.134087368845939636e-01
-9.038732945919036865e-02
-9.295643866062164307e-02
-6.747758388519287109e-02
-7.517413794994354248e-02
-8.780944161117076874e-03
-5.274429917335510254e-02
-7.935311645269393921e-03
-1.008367612957954407e-01
3.225770220160484314e-02
-5.547275301069021225e-03
-1.188463252037763596e-02
4.644035827368497849e-03
-4.225610941648483276e-02
1.890333555638790131e-02
1.192936394363641739e-02
9.715908206999301910e-03
1.929190009832382202e-02
-1.057312488555908203e-01
-2.590587362647056580e-02
-3.424295410513877869e-02
1.169757544994354248e-02
-2.593566291034221649e-02
-1.267515402287244797e-02
-4.735024645924568176e-02
-5.089006945490837097e-02
-7.429412752389907837e-02
-2.662248723208904266e-02
7.143690716475248337e-03
-5.542083829641342163e-02
5.535334348678588867e-02
-3.748656809329986572e-02
4.396893829107284546e-02
-4.134669154882431030e-02
-3.854248300194740295e-02
4.925972782075405121e-03
1.144397910684347153e-02
-2.835601754486560822e-02
-2.165514416992664337e-02
1.940762624144554138e-02
-8.697300218045711517e-03
-4.938071593642234802e-03
5.159928277134895325e-02
-3.199551999568939209e-02
5.193495657294988632e-03
-2.466221898794174194e-02
-1.878623152151703835e-03
-6.182808056473731995e-02
-6.940999627113342285e-02
-1.153129115700721741e-01
1.611593924462795258e-02
-3.236644715070724487e-02
-5.734958127140998840e-02
5.152693949639797211e-03
-4.684810340404510498e-02
-6.085302308201789856e-02
-5.782005563378334045e-02
-4.340004548430442810e-02
-5.256674066185951233e-02
-8.730832487344741821e-02
-1.659782603383064270e-02
-3.181884437799453735e-02
-8.667391538619995117e-02
-3.566517680883407593e-02
-1.138139981776475906e-02
-1.010505631566047668e-01
4.438943788409233093e-02
-4.544526711106300354e-02
-1.598887704312801361e-02
-6.422672420740127563e-02
-9.024457633495330811e-02
-4.852088913321495056e-02
-3.453681617975234985e-02
-1.261705905199050903e-01
-2.415454573929309845e-02
-8.756894618272781372e-02
-5.210113897919654846e-02
-2.709284238517284393e-02
-8.880336582660675049e-02
7.634066045284271240e-03
-8.509884774684906006e-02
-5.697833746671676636e-02
-1.103937393054366112e-03
-7.690092176198959351e-02
-5.048646405339241028e-02
-5.680290609598159790e-02
-2.134907804429531097e-02
1.894334889948368073e-02
-2.706077694892883301e-02
-3.175295889377593994e-02
-3.663012292236089706e-03
6.771443877369165421e-03
-7.327934354543685913e-02
-7.354072481393814087e-02
-2.841389505192637444e-03
-9.892776608467102051e-02
5.692335963249206543e-02
-4.827266931533813477e-02
-3.840098902583122253e-02
-5.865733325481414795e-02
-1.106976643204689026e-01
-1.786559633910655975e-02
-5.546028167009353638e-02
-7.946495711803436279e-02
-9.763697162270545959e-03
-1.122773624956607819e-02
-4.463618993759155273e-02
6.560300476849079132e-03
-6.086918339133262634e-02
-6.805220246315002441e-02
-8.948579430580139160e-02
1.843128353357315063e-02
1.006275694817304611e-02
-7.563075423240661621e-02
-5.419221147894859314e-02
-7.696531713008880615e-02
9.409454651176929474e-03
-9.847003966569900513e-02
1.636404357850551605e-02
-9.899306297302246094e-02
-6.798709928989410400e-02
-1.361575908958911896e-02
-1.946179382503032684e-02
-3.417402133345603943e-02
-4.728551581501960754e-02
6.774561479687690735e-04
-2.707789465785026550e-02
-5.959613621234893799e-02
-2.048263791948556900e-03
-7.897335290908813477e-02
-6.244665943086147308e-03
-7.240749895572662354e-02
-1.006270945072174072e-01
7.039857562631368637e-03
-4.429991915822029114e-02
1.320647913962602615e-02
-7.124835252761840820e-02
-3.319072723388671875e-02
-1.086458563804626465e-01
-4.755217954516410828e-02
-2.137257345020771027e-02
-2.229968458414077759e-02
-1.343518197536468506e-01
-1.704492606222629547e-02
-1.436468809843063354e-01
-3.458155319094657898e-02
-4.470958188176155090e-02
-2.520381473004817963e-03
-5.692737549543380737e-02
-6.775534898042678833e-02
3.853440284729003906e-02
-7.001110911369323730e-02
4.060713201761245728e-02
-8.577999472618103027e-02
2.977783791720867157e-03
-2.543121762573719025e-02
-9.389937669038772583e-02
-8.612847328186035156e-02
-5.204704031348228455e-02
-4.470410197973251343e-02
-9.087613224983215332e-02
-4.605551064014434814e-02
-2.965024299919605255e-02
1.428663264960050583e-02
-4.371358826756477356e-02
-2.034616656601428986e-02
-7.091867923736572266e-02
2.335221692919731140e-02
5.830512568354606628e-02
1.997257210314273834e-02
-4.291830584406852722e-02
3.289418527856469154e-03
-7.910062372684478760e-02
-6.426526606082916260e-02
-2.213411591947078705e-02
-6.468291580677032471e-02
-2.041589096188545227e-02
7.589222397655248642e-03
-2.251639403402805328e-02
-1.047157421708106995e-01
-3.202122822403907776e-02
-7.285889983177185059e-02
1.571695320308208466e-02
7.710538804531097412e-03
-1.699031889438629150e-02
-6.360801309347152710e-02
1.735655963420867920e-02
-1.190518215298652649e-01
-1.599099300801753998e-02
-1.760813407599925995e-02
-6.788518279790878296e-02
-7.930446416139602661e-02
-4.323238506913185120e-02
-1.893149688839912415e-02
-8.907736092805862427e-02
2.559766359627246857e-02
-1.885561086237430573e-02
-1.187143381685018539e-02
-1.756640337407588959e-02
-9.919906407594680786e-02
-5.674530938267707825e-02
-3.464583307504653931e-02
-7.876951247453689575e-02
-4.791672900319099426e-02
-5.390177667140960693e-02
-1.709134317934513092e-02
-5.667906720191240311e-03
-9.390135109424591064e-02
-1.480387896299362183e-01
-2.966360002756118774e-02
-2.288853749632835388e-02
-1.250707209110260010e-01
-5.968288332223892212e-02
2.212977735325694084e-03
-1.873351074755191803e-02
1.204123254865407944e-02
7.743043359369039536e-03
-7.546889781951904297e-02
-8.633302152156829834e-02
-4.877815768122673035e-02
-8.981584757566452026e-02
-3.024748153984546661e-02
-7.640095800161361694e-02
-5.239959433674812317e-02
-5.178294703364372253e-02
-5.581142753362655640e-02
2.951013110578060150e-02
-7.231485843658447266e-02
-3.717821463942527771e-02
4.213970899581909180e-02
-1.628906652331352234e-02
-1.706054806709289551e-02
-1.791370846331119537e-02
-6.052789464592933655e-02
-1.929274876601994038e-03
-1.347098946571350098e-01
6.890748441219329834e-02
1.307683736085891724e-01
3.239585161209106445e-01
1.766543239355087280e-01
-7.051846385002136230e-02
5.571298673748970032e-02
1.050196960568428040e-01
-2.604790031909942627e-02
-2.021353989839553833e-01
-8.372972160577774048e-02
7.629288733005523682e-02
8.427299559116363525e-02
1.245150789618492126e-01
7.331235799938440323e-03
6.404802203178405762e-02
1.639645174145698547e-02
-1.432533115148544312e-01
-1.890478432178497314e-01
-1.845908612012863159e-01
1.488990634679794312e-01
6.222102791070938110e-02
1.593596935272216797e-01
1.155186295509338379e-01
6.284912675619125366e-02
-1.350309327244758606e-02
-1.008619517087936401e-01
-1.718106716871261597e-01
-4.549257084727287292e-02
1.178774684667587280e-01
1.973862051963806152e-01
-2.193888183683156967e-03
-2.902154345065355301e-03
-3.676721453666687012e-02
-1.776559203863143921e-01
1.230525895953178406e-01
1.459203660488128662e-01
6.471048574894666672e-03
-2.729251384735107422e-01
-2.177473157644271851e-01
-1.525520980358123779e-01
7.385801523923873901e-02
-1.492363363504409790e-01
-4.662581905722618103e-02
2.489468455314636230e-02
1.259651482105255127e-01
1.534400507807731628e-02
-4.617991298437118530e-02
-3.049898445606231689e-01
-3.036572597920894623e-02
-7.639884948730468750e-02
1.547604948282241821e-01
1.211111918091773987e-01
1.128926649689674377e-01
-2.468730509281158447e-02
-1.412612572312355042e-02
-9.734573774039745331e-03
-5.961425602436065674e-02
-2.747614309191703796e-02
2.777379155158996582e-01
2.207193076610565186e-01
-1.973087899386882782e-02
1.505435109138488770e-01
1.499646008014678955e-01
2.642309367656707764e-01
2.422378212213516235e-01
1.604653708636760712e-02
1.055452376604080200e-01
-8.771674335002899170e-02
3.539953008294105530e-02
1.157820150256156921e-01
8.263348788022994995e-02
1.228813380002975464e-01
1.596871949732303619e-02
-8.395907282829284668e-02
-4.699639678001403809e-01
-1.977442055940628052e-01
1.125550419092178345e-01
1.206276863813400269e-01
-3.656997159123420715e-02
-8.535873144865036011e-02
-1.065949052572250366e-01
1.267660260200500488e-01
1.605040132999420166e-01
2.137441933155059814e-01
3.920472413301467896e-02
-8.092729747295379639e-02
-2.856744229793548584e-01
-1.914888620376586914e-01
6.526177376508712769e-02
7.014653086662292480e-02
3.356338664889335632e-02
-7.332330197095870972e-02
-1.705230772495269775e-01
-1.111456379294395447e-01
-1.067130044102668762e-01
-1.759160757064819336e-01
-3.940058872103691101e-02
-1.012695506215095520e-01
-3.669095337390899658e-01
-2.818672955036163330e-01
4.341551288962364197e-02
-1.648066565394401550e-02
9.346344321966171265e-02
-1.087465137243270874e-01
4.616219084709882736e-03
-4.951663315296173096e-02
-6.243329122662544250e-02
7.100463658571243286e-02
3.640249837189912796e-03
1.120199561119079590e-01
1.162380203604698181e-01
2.422922104597091675e-02
-1.710465550422668457e-01
-7.585172355175018311e-02
-2.089468017220497131e-02
-8.379385620355606079e-02
-2.583785951137542725e-01
-1.774815320968627930e-01
1.786265708506107330e-02
1.263768523931503296e-01
6.416476517915725708e-02
-7.587070763111114502e-02
-2.780953943729400635e-01
-8.854086697101593018e-02
-2.526380121707916260e-01
-2.948173284530639648e-01
-1.298303455114364624e-01
-2.759501934051513672e-01
-2.181063741445541382e-01
-4.361819475889205933e-02
-1.227660179138183594e-01
-1.022543609142303467e-01
5.161479860544204712e-02
2.574844472110271454e-02
2.361113131046295166e-01
2.540252804756164551e-01
1.015922427177429199e-01
3.430246934294700623e-02
2.047421187162399292e-01
-5.187104269862174988e-02
-1.382472217082977295e-01
-1.077445968985557556e-01
-1.868099719285964966e-01
-3.381588459014892578e-01
-5.597107484936714172e-02
9.868969023227691650e-02
-3.431382775306701660e-02
-1.200312674045562744e-01
-1.509724929928779602e-02
-5.528545007109642029e-02
2.819988876581192017e-02
-1.075082421302795410e-01
-4.439185187220573425e-02
-3.394459187984466553e-02
-2.100480794906616211e-01
7.026018574833869934e-03
2.067703902721405029e-01
-1.613943278789520264e-01
-1.162525713443756104e-01
2.647942118346691132e-02
1.410435587167739868e-01
8.487079292535781860e-02
1.061786860227584839e-01
2.502512931823730469e-01
2.162237018346786499e-01
1.955373138189315796e-01
-7.361540198326110840e-02
4.110025241971015930e-02
-1.592283993959426880e-01
-2.571675479412078857e-01
-3.779164254665374756e-01
-1.350108981132507324e-01
-1.593806222081184387e-02
-6.971596181392669678e-02
-1.082516536116600037e-01
-1.468750685453414917e-01
-2.301552295684814453e-01
-2.413626462221145630e-01
2.848923951387405396e-02
1.743981838226318359e-01
1.324027478694915771e-01
2.580391056835651398e-02
9.849707037210464478e-02
2.356914430856704712e-01
-2.389020659029483795e-02
-6.192376837134361267e-02
-4.538621008396148682e-02
1.347251981496810913e-01
-6.268586218357086182e-02
2.619491890072822571e-02
-3.886371254920959473e-01
-2.702057063579559326e-01
-8.084856718778610229e-02
-1.385881286114454269e-02
2.852999269962310791e-01
2.854172587394714355e-01
7.451474666595458984e-02
1.916735768318176270e-01
1.203226745128631592e-01
5.325759202241897583e-02
4.947796091437339783e-02
3.751711919903755188e-02
-1.117508634924888611e-01
4.795247688889503479e-02
2.750454843044281006e-02
-1.865059137344360352e-01
-2.988439500331878662e-01
-2.522202730178833008e-01
5.335749685764312744e-02
-1.131018847227096558e-01
8.869151026010513306e-02
-1.039858758449554443e-01
-1.164635270833969116e-01
-3.803389146924018860e-02
2.293024398386478424e-02
-3.728386759757995605e-02
-5.923812836408615112e-02
1.500433087348937988e-01
2.193065732717514038e-01
-1.503640133887529373e-02
7.189356535673141479e-02
3.696541860699653625e-02
-4.175479523837566376e-03
-5.824809893965721130e-02
-1.193123683333396912e-01
-1.153471693396568298e-01
5.430917441844940186e-02
6.643351912498474121e-02
-9.008197113871574402e-03
1.223878636956214905e-01
1.514844149351119995e-01
4.842380806803703308e-02
-1.371179819107055664e-01
-4.009504020214080811e-01
-2.666851580142974854e-01
-3.086833283305168152e-02
-4.938456043601036072e-02
2.306078225374221802e-01
-9.199757874011993408e-02
-1.530992537736892700e-01
2.585615403950214386e-02
-5.158413574099540710e-02
1.737317442893981934e-01
8.446551114320755005e-02
-1.624353080987930298e-01
-1.689741611480712891e-01
-1.782643795013427734e-02
-1.695994585752487183e-01
-1.694359183311462402e-01
-4.933869466185569763e-03
-9.625667333602905273e-02
-3.585279732942581177e-02
-1.120507195591926575e-01
-1.162207778543233871e-02
4.460702184587717056e-03
7.181201130151748657e-02
-1.915534734725952148e-01
-1.462720334529876709e-01
-2.155081927776336670e-02
-6.115859001874923706e-02
-8.829903602600097656e-02
4.546733573079109192e-02
-2.447079122066497803e-02
-5.889280885457992554e-02
-8.991864323616027832e-02
-1.325732618570327759e-01
-2.708647549152374268e-01
-1.537842750549316406e-01
1.259785145521163940e-01
-1.658151447772979736e-01
-7.515171915292739868e-02
-1.409721076488494873e-01
-2.771546840667724609e-01
2.838099561631679535e-02
1.154344156384468079e-01
1.092541888356208801e-01
-4.903973639011383057e-02
1.161749809980392456e-01
2.006707042455673218e-01
2.539560198783874512e-01
2.372761219739913940e-01
-3.148688375949859619e-02
9.555881842970848083e-05
-8.118957281112670898e-02
-1.141282618045806885e-01
-1.431080978363752365e-02
3.573181107640266418e-02
-1.739211380481719971e-01
-4.155389324296265841e-04
7.388551533222198486e-02
3.059324994683265686e-02
5.430766195058822632e-02
-5.881960690021514893e-02
1.653010398149490356e-01
-1.341784894466400146e-01
-2.930971980094909668e-02
8.824983239173889160e-02
-1.047472804784774780e-01
5.507453903555870056e-02
-1.791698187589645386e-01
8.000432699918746948e-02
-1.329302191734313965e-01
-3.247576951980590820e-01
-1.500980406999588013e-01
2.745722234249114990e-02
5.173724517226219177e-02
-3.949140757322311401e-02
1.126617565751075745e-01
-1.366611104458570480e-02
-4.920052364468574524e-02
-7.632059603929519653e-02
-2.944163233041763306e-02
-2.056680619716644287e-02
-4.085431620478630066e-02
1.816420443356037140e-02
-7.474653422832489014e-02
5.638412665575742722e-03
-7.066824287176132202e-02
-1.651897132396697998e-01
-1.654596477746963501e-01
5.181353166699409485e-02
-8.517707698047161102e-03
-1.842965781688690186e-01
-1.217771247029304504e-01
5.948032438755035400e-02
2.533021615818142891e-03
6.042937561869621277e-02
7.415428012609481812e-02
-3.986501693725585938e-02
-8.712862432003021240e-02
2.547914907336235046e-02
-3.407637774944305420e-02
-2.186849340796470642e-02
5.203121900558471680e-02
-5.447705462574958801e-02
4.516954720020294189e-02
-1.798488385975360870e-02
-6.104430928826332092e-02
2.115055359899997711e-02
-2.264772951602935791e-01
-1.857865750789642334e-01
-4.390063136816024780e-02
6.010990217328071594e-02
4.102219268679618835e-02
1.363889276981353760e-01
6.453038007020950317e-02
-4.248954728245735168e-02
9.195359051227569580e-02
1.748432666063308716e-01
-9.909673035144805908e-02
5.829110369086265564e-02
4.514190927147865295e-02
5.808123946189880371e-02
4.631903767585754395e-02
2.449211776256561279e-01
1.738776266574859619e-01
2.806311249732971191e-01
1.408147066831588745e-01
-1.174671873450279236e-01
1.060505360364913940e-01
-8.074150234460830688e-02
-2.565108798444271088e-02
8.229502290487289429e-02
1.485184021294116974e-02
-7.715880870819091797e-02
6.067268177866935730e-02
2.142471447587013245e-02
3.612885996699333191e-02
-6.243558973073959351e-02
-8.247804641723632812e-02
9.450469166040420532e-02
6.708943843841552734e-02
-3.369608521461486816e-02
1.074582636356353760e-01
-2.640018425881862640e-02
-1.751351207494735718e-01
-2.103495411574840546e-02
-5.161054432392120361e-02
5.168734863400459290e-02
-9.863451123237609863e-02
1.523025929927825928e-01
8.026322722434997559e-02
3.172961995005607605e-02
1.727828681468963623e-01
1.468982398509979248e-01
-7.524602115154266357e-02
-8.405656367540359497e-02
-3.301324695348739624e-02
1.325578987598419189e-02
7.412602752447128296e-02
4.510258138179779053e-02
8.532083779573440552e-02
-6.405293196439743042e-02
-1.255365014076232910e-01
1.300457492470741272e-02
1.237145066261291504e-02
2.348484285175800323e-02
1.660538762807846069e-01
1.925344467163085938e-01
8.229658007621765137e-02
1.908444985747337341e-02
2.799845337867736816e-01
1.244413480162620544e-01
-1.352983415126800537e-01
-1.755924373865127563e-01
-1.967019140720367432e-01
7.187502086162567139e-02
1.973186731338500977e-01
3.283600211143493652e-01
-3.371606022119522095e-02
1.457290444523096085e-02
1.825745999813079834e-01
-2.095251902937889099e-02
6.287860218435525894e-03
-6.833122670650482178e-02
9.541474282741546631e-02
1.380950510501861572e-01
7.088636606931686401e-02
2.162934243679046631e-01
9.663812071084976196e-02
7.046295702457427979e-02
1.122206673026084900e-01
2.014498040080070496e-02
3.664479032158851624e-02
2.284519933164119720e-02
-1.714026033878326416e-01
-6.402423232793807983e-02
-5.989985167980194092e-02
-1.059957295656204224e-01
-1.124978959560394287e-01
1.509047858417034149e-02
9.482081979513168335e-02
1.825805753469467163e-02
7.140719797462224960e-03
-6.291069835424423218e-02
8.066954463720321655e-02
-1.671484112739562988e-01
-1.059694066643714905e-01
-4.557986184954643250e-02
1.461017131805419922e-01
2.178840525448322296e-02
-2.348690479993820190e-02
7.955803722143173218e-02
-1.983835548162460327e-02
-9.850508719682693481e-02
1.062395349144935608e-01
-1.724878251552581787e-01
-1.546830385923385620e-01
1.235713511705398560e-01
2.340213209390640259e-02
-5.062690936028957367e-03
1.790533959865570068e-01
-2.372504398226737976e-02
-1.757869571447372437e-01
-2.535745874047279358e-02
3.440020978450775146e-02
1.774253509938716888e-02
3.335709497332572937e-02
1.436775624752044678e-01
1.177831739187240601e-01
-1.144039556384086609e-01
-1.318314969539642334e-01
-5.683924257755279541e-02
2.273803353309631348e-01
4.273179173469543457e-02
-5.302057787775993347e-02
1.772858947515487671e-01
1.248891055583953857e-01
1.508040875196456909e-01
7.069674134254455566e-02
1.211328506469726562e-01
-2.047801017761230469e-01
1.394405961036682129e-01
1.176075562834739685e-01
8.033315837383270264e-02
-4.877479281276464462e-03
-2.917730621993541718e-02
-1.187740489840507507e-01
1.554436832666397095e-01
-6.081128492951393127e-02
-7.915155962109565735e-03
9.160115569829940796e-02
-8.325648307800292969e-02
-2.418402135372161865e-01
2.085124701261520386e-02
-2.166444361209869385e-01
-3.045842647552490234e-01
3.397671505808830261e-02
-1.789625175297260284e-02
-7.185563445091247559e-02
6.390475481748580933e-02
-1.361624617129564285e-02
-1.089425906538963318e-01
1.679913848638534546e-01
1.731904447078704834e-01
-7.181536406278610229e-02
-1.393846869468688965e-01
-1.250963099300861359e-02
-8.883458375930786133e-02
3.535178676247596741e-02
7.866776734590530396e-02
-1.526222471147775650e-02
6.749631464481353760e-02
-4.947080835700035095e-02
-1.068845912814140320e-01
3.390859579667448997e-03
9.542228281497955322e-02
5.224377661943435669e-02
4.393093660473823547e-02
-1.461699430365115404e-04
-8.977670967578887939e-02
-3.751545026898384094e-02
2.150281704962253571e-02
8.451325446367263794e-02
-7.403018325567245483e-02
-3.217630386352539062e-01
-8.935874700546264648e-02
-1.388159245252609253e-01
-2.796029746532440186e-01
-1.014941930770874023e-01
-6.848916411399841309e-02
4.950451850891113281e-02
-5.517656356096267700e-02
8.959379047155380249e-03
5.197544815018773079e-04
4.340533912181854248e-02
-1.001875251531600952e-01
-9.616055339574813843e-02
3.072500228881835938e-02
-1.723199035041034222e-03
-8.219735324382781982e-02
6.203237175941467285e-02
-4.989286884665489197e-02
9.710866212844848633e-02
8.292491734027862549e-02
1.846538670361042023e-02
2.095259875059127808e-01
1.106587350368499756e-01
-1.552112847566604614e-01
2.472578547894954681e-03
-1.196406334638595581e-01
-4.236365482211112976e-02
-1.826377026736736298e-02
-7.542403042316436768e-02
4.768404737114906311e-02
3.365554288029670715e-02
-3.431047871708869934e-02
2.136139757931232452e-02
5.884655565023422241e-02
4.958263412117958069e-02
1.089972853660583496e-01
-1.274706572294235229e-01
7.306969165802001953e-02
-7.843677699565887451e-02
-9.840610623359680176e-02
-1.217142939567565918e-01
1.421640068292617798e-01
8.848828822374343872e-02
-1.451018359512090683e-02
3.626155853271484375e-02
3.284348547458648682e-02
5.933658406138420105e-02
-9.506303817033767700e-02
-4.577820748090744019e-02
3.793891146779060364e-02
-8.430484682321548462e-02
1.238175928592681885e-01
-2.290223725140094757e-02
-5.655628815293312073e-02
7.170175760984420776e-02
-1.779775619506835938e-01
-1.952826827764511108e-01
-2.910167574882507324e-01
1.581380958668887615e-03
-9.869375079870223999e-02
-1.260336190462112427e-01
7.223253697156906128e-02
1.242664009332656860e-01
-2.819731645286083221e-02
-4.329779371619224548e-02
9.115359932184219360e-02
-8.331623673439025879e-02
-2.296096086502075195e-01
-2.961179940029978752e-03
3.692626953125000000e-02
-2.897769510746002197e-01
1.318507939577102661e-01
-1.740189045667648315e-01
8.082821033895015717e-03
1.884871572256088257e-01
-2.428030073642730713e-01
-2.229442596435546875e-01
1.323031187057495117e-01
4.821172356605529785e-02
-4.316295385360717773e-01
-1.278398465365171432e-02
-1.336557418107986450e-01
6.693491339683532715e-02
2.303245365619659424e-01
-3.556227311491966248e-02
-1.907315403223037720e-01
6.014094874262809753e-02
6.610063463449478149e-02
-9.421321563422679901e-03
7.159316539764404297e-02
7.983963936567306519e-02
1.403780728578567505e-01
-1.196963042020797729e-01
-1.328943073749542236e-01
2.245072275400161743e-01
2.001355169340968132e-03
-5.335330963134765625e-02
2.789472639560699463e-01
1.679706014692783356e-02
1.447416394948959351e-01
-6.433285027742385864e-02
-4.881633818149566650e-02
1.033010110259056091e-01
1.005626544356346130e-01
-1.515468508005142212e-01
5.385200306773185730e-02
2.968155220150947571e-02
-8.549879491329193115e-02
-1.258460879325866699e-01
-1.190828308463096619e-01
1.954069733619689941e-01
-2.546718716621398926e-01
-2.811204493045806885e-01
-7.508346438407897949e-02
-8.360780030488967896e-02
1.953376382589340210e-01
-4.717765748500823975e-02
6.902797520160675049e-02
1.139934062957763672e-01
-1.219295933842658997e-01
1.080586910247802734e-01
1.197367161512374878e-01
5.147114768624305725e-02
1.794438958168029785e-01
1.381569802761077881e-01
3.538468480110168457e-02
-3.290996253490447998e-01
7.549149543046951294e-02
1.358164697885513306e-01
-1.347319930791854858e-01
-2.021227180957794189e-01
1.407833397388458252e-01
-6.666556745767593384e-02
-4.367669671773910522e-02
-1.863356865942478180e-02
3.245244920253753662e-02
-4.185178503394126892e-02
-1.496698707342147827e-01
-2.396121807396411896e-02
1.379327774047851562e-01
-1.146519407629966736e-01
-8.631379902362823486e-02
5.333916097879409790e-02
2.036076188087463379e-01
3.603618219494819641e-02
6.440158933401107788e-02
-1.134251132607460022e-01
-2.483827918767929077e-01
-5.388311669230461121e-02
-5.501946061849594116e-02
-1.567577868700027466e-01
1.727745383977890015e-01
-5.235918238759040833e-02
-1.165776774287223816e-01
-7.166490703821182251e-02
1.045449599623680115e-01
-1.480836570262908936e-01
-1.642458289861679077e-01
1.789278835058212280e-01
4.677300900220870972e-02
-1.168189346790313721e-01
8.322681486606597900e-02
-2.155727706849575043e-02
-5.324561893939971924e-02
1.156961470842361450e-01
3.933366388082504272e-02
-9.975269436836242676e-02
5.949928238987922668e-02
-1.255904207937419415e-03
-1.290540844202041626e-01
1.396198868751525879e-01
4.512293636798858643e-02
4.666453693062067032e-03
2.079906314611434937e-01
1.694415509700775146e-01
-1.119436845183372498e-01
2.730866670608520508e-01
2.861464619636535645e-01
-1.283340007066726685e-01
6.140079721808433533e-02
-2.356709092855453491e-01
-2.060336759313941002e-03
1.641007363796234131e-01
1.256043277680873871e-02
-2.330132722854614258e-01
2.663367986679077148e-01
2.163276821374893188e-01
-2.195764333009719849e-01
-1.393925305455923080e-02
-8.200376294553279877e-03
8.200655132532119751e-02
9.616960771381855011e-03
1.674397476017475128e-02
7.832791656255722046e-02
2.547046355903148651e-02
-3.820786252617835999e-02
1.977536678314208984e-01
1.309133619070053101e-01
-1.182387694716453552e-01
3.038935177028179169e-02
3.906415030360221863e-02
-4.254280775785446167e-02
-1.105089038610458374e-01
9.862417727708816528e-02
-1.238652411848306656e-02
-1.953300535678863525e-01
-7.102622836828231812e-02
-4.666038975119590759e-02
5.957294628024101257e-02
-2.750523388385772705e-02
-1.043235976248979568e-02
1.244736649096012115e-02
-1.197853237390518188e-01
5.813127011060714722e-02
-1.174059659242630005e-01
1.182118505239486694e-01
2.986882254481315613e-02
1.171272248029708862e-01
5.053902417421340942e-02
-6.533353775739669800e-02
1.273127794265747070e-01
-6.843810528516769409e-02
-1.507759690284729004e-01
7.098051905632019043e-02
2.151246517896652222e-01
-1.543917506933212280e-01
1.145518496632575989e-01
1.464439183473587036e-01
-7.078103721141815186e-02
-1.965907663106918335e-01
1.257117390632629395e-01
1.996590197086334229e-01
-1.678862720727920532e-01
8.681512437760829926e-03
6.320486962795257568e-02
2.808225154876708984e-02
-1.478061638772487640e-02
5.055465921759605408e-02
5.245565995573997498e-02
-1.228826344013214111e-01
-1.365018635988235474e-01
7.050454616546630859e-02
-7.625726610422134399e-02
-2.777205407619476318e-01
2.156003005802631378e-02
-5.804294347763061523e-02
-2.058800756931304932e-01
-5.633345246315002441e-02
1.201417576521635056e-02
-5.483040213584899902e-02
-5.348622053861618042e-02
-2.323177754878997803e-01
-9.117413312196731567e-02
1.471202820539474487e-01
-2.132271528244018555e-01
-3.378530144691467285e-01
2.259860485792160034e-01
-1.384934931993484497e-01
-2.593614459037780762e-01
1.302220672369003296e-01
-4.147178679704666138e-02
-4.078676402568817139e-01
-3.941710293292999268e-02
5.008090659976005554e-02
-2.363777160644531250e-01
-3.070069253444671631e-01
-2.234265953302383423e-02
-2.610948979854583740e-01
-1.349465250968933105e-01
-6.451700627803802490e-02
-1.169839352369308472e-01
4.989497363567352295e-02
-8.859824389219284058e-02
3.320650383830070496e-02
1.442804336547851562e-01
-7.330387365072965622e-03
-7.429306209087371826e-02
-4.155517742037773132e-02
1.465884745121002197e-01
1.512699276208877563e-01
2.030194364488124847e-02
-1.071434561163187027e-02
-1.193232461810112000e-01
1.548166200518608093e-02
-2.326693572103977203e-02
-1.305799372494220734e-02
1.330883353948593140e-01
-6.939245760440826416e-02
-7.465223968029022217e-02
5.954219773411750793e-02
-1.714524030685424805e-01
-8.188401162624359131e-02
-1.574514806270599365e-01
8.692149072885513306e-02
-7.006528228521347046e-02
-4.644362628459930420e-02
3.764822706580162048e-02
4.040794074535369873e-02
-5.348031222820281982e-02
3.293761238455772400e-02
3.369846148416399956e-03
-4.812358319759368896e-02
2.117401957511901855e-01
3.247257322072982788e-02
-2.267053127288818359e-01
2.482458204030990601e-02
-2.688615918159484863e-01
-1.899398677051067352e-02
8.575300127267837524e-02
-1.170401647686958313e-01
-1.292271018028259277e-01
5.980667844414710999e-02
1.166437417268753052e-01
-5.669214576482772827e-02
5.093686748296022415e-03
-7.103071548044681549e-03
1.718662865459918976e-02
5.982526112347841263e-03
-4.658113047480583191e-02
6.126292049884796143e-02
-4.313727840781211853e-02
1.600018818862736225e-03
6.137156486511230469e-02
2.418220508843660355e-03
-2.159013748168945312e-01
-2.740517072379589081e-02
9.188403189182281494e-02
-3.839628398418426514e-01
-1.800976544618606567e-01
-7.397149689495563507e-03
-4.308650270104408264e-02
-5.865415930747985840e-02
-1.816631555557250977e-01
-3.810008987784385681e-02
-1.721176356077194214e-01
1.713107526302337646e-01
1.521867960691452026e-01
-1.077959034591913223e-02
7.989493012428283691e-02
1.423268020153045654e-01
-1.317270547151565552e-01
9.392589330673217773e-02
-9.735383838415145874e-02
1.054353788495063782e-01
-4.823364317417144775e-02
-9.406059980392456055e-02
-8.545075356960296631e-02
-2.286149412393569946e-01
-4.607080668210983276e-02
-8.055679500102996826e-02
4.166180267930030823e-02
3.970158845186233521e-02
3.275129944086074829e-02
-7.762853056192398071e-02
-1.151354089379310608e-01
5.520908744074404240e-04
1.534361690282821655e-01
3.053859807550907135e-03
-1.323943585157394409e-01
-2.689172513782978058e-02
-1.823186576366424561e-01
-7.658324390649795532e-02
-1.953263431787490845e-01
-3.601668775081634521e-01
-6.494625657796859741e-02
-4.567534849047660828e-02
-1.445902436971664429e-01
-7.046708464622497559e-02
-7.382199168205261230e-03
-4.634127020835876465e-02
3.539117053151130676e-02
1.014443710446357727e-01
-6.462983042001724243e-02
4.483093321323394775e-02
2.634876035153865814e-02
7.723984867334365845e-02
3.898640722036361694e-02
1.473724842071533203e-01
-8.419889211654663086e-02
-1.057170331478118896e-01
-8.468109369277954102e-02
-2.057634741067886353e-01
-2.115653306245803833e-01
-1.196438595652580261e-01
-1.183095127344131470e-01
-8.463932201266288757e-03
7.363510876893997192e-02
4.080002754926681519e-02
-8.011180162429809570e-02
1.797414384782314301e-02
1.418931689113378525e-02
-3.128023445606231689e-01
5.814981460571289062e-02
-8.294174075126647949e-02
-3.092663288116455078e-01
-1.364436596632003784e-01
2.914758864790201187e-03
1.282943189144134521e-01
1.947459429502487183e-01
8.278037607669830322e-02
-2.276020944118499756e-01
1.148409843444824219e-01
-1.105904765427112579e-02
-3.620209172368049622e-02
2.302434891462326050e-01
3.137704357504844666e-02
8.663135766983032227e-02
3.286726474761962891e-01
1.920411735773086548e-01
1.481004059314727783e-01
1.585116051137447357e-02
-3.071247413754463196e-02
-1.062273383140563965e-01
-1.360967010259628296e-01
7.430861145257949829e-02
1.992879509925842285e-01
3.995793685317039490e-02
-8.486215025186538696e-02
2.370186448097229004e-01
1.429487168788909912e-01
-5.575472861528396606e-02
-6.680086255073547363e-02
1.092528998851776123e-01
-4.802349954843521118e-02
-4.166195169091224670e-02
2.303961217403411865e-01
1.139977276325225830e-01
-8.505283296108245850e-02
1.012875661253929138e-01
-6.540331989526748657e-02
-1.097408458590507507e-01
3.682968020439147949e-02
-8.137200772762298584e-02
6.329116970300674438e-02
-2.262694761157035828e-03
-1.118601709604263306e-01
-4.029969125986099243e-02
2.170991301536560059e-01
1.013821661472320557e-01
-6.859941780567169189e-02
-1.698106676340103149e-01
-1.042031310498714447e-02
-1.835581809282302856e-01
-2.233609557151794434e-01
-3.665332123637199402e-02
-2.281019240617752075e-01
7.680176943540573120e-02
5.570984631776809692e-02
-4.289874061942100525e-02
-6.968617439270019531e-03
1.157711893320083618e-01
-9.101805835962295532e-02
-4.656772315502166748e-02
-1.864268332719802856e-01
-2.057436257600784302e-01
5.330272391438484192e-02
-2.047688663005828857e-01
-1.456591039896011353e-01
1.420920044183731079e-01
5.890810489654541016e-02
-1.517156977206468582e-02
-6.617227941751480103e-02
2.191196754574775696e-02
-1.164600327610969543e-01
1.213732641190290451e-02
-1.588480621576309204e-01
-5.754487961530685425e-02
6.702607870101928711e-02
-9.263132512569427490e-02
-2.629069685935974121e-01
-1.643751114606857300e-01
1.020004227757453918e-02
-1.186693608760833740e-01
5.233479663729667664e-02
-7.387915253639221191e-02
4.899243637919425964e-02
1.813620887696743011e-02
3.646036610007286072e-02
1.763314306735992432e-01
-1.143187060952186584e-01
-3.263757005333900452e-02
-4.947689920663833618e-02
6.974955555051565170e-03
9.694543480873107910e-02
2.936755679547786713e-02
-2.090200548991560936e-03
-1.472048014402389526e-01
-1.185601502656936646e-01
8.957123383879661560e-03
-1.040100902318954468e-01
-4.087413102388381958e-02
-3.997572138905525208e-02
8.643591403961181641e-02
1.152721121907234192e-01
2.333243191242218018e-02
-1.690733432769775391e-02
-1.761424988508224487e-01
2.648805975914001465e-01
6.944551318883895874e-02
-1.994009912014007568e-01
1.085132360458374023e-02
-1.478031873703002930e-01
-1.976966112852096558e-01
-8.344218134880065918e-02
-6.425011157989501953e-02
-5.554995685815811157e-02
-7.951279729604721069e-02
-3.397401273250579834e-01
2.905144589021801949e-03
-5.169879272580146790e-02
-2.758227521553635597e-03
3.714949637651443481e-02
-3.556564822793006897e-02
-7.879923284053802490e-02
-5.606288835406303406e-02
4.001201316714286804e-02
-5.320856720209121704e-02
1.747267693281173706e-02
-4.856294486671686172e-03
1.480933725833892822e-01
1.502666324377059937e-01
7.061641663312911987e-02
-1.807079613208770752e-01
-1.666209548711776733e-01
2.039532512426376343e-01
1.680425107479095459e-01
-2.520579397678375244e-01
2.218211889266967773e-01
1.770176291465759277e-01
1.149005815386772156e-01
1.608387529850006104e-01
7.090479601174592972e-03
1.440417319536209106e-01
1.017948836088180542e-01
6.565141677856445312e-02
1.642750948667526245e-01
-1.011787429451942444e-01
4.416181147098541260e-02
1.122723147273063660e-01
1.327532678842544556e-01
2.360481917858123779e-01
1.836494207382202148e-01
-5.252985865809023380e-04
-2.457107007503509521e-01
5.773990880697965622e-03
2.169225662946701050e-01
-7.647921890020370483e-02
-9.956299513578414917e-02
-1.224188730120658875e-01
-1.199580822139978409e-02
-1.298888027667999268e-02
-8.570828288793563843e-02
-5.800309777259826660e-02
6.983330845832824707e-02
-2.360904216766357422e-02
9.580960869789123535e-02
9.224530309438705444e-03
1.174152866005897522e-01
-4.219860583543777466e-02
2.394083701074123383e-02
-1.121766045689582825e-01
-4.175417125225067139e-02
1.117694452404975891e-01
-1.814093589782714844e-01
-4.548358544707298279e-02
9.376750141382217407e-02
4.858767241239547729e-02
-6.066440418362617493e-02
-4.982344061136245728e-02
1.313525587320327759e-01
-4.548283666372299194e-02
-2.902342677116394043e-01
1.216503530740737915e-01
1.309894770383834839e-01
-4.812642559409141541e-02
-3.207641839981079102e-02
-2.078542858362197876e-01
-5.289756506681442261e-02
-2.531560696661472321e-02
-1.103273183107376099e-01
-5.485466215759515762e-03
-8.403131365776062012e-02
-6.974267214536666870e-02
1.173697318881750107e-02
-1.267569418996572495e-02
4.321170598268508911e-02
-7.644556462764739990e-02
-9.843519330024719238e-02
-1.358117610216140747e-01
-1.690966486930847168e-01
-9.885578602552413940e-02
-7.800179719924926758e-02
-8.093126863241195679e-02
-5.919982120394706726e-02
-2.241193652153015137e-01
-5.033156648278236389e-02
-1.211276929825544357e-02
1.092800777405500412e-02
-4.180204868316650391e-02
2.619219198822975159e-02
1.107265129685401917e-01
1.431446224451065063e-01
-1.086323931813240051e-01
-9.000235795974731445e-02
-7.599436491727828979e-02
-1.893131528049707413e-03
4.892620816826820374e-02
1.428091228008270264e-01
-5.360436160117387772e-03
1.472322791814804077e-01
2.050117701292037964e-01
8.616399765014648438e-02
1.512713134288787842e-01
8.957886695861816406e-02
-2.049644244834780693e-03
-1.283553391695022583e-01
-2.367905825376510620e-01
1.270399428904056549e-02
6.053622812032699585e-02
-3.748201578855514526e-02
-6.002475321292877197e-02
2.323550172150135040e-03
4.087186604738235474e-02
3.507683053612709045e-02
4.865597188472747803e-02
-9.273435920476913452e-02
1.097921095788478851e-02
1.707713492214679718e-02
5.782158300280570984e-02
3.479627519845962524e-02
1.546957790851593018e-01
1.848885603249073029e-02
9.774536639451980591e-02
7.975815236568450928e-02
-1.822227425873279572e-02
7.517600804567337036e-02
1.714235693216323853e-01
7.896109670400619507e-02
-1.088206470012664795e-02
-1.735135763883590698e-01
4.650720208883285522e-02
-2.665330842137336731e-02
-1.657184213399887085e-01
-2.110174670815467834e-02
7.460840046405792236e-02
-3.836025670170783997e-02
1.225491538643836975e-01
-1.294524967670440674e-02
-1.282668560743331909e-01
-7.461880147457122803e-02
5.286690220236778259e-02
-3.697958588600158691e-01
-5.183081328868865967e-02
4.179653152823448181e-02
-1.271750479936599731e-01
3.457483649253845215e-02
-7.443802058696746826e-02
-8.736602030694484711e-03
3.030486106872558594e-01
-1.407706588506698608e-01
-5.801992863416671753e-02
1.811714917421340942e-01
-1.429574042558670044e-01
-2.287540286779403687e-01
-4.558297246694564819e-02
5.634079873561859131e-02
-6.765206158161163330e-02
1.377079188823699951e-01
-6.891202926635742188e-02
-1.056612282991409302e-01
8.295825868844985962e-02
-3.731157630681991577e-02
-6.014475971460342407e-02
-6.701609492301940918e-02
7.514682412147521973e-02
-8.232235908508300781e-02
-9.257209300994873047e-02
3.425360471010208130e-02
5.926383286714553833e-02
-1.513444483280181885e-01
4.202307760715484619e-02
9.646324068307876587e-02
2.767269685864448547e-02
8.837150037288665771e-02
-1.370046585798263550e-01
-1.628820151090621948e-01
-4.216428473591804504e-02
2.291884273290634155e-02
-1.687088161706924438e-01
1.510343849658966064e-01
2.789841964840888977e-02
1.614121645689010620e-01
-2.878633514046669006e-02
1.587676852941513062e-01
1.574700027704238892e-01
7.958506792783737183e-02
-5.319341644644737244e-02
1.841681748628616333e-01
3.482041880488395691e-02
1.737449131906032562e-02
-1.054161116480827332e-01
-5.688853561878204346e-02
-2.065973430871963501e-01
1.099814772605895996e-01
-7.249578088521957397e-02
-2.523786425590515137e-01
-1.321315467357635498e-01
1.207321509718894958e-01
-6.700168550014495850e-02
1.121749207377433777e-01
6.879323720932006836e-02
6.463960558176040649e-02
-5.183284729719161987e-02
-1.113987714052200317e-01
-1.336360163986682892e-02
2.006630972027778625e-02
-4.534113407135009766e-02
-7.094121724367141724e-02
7.458114624023437500e-02
5.275535210967063904e-02
-1.427174955606460571e-01
-1.630006730556488037e-01
3.789990767836570740e-02
9.125763922929763794e-02
-6.757495552301406860e-02
6.724824011325836182e-02
1.111763492226600647e-01
-2.738152630627155304e-02
5.467202886939048767e-02
1.099571026861667633e-02
-1.224085167050361633e-01
-5.162563174962997437e-02
-7.087235152721405029e-02
-9.733600914478302002e-02
6.907057762145996094e-02
-5.905142519623041153e-03
1.400587558746337891e-01
9.358231723308563232e-02
-1.712866425514221191e-01
-1.046304628252983093e-01
6.480485945940017700e-02
-8.823117613792419434e-02
-1.405645757913589478e-01
2.510193586349487305e-01
1.531093567609786987e-01
-1.276036351919174194e-01
-1.722468286752700806e-01
4.646290838718414307e-02
9.861699491739273071e-02
-8.130025863647460938e-02
8.133281022310256958e-02
5.379460752010345459e-02
-8.719409257173538208e-02
9.362180531024932861e-02
1.863721907138824463e-01
-3.840937092900276184e-02
-6.105104833841323853e-02
-6.682959198951721191e-02
-1.699827760457992554e-01
-2.821924164891242981e-03
-1.353846639394760132e-01
-7.283993065357208252e-03
1.108230575919151306e-01
-1.224048882722854614e-01
1.514347344636917114e-01
3.418605774641036987e-02
-4.443515837192535400e-02
1.190686449408531189e-01
4.586374014616012573e-02
4.688147455453872681e-02
2.472410723567008972e-02
3.168651834130287170e-02
-5.303220450878143311e-02
3.822404146194458008e-02
7.591950148344039917e-02
2.071668766438961029e-02
-4.377329349517822266e-02
-5.817030370235443115e-02
1.181735247373580933e-01
-9.511988610029220581e-02
-3.101745434105396271e-02
1.284296363592147827e-01
2.437102794647216797e-02
-1.451372951269149780e-01
3.111536055803298950e-02
-3.449959307909011841e-02
-2.200504839420318604e-01
-2.966063022613525391e-01
3.612552210688591003e-02
-1.571920141577720642e-02
-2.462439835071563721e-01
1.213078051805496216e-01
-1.673576422035694122e-02
1.143648922443389893e-01
5.451854318380355835e-02
-5.255139991641044617e-02
-7.224107533693313599e-02
3.519215434789657593e-02
-6.848638504743576050e-02
-7.683479040861129761e-02
-1.214436814188957214e-01
1.267368644475936890e-01
2.364777624607086182e-01
-1.970404088497161865e-01
-6.913191825151443481e-02
1.413152217864990234e-01
-2.351652681827545166e-01
-1.222698166966438293e-01
-6.312624551355838776e-03
1.586608886718750000e-01
2.082449048757553101e-01
-1.087609454989433289e-01
-4.320397600531578064e-02
7.535295933485031128e-02
-9.706581383943557739e-02
1.204124838113784790e-02
5.512209236621856689e-02
1.010813340544700623e-01
7.597959041595458984e-02
4.736563935875892639e-02
1.378307789564132690e-01
-8.957665413618087769e-02
6.221053004264831543e-02
8.674573153257369995e-02
2.823197096586227417e-02
2.897392399609088898e-02
2.415640503168106079e-01
-6.590601056814193726e-02
-3.144923746585845947e-01
-1.823907196521759033e-01
1.529505103826522827e-01
-2.260207086801528931e-01
-1.745784282684326172e-01
1.744962185621261597e-01
7.442820072174072266e-02
-1.338394582271575928e-01
8.367154002189636230e-02
1.589087396860122681e-02
-7.689037173986434937e-02
-8.941964246332645416e-03
-9.364208579063415527e-02
-1.055435910820960999e-01
2.074164105579257011e-03
-8.723140507936477661e-02
1.601326614618301392e-01
7.991003990173339844e-02
-7.900226861238479614e-02
-6.230316311120986938e-02
1.279769688844680786e-01
-4.774434864521026611e-02
1.676949858665466309e-01
1.478829830884933472e-01
-1.307945698499679565e-01
2.130616689100861549e-03
-5.400123447179794312e-02
-1.786243170499801636e-02
-1.687203645706176758e-01
9.002964198589324951e-02
1.491783857345581055e-01
-2.188965678215026855e-01
2.108006924390792847e-02
1.097637340426445007e-01
1.000569388270378113e-01
-1.615313440561294556e-02
-7.151364698074758053e-04
2.885576896369457245e-02
-1.407526135444641113e-01
-1.323109418153762817e-01
-4.187086597084999084e-02
-7.653049658983945847e-03
-9.223075956106185913e-02
8.496264368295669556e-02
3.508212044835090637e-02
-2.436781376600265503e-01
-5.994721129536628723e-02
4.869037494063377380e-02
-2.319224178791046143e-01
6.536933779716491699e-02
3.485250845551490784e-02
-7.437743246555328369e-02
3.153522685170173645e-02
3.170441463589668274e-02
-1.639015674591064453e-01
8.590485155582427979e-02
-1.329346597194671631e-01
-1.508124023675918579e-01
1.026090979576110840e-01
-7.871814817190170288e-02
-2.410543262958526611e-01
-7.269032299518585205e-02
-3.503119200468063354e-02
2.596575394272804260e-02
2.939190566539764404e-01
-1.974197626113891602e-01
-9.577146172523498535e-02
1.453927606344223022e-01
-1.490022987127304077e-01
-1.308378428220748901e-01
1.139679625630378723e-01
-8.094068616628646851e-03
3.493676334619522095e-02
-1.777334511280059814e-01
4.631472378969192505e-02
1.021212898194789886e-03
-1.716924458742141724e-01
1.006254181265830994e-01
-2.563025802373886108e-03
7.861769199371337891e-02
9.685568511486053467e-03
-1.033633889164775610e-04
1.110637113451957703e-01
-1.062874868512153625e-01
9.026763588190078735e-02
1.712475866079330444e-01
-7.690218091011047363e-02
-5.606976523995399475e-02
6.223263218998908997e-02
1.538045406341552734e-01
4.990631714463233948e-02
4.459201171994209290e-02
2.170528173446655273e-01
2.787495255470275879e-01
1.028156206011772156e-01
1.889535188674926758e-01
2.035251706838607788e-01
-6.026975437998771667e-02
-8.097803592681884766e-02
-7.779893279075622559e-02
1.566884368658065796e-01
-7.086005806922912598e-02
6.182961165904998779e-02
1.659755259752273560e-01
-6.532460451126098633e-03
-8.275520987808704376e-03
8.831838518381118774e-02
-2.938913367688655853e-02
-6.620545685291290283e-02
-3.055679239332675934e-02
-3.228675127029418945e-01
-2.075875997543334961e-01
1.057107560336589813e-02
-1.279470622539520264e-01
6.951387226581573486e-02
5.706812441349029541e-02
-5.799654871225357056e-02
-1.424942165613174438e-01
2.347289584577083588e-02
-3.398292139172554016e-02
-1.419969499111175537e-01
-1.696225851774215698e-01
-2.892350777983665466e-02
-8.440064638853073120e-02
-3.405434191226959229e-01
-2.841934934258460999e-02
3.714772686362266541e-02
2.092059254646301270e-01
1.050795465707778931e-01
1.109155714511871338e-01
1.433087885379791260e-01
1.472269743680953979e-01
8.814607560634613037e-02
-7.837738841772079468e-02
-1.022610142827033997e-01
-6.551451236009597778e-02
7.517790794372558594e-02
5.561045929789543152e-02
1.070235157385468483e-03
-1.256953924894332886e-01
-1.642661727964878082e-02
-3.995865210890769958e-02
2.727162279188632965e-02
8.621998876333236694e-02
-8.822144567966461182e-02
-1.475601196289062500e-01
2.808392420411109924e-02
-1.509856879711151123e-01
-1.381807923316955566e-01
-6.190309766680002213e-03
-3.283634781837463379e-02
-1.272489130496978760e-01
-1.960943080484867096e-02
-3.134819865226745605e-02
-6.161276251077651978e-02
-1.655608564615249634e-01
-1.019401475787162781e-01
-7.808474358171224594e-03
3.164850920438766479e-02
1.303395628929138184e-01
-8.646796643733978271e-02
2.578638028353452682e-03
1.581631898880004883e-01
2.866378054022789001e-02
-1.100469846278429031e-02
2.397196143865585327e-01
8.847657591104507446e-02
4.201915115118026733e-02
8.601315319538116455e-02
5.731437355279922485e-02
-1.444687396287918091e-01
-1.332775503396987915e-01
-2.282237857580184937e-01
3.232930321246385574e-03
-7.774952799081802368e-02
-2.109704166650772095e-01
-2.241704985499382019e-02
-8.327951282262802124e-02
-1.318847835063934326e-01
8.989410102367401123e-02
8.857055008411407471e-02
1.926465034484863281e-01
7.865150272846221924e-02
3.417999446392059326e-01
5.682661011815071106e-02
2.711400687694549561e-01
1.507496237754821777e-01
9.355635941028594971e-02
1.258137673139572144e-01
8.976057916879653931e-02
1.683700531721115112e-01
1.588754653930664062e-01
2.011377662420272827e-01
-1.255739014595746994e-02
-3.534938674420118332e-03
1.084384135901927948e-02
-1.941220015287399292e-01
-7.804128527641296387e-02
4.063513875007629395e-02
-1.739115715026855469e-01
-1.184989139437675476e-01
-1.057799905538558960e-01
9.871271997690200806e-02
-1.708462983369827271e-01
8.402732759714126587e-02
-3.616282250732183456e-03
1.345089972019195557e-01
-5.884571373462677002e-02
-5.478363484144210815e-02
-3.600892424583435059e-02
-1.052561178803443909e-01
-5.954760592430830002e-03
-8.273342996835708618e-02
-1.273790746927261353e-01
-8.741500228643417358e-02
1.597127914428710938e-01
6.455644220113754272e-02
3.146913647651672363e-02
1.258040517568588257e-01
-8.053755387663841248e-03
-3.360646590590476990e-02
-5.145246163010597229e-02
-3.112970292568206787e-01
-1.534359008073806763e-01
6.352321058511734009e-02
2.760812640190124512e-02
-5.233963206410408020e-02
3.347956389188766479e-02
-3.612827137112617493e-02
3.844358399510383606e-02
1.782680153846740723e-01
1.128979958593845367e-02
1.408151239156723022e-01
3.528546169400215149e-02
-2.374897897243499756e-02
-1.138978451490402222e-01
-1.287598460912704468e-01
-4.664248973131179810e-02
-7.781471312046051025e-02
-6.053941324353218079e-02
6.405971199274063110e-02
5.593026988208293915e-03
-2.215742319822311401e-01
-1.615095883607864380e-01
2.714146394282579422e-03
-7.774817198514938354e-02
-1.157012283802032471e-01
-1.128063350915908813e-02
-6.282076984643936157e-02
4.180222377181053162e-02
7.433404214680194855e-03
-3.732653707265853882e-02
-1.046190224587917328e-02
-5.156226456165313721e-02
-3.382044285535812378e-02
-1.748797595500946045e-01
1.785846054553985596e-01
-9.959013015031814575e-02
7.088200747966766357e-02
1.570397615432739258e-01
-2.034386433660984039e-02
-1.167986467480659485e-01
-2.381042204797267914e-02
-1.270447373390197754e-01
-4.454303532838821411e-02
-1.026446148753166199e-01
-4.553786292672157288e-02
-2.147055417299270630e-02
-1.350552290678024292e-01
8.854277431964874268e-03
9.883598983287811279e-02
2.549649775028228760e-02
9.130827337503433228e-02
7.056295871734619141e-02
3.160598501563072205e-02
1.206268221139907837e-01
4.570219293236732483e-02
4.897188860923051834e-03
1.331256031990051270e-01
-1.098654512315988541e-02
8.328324183821678162e-03
-3.487576916813850403e-02
1.186389699578285217e-01
1.993765980005264282e-01
-1.190568953752517700e-01
2.912685507908463478e-03
6.711629033088684082e-02
-1.025592070072889328e-02
1.114565357565879822e-01
-9.049687534570693970e-03
-7.360501214861869812e-03
6.066128239035606384e-02
-9.222841821610927582e-03
-1.195668354630470276e-01
-6.214111298322677612e-02
-4.244840529281646013e-04
1.245692595839500427e-01
6.188151985406875610e-02
2.906175144016742706e-02
1.812416128814220428e-03
1.350109130144119263e-01
1.550261080265045166e-01
9.917807579040527344e-02
1.975763402879238129e-02
-3.028720989823341370e-02
-1.290192827582359314e-02
-5.266554653644561768e-02
-1.589090228080749512e-01
-1.930169574916362762e-02
-1.136962547898292542e-01
-3.409659862518310547e-02
2.145650796592235565e-02
5.064324662089347839e-02
4.576152190566062927e-02
-6.289840489625930786e-02
-4.680866748094558716e-02
7.809458673000335693e-02
6.992579251527786255e-02
6.646926701068878174e-02
3.659216687083244324e-02
3.572885319590568542e-02
1.561348736286163330e-01
-4.223634675145149231e-02
-3.826613351702690125e-02
-9.063272178173065186e-02
7.121481746435165405e-02
-2.304774969816207886e-01
-4.222558066248893738e-02
1.392310298979282379e-02
3.659031540155410767e-02
2.242781594395637512e-02
-5.257569253444671631e-02
-3.604499250650405884e-02
-2.918891794979572296e-02
-5.531186610460281372e-02
-9.304913133382797241e-02
-1.170067340135574341e-01
-4.011422023177146912e-02
-9.963014721870422363e-02
5.587217584252357483e-02
1.702714711427688599e-01
9.283556044101715088e-02
-2.503664232790470123e-02
6.806023418903350830e-02
1.079033687710762024e-01
4.831617325544357300e-02
-1.336722522974014282e-01
-7.819516211748123169e-02
-2.303922623395919800e-01
-1.043789386749267578e-01
3.531360626220703125e-02
4.301455337554216385e-03
-1.077041253447532654e-01
-5.839064344763755798e-02
-9.045649319887161255e-02
-5.578957498073577881e-02
-2.194782197475433350e-01
-1.532630771398544312e-01
3.922873293049633503e-04
-2.545688766986131668e-03
8.950714021921157837e-03
2.109047174453735352e-01
7.725208252668380737e-02
1.466778367757797241e-01
1.184000745415687561e-01
1.321308165788650513e-01
1.084981858730316162e-01
-9.319091588258743286e-02
-3.500845655798912048e-02
-1.610931605100631714e-01
-2.945505678653717041e-01
-1.598814427852630615e-01
-1.148126274347305298e-01
-1.191053539514541626e-01
-1.441729664802551270e-01
-8.148821070790290833e-03
-4.333350434899330139e-02
-6.469719856977462769e-02
2.218032628297805786e-02
-2.057143114507198334e-02
-2.789461286738514900e-03
3.543815575540065765e-03
-4.484519734978675842e-02
-1.427554525434970856e-02
1.695620417594909668e-01
2.543946169316768646e-02
-2.478215470910072327e-02
1.124743372201919556e-01
-1.990735828876495361e-01
1.567990928888320923e-01
1.006539911031723022e-01
-7.833614200353622437e-02
4.113438725471496582e-02
2.506937384605407715e-01
-8.960883319377899170e-02
4.055300354957580566e-02
8.569591492414474487e-02
-4.818966612219810486e-02
1.268949657678604126e-01
-8.010437712073326111e-03
5.184445530176162720e-02
5.685790628194808960e-02
-3.083049133419990540e-02
-8.672858029603958130e-02
-9.837615489959716797e-02
-3.200167715549468994e-01
-2.669010758399963379e-01
-1.405762284994125366e-01
-2.628289163112640381e-01
-6.814576685428619385e-02
1.326770931482315063e-01
2.224808931350708008e-01
2.229883819818496704e-01
-1.499960273504257202e-01
-2.418270893394947052e-02
-6.772843003273010254e-02
-9.294585883617401123e-02
7.143639028072357178e-02
-4.606074467301368713e-02
2.543983161449432373e-01
1.707396507263183594e-01
2.227431386709213257e-01
8.949973434209823608e-02
6.778846681118011475e-02
2.057143673300743103e-02
6.722821295261383057e-02
9.710462391376495361e-02
-1.372832059860229492e-01
-7.169714570045471191e-02
-5.991623178124427795e-02
-3.395590782165527344e-01
3.026347048580646515e-02
-7.067659497261047363e-02
-4.620807990431785583e-02
-9.946160949766635895e-03
-1.948401331901550293e-01
-3.481949865818023682e-02
-4.966403543949127197e-02
-1.654863730072975159e-02
-9.245137870311737061e-02
2.839795872569084167e-02
-3.688254952430725098e-02
-8.887039124965667725e-02
4.298738390207290649e-02
8.557450026273727417e-02
-5.915216356515884399e-02
1.635720022022724152e-02
1.004275679588317871e-01
1.907706446945667267e-02
9.941034018993377686e-03
-6.764830648899078369e-02
-6.525880098342895508e-02
-2.316986769437789917e-02
4.288170859217643738e-02
4.323564469814300537e-02
-1.269403398036956787e-01
7.669541984796524048e-02
1.533011645078659058e-01
-1.236925497651100159e-01
-9.952562302350997925e-02
-7.853092253208160400e-02
-1.434829831123352051e-01
-1.529282182455062866e-01
-2.539621293544769287e-01
-1.082048192620277405e-01
6.884875148534774780e-02
-4.634154215455055237e-02
2.511944063007831573e-02
8.360090851783752441e-02
-3.383246809244155884e-02
6.154052540659904480e-02
6.385381519794464111e-02
-1.250686049461364746e-01
5.715231597423553467e-02
6.902699917554855347e-02
1.090532541275024414e-01
-6.174505501985549927e-02
-5.742533504962921143e-02
-1.687376573681831360e-02
-3.167219087481498718e-02
2.004087530076503754e-02
-9.644406288862228394e-02
-2.941381558775901794e-02
1.248374804854393005e-01
-2.263194695115089417e-02
1.093204990029335022e-01
6.686255335807800293e-02
-1.387944370508193970e-01
2.513957209885120392e-02
-7.080205529928207397e-02
-1.177433878183364868e-01
-1.972504146397113800e-02
-4.993595555424690247e-02
-1.176682673394680023e-02
-2.993044443428516388e-02
-7.231908291578292847e-02
-1.135921943932771683e-02
1.150613203644752502e-01
4.002571105957031250e-02
1.243928521871566772e-01
1.265356540679931641e-01
-2.084792032837867737e-02
-1.852058991789817810e-02
1.133746430277824402e-01
1.735865883529186249e-02
-4.034941270947456360e-02
5.783269926905632019e-02
-6.764238327741622925e-02
2.376313321292400360e-02
2.104574292898178101e-01
-3.797609731554985046e-02
-8.531142026185989380e-02
-5.034180730581283569e-02
4.271383211016654968e-02
1.448592096567153931e-01
-5.378503724932670593e-02
-3.418127307668328285e-03
1.606015430297702551e-04
2.207816764712333679e-02
-7.979620248079299927e-03
6.662173569202423096e-02
-4.519770853221416473e-03
-9.027344733476638794e-02
1.642748564481735229e-01
1.124997064471244812e-01
-1.146471593528985977e-02
5.718901008367538452e-02
-3.105785138905048370e-02
5.325409770011901855e-02
-1.062231417745351791e-02
1.007331013679504395e-01
8.967308700084686279e-02
-1.801223456859588623e-01
7.517716288566589355e-02
-6.354448199272155762e-02
-1.584770977497100830e-01
9.288670867681503296e-02
1.364052575081586838e-02
-9.549091756343841553e-02
7.396342605352401733e-02
2.111212164163589478e-01
2.158866971731185913e-01
1.081646680831909180e-01
1.644228100776672363e-01
2.208672836422920227e-02
-1.750955730676651001e-01
-9.295316040515899658e-02
