5.205046758055686951e-02
-7.388000935316085815e-02
1.807620674371719360e-01
-6.089683249592781067e-02
-1.369048804044723511e-01
2.363259643316268921e-01
-9.028338640928268433e-02
-1.008881404995918274e-01
-1.973014771938323975e-01
9.356668591499328613e-02
9.332692623138427734e-02
2.658581547439098358e-02
-1.243859454989433289e-01
7.255484163761138916e-02
1.055189743638038635e-01
2.165295481681823730e-01
1.441019475460052490e-01
-1.931760460138320923e-01
-3.124774619936943054e-02
-2.745193056762218475e-02
1.323077529668807983e-01
1.189936473965644836e-01
-2.638167701661586761e-02
-2.256729602813720703e-01
-1.050762906670570374e-01
-9.354646503925323486e-02
-4.065442085266113281e-02
-9.378232061862945557e-02
-1.025746017694473267e-02
1.004612147808074951e-01
-1.485647261142730713e-01
1.865334808826446533e-01
2.083197385072708130e-01
1.168571785092353821e-01
-8.435688912868499756e-02
-2.973915934562683105e-01
1.086964184651151299e-04
2.027799040079116821e-01
1.861447393894195557e-01
1.619271785020828247e-01
3.125269338488578796e-02
2.010142803192138672e-01
-8.193352818489074707e-02
-7.655248045921325684e-02
-7.643680274486541748e-02
-2.260231226682662964e-02
-1.458535343408584595e-01
8.296176791191101074e-02
-7.734417915344238281e-02
4.672997072339057922e-02
1.864671707153320312e-01
-3.846515715122222900e-02
7.160450518131256104e-02
1.283316314220428467e-01
1.292636268772184849e-03
7.102601230144500732e-02
7.174855470657348633e-02
-5.354462936520576477e-02
1.986145228147506714e-01
4.840002860873937607e-03
-5.626203864812850952e-02
-1.253740936517715454e-01
9.701107442378997803e-02
6.601759791374206543e-02
