-1.717647761106491089e-01
-1.709164381027221680e-01
-1.453266888856887817e-01
2.195170223712921143e-01
-1.388890892267227173e-01
-3.227748274803161621e-01
1.500150114297866821e-01
1.374754160642623901e-01
1.886303722858428955e-01
-6.918162852525711060e-02
-1.270048320293426514e-01
1.368652135133743286e-01
3.014181852340698242e-01
-1.190713718533515930e-01
-2.064979076385498047e-01
1.100516244769096375e-01
3.721130192279815674e-01
2.723786234855651855e-01
-1.878708899021148682e-01
-3.172064423561096191e-01
-4.880879074335098267e-02
9.975840151309967041e-02
-7.089583668857812881e-03
-3.276442289352416992e-01
1.254827827215194702e-01
2.634479701519012451e-01
-4.426398128271102905e-02
3.806491494178771973e-01
-1.445323675870895386e-01
-1.587627977132797241e-01
-2.378268092870712280e-01
-3.465161025524139404e-01
6.203591823577880859e-02
-8.647781610488891602e-02
3.158303499221801758e-01
1.400503367185592651e-01
2.184549421072006226e-01
-1.731266384012997150e-03
-1.175804734230041504e-01
8.475995063781738281e-02
-3.677525520324707031e-01
2.309131473302841187e-01
-6.800252944231033325e-02
7.041759043931961060e-02
2.505316734313964844e-01
1.269135624170303345e-01
-2.036088109016418457e-01
6.041559204459190369e-02
-1.914287358522415161e-01
-2.414343506097793579e-01
1.059490516781806946e-01
-1.203746944665908813e-01
3.067192733287811279e-01
-3.580809384584426880e-02
-3.793640732765197754e-01
-2.023299485445022583e-01
-1.394429206848144531e-01
-6.371530145406723022e-02
-5.859113484621047974e-02
-8.133369684219360352e-02
-1.950931996107101440e-01
1.585718430578708649e-02
1.115077361464500427e-01
-4.469209164381027222e-02
-2.102158069610595703e-01
-1.818296611309051514e-01
-1.274464130401611328e-01
2.346426993608474731e-02
1.251250803470611572e-01
-9.699808806180953979e-02
2.160152643918991089e-01
1.479153335094451904e-01
3.825199231505393982e-02
2.114051282405853271e-01
-5.832638125866651535e-03
-7.483559101819992065e-02
3.253711163997650146e-01
3.327983617782592773e-01
1.905887722969055176e-01
3.320010900497436523e-01
2.009085565805435181e-01
3.242830038070678711e-01
1.580407768487930298e-01
1.485619992017745972e-01
1.241523623466491699e-01
1.165961697697639465e-01
-9.965412318706512451e-03
-1.503690481185913086e-01
-1.951582729816436768e-01
2.323823422193527222e-02
1.769605325534939766e-03
4.701282083988189697e-02
-2.719887299463152885e-03
-1.605225205421447754e-01
-1.605316400527954102e-01
-5.822781473398208618e-02
-3.044318854808807373e-01
-7.993733882904052734e-02
-1.539455652236938477e-01
1.215734109282493591e-01
-9.128179401159286499e-02
1.959943324327468872e-01
-1.452640742063522339e-01
-1.888754814863204956e-01
-1.185539811849594116e-01
-1.124747470021247864e-01
-4.082219675183296204e-02
-7.145024836063385010e-02
-1.863536387681961060e-01
-3.045171201229095459e-01
-1.825698018074035645e-01
-9.259821474552154541e-02
2.455650083720684052e-02
3.792658075690269470e-02
2.485943734645843506e-01
2.332413345575332642e-01
1.670218408107757568e-01
-7.290362566709518433e-02
1.763292588293552399e-02
-3.265092521905899048e-02
-1.271853893995285034e-01
1.497188676148653030e-02
-8.714262396097183228e-02
-1.727066785097122192e-01
-2.531214989721775055e-02
-2.342263311147689819e-01
-2.047863602638244629e-01
-1.217329353094100952e-01
1.116216108202934265e-01
4.910235106945037842e-02
3.141970336437225342e-01
2.520891129970550537e-01
1.986220329999923706e-01
1.184912025928497314e-01
9.907053411006927490e-02
2.026969194412231445e-01
9.624295681715011597e-02
2.663775905966758728e-02
-1.928596012294292450e-02
3.017958402633666992e-01
4.437089338898658752e-02
-2.830451428890228271e-01
-2.412927001714706421e-01
-4.527121409773826599e-02
6.326797604560852051e-02
-1.601486951112747192e-01
-1.137461960315704346e-01
2.614419162273406982e-01
4.085518121719360352e-01
-4.609953239560127258e-02
-1.629585623741149902e-01
-2.171062529087066650e-01
-1.467090100049972534e-01
-2.242003008723258972e-02
-3.093418478965759277e-01
1.182870045304298401e-01
9.459817409515380859e-02
2.586812973022460938e-01
2.414956837892532349e-01
-2.338257618248462677e-02
-6.434699147939682007e-02
-2.339913398027420044e-01
-1.375852674245834351e-01
2.452944368124008179e-01
-9.154309332370758057e-02
-1.924919039011001587e-01
4.059805572032928467e-01
-2.027250379323959351e-01
-2.382795065641403198e-01
2.684330046176910400e-01
-3.407967835664749146e-02
-1.945690512657165527e-01
2.455469071865081787e-01
-2.654583156108856201e-01
-1.939041763544082642e-01
4.514883756637573242e-01
-7.298285514116287231e-02
-3.073920011520385742e-01
2.503243982791900635e-01
-8.346308022737503052e-03
1.651430688798427582e-02
2.129856795072555542e-01
-1.926908269524574280e-02
-2.505011856555938721e-01
1.988764256238937378e-01
-7.585569471120834351e-02
-1.756809353828430176e-01
2.552048563957214355e-01
-1.028717979788780212e-01
6.159180402755737305e-02
-1.114461570978164673e-01
2.837482392787933350e-01
-2.096267491579055786e-01
-3.605868220329284668e-01
2.888341434299945831e-03
-1.478448510169982910e-01
-1.295438706874847412e-01
-1.243729665875434875e-01
2.300819456577301025e-01
2.018962204456329346e-01
2.097182720899581909e-01
5.410629138350486755e-02
-1.863405108451843262e-01
-2.201171778142452240e-02
5.871995911002159119e-02
-8.571562170982360840e-02
-1.939201951026916504e-01
-6.880889646708965302e-03
1.844853311777114868e-01
1.283894628286361694e-01
-2.724388241767883301e-02
1.271428614854812622e-01
-1.285811886191368103e-04
9.401491284370422363e-02
2.332171611487865448e-02
-5.035272613167762756e-02
8.186926133930683136e-03
1.918739527463912964e-01
-2.159179560840129852e-02
2.643442153930664062e-01
2.016344964504241943e-01
1.788455098867416382e-01
3.245498985052108765e-02
2.199991345405578613e-01
-1.212690994143486023e-01
5.289015918970108032e-02
-1.534189749509096146e-02
-3.654989227652549744e-02
1.350847929716110229e-01
1.578750014305114746e-01
-1.179205626249313354e-01
1.274975240230560303e-01
-1.648297309875488281e-01
-2.092304974794387817e-01
-2.103745006024837494e-02
2.386898249387741089e-01
-1.569642126560211182e-01
2.191430479288101196e-01
-9.975325316190719604e-03
3.275702521204948425e-02
1.182340011000633240e-01
-2.671776525676250458e-02
-3.273110389709472656e-01
-3.053894340991973877e-01
1.029506772756576538e-01
-1.217858865857124329e-01
-1.951097161509096622e-03
9.209707379341125488e-03
-1.804310828447341919e-01
-6.096148118376731873e-02
-2.802455723285675049e-01
-3.066368997097015381e-01
2.993288449943065643e-02
1.068067178130149841e-02
8.652643114328384399e-02
-5.001639574766159058e-02
2.975489199161529541e-01
-1.646857410669326782e-01
1.288351416587829590e-01
-1.695005744695663452e-01
1.971302554011344910e-02
1.010385453701019287e-01
1.884993910789489746e-01
3.999521955847740173e-02
2.682886421680450439e-01
1.571770012378692627e-01
-5.951608344912528992e-02
2.132963575422763824e-02
1.649588197469711304e-01
-2.194214053452014923e-02
3.328316658735275269e-02
1.208176538348197937e-01
7.359744608402252197e-02
2.253504991531372070e-01
1.558153927326202393e-01
3.370597064495086670e-01
1.931881755590438843e-01
1.782031506299972534e-01
3.289324045181274414e-02
-1.333249174058437347e-02
1.527838110923767090e-01
1.999012380838394165e-01
-1.941383033990859985e-01
-3.996048122644424438e-02
-1.062087938189506531e-01
-1.603238731622695923e-01
-5.026515200734138489e-02
-5.865260213613510132e-02
-1.204180344939231873e-01
-1.613081246614456177e-01
-2.364289313554763794e-01
-9.056791663169860840e-02
-2.009394764900207520e-01
-2.074153423309326172e-01
-1.196888387203216553e-01
-3.437191992998123169e-02
1.265854388475418091e-01
-4.998221993446350098e-02
-1.769519895315170288e-01
1.461169570684432983e-01
-3.147256374359130859e-01
1.787842810153961182e-01
2.845508754253387451e-01
-1.349105685949325562e-01
5.732694640755653381e-02
3.630996495485305786e-02
-8.647808432579040527e-02
1.319684647023677826e-02
6.577542424201965332e-02
-3.796378672122955322e-01
9.335710853338241577e-02
2.972376346588134766e-01
-3.832426667213439941e-01
1.678951829671859741e-01
8.755974471569061279e-02
-2.427896261215209961e-01
7.107567042112350464e-02
1.920982897281646729e-01
-3.025764226913452148e-01
-5.691770836710929871e-02
8.843043446540832520e-02
-4.058295488357543945e-02
1.299471706151962280e-01
2.057133167982101440e-01
-2.199195092543959618e-03
2.699250578880310059e-01
2.872413992881774902e-01
1.840606927871704102e-01
1.553200781345367432e-01
1.131538227200508118e-01
2.197878360748291016e-01
7.343620806932449341e-02
-5.704620387405157089e-03
-5.963147617876529694e-03
-8.807923644781112671e-02
-1.787199229001998901e-01
-1.448475420475006104e-01
-2.338071018457412720e-01
-3.119164407253265381e-01
-1.345507800579071045e-01
-8.841384947299957275e-02
-3.420761227607727051e-01
-5.445278808474540710e-02
1.315585076808929443e-01
-1.321101188659667969e-01
-4.410330578684806824e-02
2.458661198616027832e-01
2.108673751354217529e-02
-4.057845100760459900e-02
2.197476476430892944e-01
-1.010508611798286438e-01
3.814748674631118774e-02
-7.448108494281768799e-02
1.179112121462821960e-01
-1.820084266364574432e-02
7.738704234361648560e-02
1.779005378484725952e-01
-1.266948133707046509e-01
1.240316927433013916e-01
-1.490754038095474243e-01
-7.477246224880218506e-02
4.963300377130508423e-02
-1.787120848894119263e-02
-1.208560243248939514e-01
6.297034025192260742e-02
-2.467004023492336273e-02
6.176421791315078735e-02
1.237860769033432007e-01
-1.855396851897239685e-02
3.797471150755882263e-02
-8.033052831888198853e-02
1.226478144526481628e-01
1.802305504679679871e-02
-5.579562485218048096e-02
1.694157719612121582e-01
9.652584046125411987e-02
1.853819121606647968e-03
1.207365170121192932e-01
1.156904771924018860e-01
-3.359060361981391907e-02
-1.028580144047737122e-01
2.905410826206207275e-01
1.649763882160186768e-01
-3.224370479583740234e-01
1.439283341169357300e-01
1.107680238783359528e-02
-2.374854683876037598e-01
1.754550337791442871e-01
6.124186888337135315e-02
-1.109392121434211731e-01
3.086220920085906982e-01
-1.298551261425018311e-02
-4.509357511997222900e-01
1.635614037513732910e-01
8.580370247364044189e-02
-3.483267128467559814e-01
2.171065211296081543e-01
-1.700287163257598877e-01
-2.427305728197097778e-01
3.303684890270233154e-01
-5.736687034368515015e-02
-1.797691583633422852e-01
2.242542058229446411e-01
1.688561439514160156e-01
-1.251687407493591309e-01
1.848921030759811401e-01
3.792002797126770020e-02
-2.650108560919761658e-02
-9.296787902712821960e-03
2.264037430286407471e-01
2.423290014266967773e-01
-1.506325453519821167e-01
-2.175457626581192017e-01
-3.003174252808094025e-02
-2.578848302364349365e-01
-1.599704101681709290e-02
-4.277160763740539551e-02
-2.016539126634597778e-01
-2.328366599977016449e-02
1.409460455179214478e-01
-1.194641888141632080e-01
-1.926499456167221069e-01
-6.127722188830375671e-02
6.886020302772521973e-02
1.496270596981048584e-01
-1.795983761548995972e-01
1.576350182294845581e-01
-2.514282055199146271e-02
4.770390689373016357e-02
1.127418875694274902e-01
1.368783861398696899e-01
9.248526394367218018e-02
