1.132444813847541809e-01
1.631336957216262817e-01
7.753702811896800995e-03
1.209930777549743652e-01
-6.983472406864166260e-02
-2.029557377099990845e-01
-1.613206267356872559e-01
-1.774172671139240265e-02
2.787971124053001404e-02
-8.643187582492828369e-02
-3.999407961964607239e-02
-1.582413353025913239e-02
4.260502755641937256e-03
-8.588091284036636353e-02
-3.832430765032768250e-02
1.624914705753326416e-01
-1.027169525623321533e-01
-7.060264796018600464e-02
1.016924530267715454e-01
-1.095238258130848408e-04
-4.851055145263671875e-02
2.036186121404170990e-02
-7.328133564442396164e-03
3.925806656479835510e-02
1.150091364979743958e-02
-4.306273162364959717e-02
4.307240992784500122e-02
-5.401123687624931335e-02
2.511113882064819336e-02
-1.864590793848037720e-01
-1.729213148355484009e-01
-1.521831005811691284e-01
1.271841581910848618e-02
-2.012679353356361389e-02
5.796948820352554321e-02
7.060746103525161743e-02
1.467700004577636719e-01
2.472709119319915771e-02
-1.808894276618957520e-01
4.460590332746505737e-02
-5.647733807563781738e-02
1.273541450500488281e-01
-8.951024711132049561e-02
1.196380704641342163e-01
-9.616772085428237915e-02
6.680046766996383667e-02
9.538713097572326660e-02
-7.100289314985275269e-02
-8.388452231884002686e-03
-1.539361011236906052e-02
-5.253336206078529358e-02
-8.964349329471588135e-02
-3.545742854475975037e-02
9.344083070755004883e-02
-8.999641239643096924e-02
-9.433332830667495728e-02
-1.070297043770551682e-02
3.325268626213073730e-02
8.561976999044418335e-02
-4.476344212889671326e-02
4.415108263492584229e-02
-5.737664178013801575e-03
-2.188621833920478821e-02
4.994736239314079285e-02
-1.751635968685150146e-02
4.348977282643318176e-02
-3.967357799410820007e-02
-6.336900591850280762e-02
-5.249687656760215759e-02
1.768350414931774139e-02
5.858359858393669128e-02
-7.400516420602798462e-02
-6.091485545039176941e-02
-1.232558581978082657e-02
5.055570229887962341e-02
-9.865201264619827271e-02
-1.821073591709136963e-01
-2.041314169764518738e-02
1.058273091912269592e-01
7.026500999927520752e-02
1.528284996747970581e-01
-1.089741382747888565e-02
-1.768764406442642212e-01
8.399344980716705322e-02
-1.728514395654201508e-02
-6.706300377845764160e-01
-3.345099091529846191e-01
-1.186049431562423706e-01
1.929083466529846191e-01
-1.575544774532318115e-01
-2.233433127403259277e-01
-3.167298138141632080e-01
1.102249398827552795e-01
8.159384876489639282e-02
1.742815971374511719e-02
-2.343231998383998871e-02
-1.558193378150463104e-02
7.266763597726821899e-03
1.513899676501750946e-02
3.479726240038871765e-02
2.616823650896549225e-02
2.403769083321094513e-02
1.349264662712812424e-02
1.319386251270771027e-02
-3.376108407974243164e-02
-3.394857048988342285e-02
6.199002638459205627e-02
-1.837818324565887451e-02
-5.049521103501319885e-02
-3.247583284974098206e-02
-1.361791323870420456e-02
3.227662667632102966e-02
-1.279957443475723267e-01
-1.042602732777595520e-01
9.541331231594085693e-02
-1.348501890897750854e-01
-3.181521892547607422e-01
2.426232099533081055e-01
7.708165049552917480e-02
-8.909834921360015869e-02
-2.780548334121704102e-01
3.384839370846748352e-02
7.872026413679122925e-02
-1.610996276140213013e-01
-7.407218217849731445e-02
-1.152353733777999878e-02
1.438314211554825306e-04
-3.053934499621391296e-02
1.004690378904342651e-01
-7.665637880563735962e-02
1.889028772711753845e-02
-7.164318114519119263e-02
1.643219888210296631e-01
-8.350100368261337280e-02
8.853283524513244629e-02
1.247403696179389954e-01
2.641629613935947418e-02
2.028235234320163727e-02
-1.812834292650222778e-02
4.407412558794021606e-02
-1.119683682918548584e-01
-1.204777657985687256e-01
-8.981490880250930786e-02
4.140583425760269165e-02
2.703649103641510010e-01
2.068167477846145630e-01
-1.032901182770729065e-02
-3.086649999022483826e-02
3.715570569038391113e-01
1.687156707048416138e-01
-1.525470167398452759e-01
-1.792376041412353516e-01
1.483356058597564697e-01
1.297870427370071411e-01
-1.497151255607604980e-01
-2.282897680997848511e-01
1.561850905418395996e-01
4.077284410595893860e-02
1.557016819715499878e-01
-2.209930121898651123e-02
-9.425951540470123291e-02
-4.936591535806655884e-02
-9.278081357479095459e-02
-4.269766807556152344e-02
1.533452719449996948e-01
1.115968748927116394e-01
1.070884689688682556e-01
4.056113213300704956e-02
1.405492722988128662e-01
-4.580312967300415039e-02
4.583258554339408875e-02
7.734929025173187256e-02
-3.186660632491111755e-02
-4.384457319974899292e-02
-2.314399629831314087e-01
3.104485571384429932e-02
3.385180979967117310e-02
-8.751068264245986938e-02
-1.122088283300399780e-01
-1.585347950458526611e-01
-2.853944711387157440e-02
2.298637479543685913e-02
-9.246597997844219208e-03
-2.166326902806758881e-02
1.235541887581348419e-03
4.676910862326622009e-02
-5.820467695593833923e-02
-5.317074432969093323e-02
-5.841949488967657089e-03
-3.173179924488067627e-02
-3.154970705509185791e-02
-5.182883515954017639e-02
8.041857182979583740e-02
2.850633859634399414e-02
-1.535464078187942505e-02
-2.766361273825168610e-02
-1.461027860641479492e-01
4.279807582497596741e-02
8.562096953392028809e-02
-1.314257178455591202e-02
1.695763319730758667e-02
1.561018973588943481e-01
-4.145590960979461670e-02
-7.030836492776870728e-02
8.237542212009429932e-02
4.555687773972749710e-03
-1.223786845803260803e-01
-9.335958212614059448e-02
5.123886466026306152e-02
-4.592491686344146729e-02
-6.909666210412979126e-02
2.106697671115398407e-02
4.200387746095657349e-02
2.296704053878784180e-02
8.005227148532867432e-02
1.658700555562973022e-01
-7.255595922470092773e-02
-5.869748070836067200e-02
4.893809929490089417e-02
1.064310297369956970e-01
9.768629819154739380e-02
-4.275484010577201843e-03
1.058607548475265503e-01
2.262388728559017181e-02
1.538287997245788574e-01
4.525847360491752625e-02
5.573925748467445374e-02
4.108777642250061035e-02
1.642233133316040039e-02
-9.530544281005859375e-02
-1.571569442749023438e-01
-2.220758982002735138e-02
9.960251301527023315e-02
-1.495786160230636597e-01
-1.664927452802658081e-01
1.273045390844345093e-01
7.199003547430038452e-02
4.996235296130180359e-02
1.596214026212692261e-01
1.363141089677810669e-01
8.196611702442169189e-02
1.842763125896453857e-01
-1.684039086103439331e-01
7.132235169410705566e-02
1.120319124311208725e-02
2.409294992685317993e-02
-2.339138388633728027e-01
-4.085616092197597027e-04
4.335656389594078064e-02
1.050019189715385437e-01
-2.561855688691139221e-02
1.057695224881172180e-01
4.620301723480224609e-02
6.052746996283531189e-02
-4.956437647342681885e-02
-1.176725849509239197e-01
-1.703085452318191528e-01
-5.269454047083854675e-02
-9.359659999608993530e-02
-5.704435333609580994e-02
-1.708379834890365601e-01
-4.684939607977867126e-02
-5.958132445812225342e-02
-1.370389610528945923e-01
-1.934210807085037231e-01
7.548402529209852219e-03
5.790356546640396118e-02
-1.744968891143798828e-01
-1.034679487347602844e-01
-5.523265898227691650e-02
-1.505836844444274902e-02
1.143876276910305023e-02
-2.221378833055496216e-01
7.775228004902601242e-03
-8.522869646549224854e-02
-7.699950039386749268e-02
1.096622571349143982e-01
4.981790110468864441e-02
3.107202239334583282e-02
5.989152938127517700e-03
1.185916215181350708e-01
5.952334403991699219e-02
1.021989658474922180e-01
9.855694323778152466e-02
1.110104843974113464e-02
7.061253488063812256e-02
8.471063524484634399e-02
1.330103278160095215e-01
3.874887712299823761e-03
-4.436068609356880188e-02
-2.106751129031181335e-02
5.601843819022178650e-02
1.711560226976871490e-02
1.006408035755157471e-01
-3.821482136845588684e-02
8.867741376161575317e-02
9.486928582191467285e-02
9.055514819920063019e-03
-5.098662339150905609e-03
1.577170491218566895e-01
-3.198416158556938171e-02
6.423586606979370117e-02
7.679715286940336227e-03
-1.900000870227813721e-02
1.507428288459777832e-01
1.127952635288238525e-01
-2.385438978672027588e-02
-4.288401827216148376e-02
-2.200677245855331421e-01
-2.722712792456150055e-02
-7.069322466850280762e-02
2.898779883980751038e-02
-1.161387935280799866e-02
5.609809607267379761e-02
-5.390659347176551819e-02
-1.070182099938392639e-01
1.871789246797561646e-01
3.380137309432029724e-02
4.946809634566307068e-02
-1.288179159164428711e-01
-1.053563281893730164e-01
-1.400731205940246582e-01
-5.167621746659278870e-02
-1.684831976890563965e-01
-1.065533757209777832e-01
-6.795917451381683350e-02
-9.656266868114471436e-02
9.227477014064788818e-02
-1.497342344373464584e-02
-2.403999865055084229e-01
-2.606708407402038574e-01
-1.071001291275024414e-01
3.247008472681045532e-02
-3.704134002327919006e-02
-1.529116034507751465e-01
-7.400578260421752930e-02
-1.256955116987228394e-01
4.033746942877769470e-02
-2.156141549348831177e-01
-6.866581737995147705e-02
-2.033674716949462891e-01
-8.594977110624313354e-02
-2.051097005605697632e-01
-1.669154912233352661e-01
-1.025478765368461609e-01
-8.980361372232437134e-02
-1.668464392423629761e-02
-2.589566707611083984e-01
1.424511522054672241e-01
5.867113918066024780e-02
5.924597382545471191e-02
-5.043934285640716553e-02
-1.862003952264785767e-01
-1.355237886309623718e-02
-1.226138621568679810e-01
-1.330718994140625000e-01
-1.275323927402496338e-01
-2.252027019858360291e-02
-7.716643065214157104e-02
-2.481673210859298706e-01
1.001685112714767456e-01
4.737650975584983826e-02
3.850375115871429443e-02
-2.287228554487228394e-01
1.557224392890930176e-01
-3.468075022101402283e-02
1.688791438937187195e-02
5.247025936841964722e-02
1.518319100141525269e-01
-2.065312266349792480e-01
1.862258762121200562e-01
-1.269150711596012115e-02
-2.412142418324947357e-02
7.969058305025100708e-02
-8.229651488363742828e-03
-8.464057743549346924e-02
1.296865195035934448e-01
-1.803654804825782776e-02
3.123403899371623993e-02
-2.696501649916172028e-02
8.940993249416351318e-02
1.123763993382453918e-01
4.711149632930755615e-02
-9.481422603130340576e-03
6.296667456626892090e-02
-1.724897474050521851e-01
-1.591220311820507050e-02
-5.139977857470512390e-02
-2.113768905401229858e-01
-4.770419001579284668e-02
-4.794087633490562439e-02
8.349643647670745850e-02
1.200562641024589539e-01
-4.303690418601036072e-02
-3.679882735013961792e-02
2.176142111420631409e-02
-6.944321841001510620e-02
2.877654973417520523e-03
1.070304811000823975e-01
-7.502780109643936157e-02
1.581169664859771729e-02
-3.156983852386474609e-02
-5.714449286460876465e-02
3.121906518936157227e-02
-2.025946080684661865e-01
1.593111902475357056e-01
3.247958794236183167e-02
1.981220692396163940e-01
-2.363307625055313110e-01
3.694580867886543274e-02
-3.820919618010520935e-02
-5.220523849129676819e-02
-1.891969330608844757e-02
-5.872420221567153931e-02
-9.328049421310424805e-02
-1.494688391685485840e-01
9.133927524089813232e-02
-1.973577290773391724e-01
-1.401949226856231689e-01
-1.638454347848892212e-01
1.949902996420860291e-02
-9.478705376386642456e-02
-6.740009039640426636e-02
-2.212619967758655548e-02
-9.362277388572692871e-02
8.915775269269943237e-02
4.283973574638366699e-02
-8.569422364234924316e-02
-3.559231013059616089e-02
1.078580170869827271e-01
5.888556595891714096e-03
-2.824527770280838013e-02
-1.103433817625045776e-01
-1.251287311315536499e-01
-2.540085650980472565e-02
-1.192555874586105347e-01
2.119994536042213440e-02
-2.044370211660861969e-02
-5.192362144589424133e-02
-1.855800449848175049e-01
-3.144984599202871323e-03
8.866126835346221924e-02
-3.306741826236248016e-03
-2.544466964900493622e-02
-9.410544484853744507e-02
5.773781239986419678e-02
-1.152890473604202271e-01
-1.418311744928359985e-01
-5.210407078266143799e-02
1.576501410454511642e-03
6.908439099788665771e-04
6.899384409189224243e-02
-1.594428718090057373e-01
4.424439743161201477e-02
1.263976246118545532e-01
1.242922320961952209e-01
-1.243361085653305054e-01
5.597930401563644409e-02
-3.658652305603027344e-02
-7.013682276010513306e-03
-5.476374551653862000e-02
9.300141781568527222e-02
2.150258049368858337e-02
-1.031303703784942627e-01
-5.621104314923286438e-02
1.515118684619665146e-02
-5.832946300506591797e-02
-2.723459340631961823e-02
4.040027409791946411e-02
-8.167639374732971191e-02
1.301233172416687012e-01
9.716407209634780884e-02
3.380935639142990112e-02
1.069813035428524017e-02
2.912236936390399933e-02
-3.191963210701942444e-02
1.518374681472778320e-01
1.860126256942749023e-01
2.645308710634708405e-02
1.991449296474456787e-02
-2.235532850027084351e-01
-2.246673032641410828e-02
2.238264493644237518e-02
9.429846890270709991e-03
-3.052574992179870605e-01
-2.155459299683570862e-02
-2.010859176516532898e-02
2.546692639589309692e-02
-1.365381330251693726e-01
-1.142953336238861084e-02
-1.253831386566162109e-01
2.981715835630893707e-02
-8.122920989990234375e-02
4.657603427767753601e-02
1.310213357210159302e-01
-4.629918187856674194e-02
4.356142133474349976e-02
-8.223998546600341797e-02
1.936235465109348297e-02
6.205590069293975830e-02
-1.234869584441184998e-01
7.882651686668395996e-02
1.247955709695816040e-01
-1.663400530815124512e-01
-5.340448021888732910e-02
4.588924720883369446e-02
5.696716159582138062e-02
4.215300083160400391e-02
4.552752245217561722e-03
-1.767161488533020020e-02
-3.149122744798660278e-02
-8.237598836421966553e-02
9.685123339295387268e-03
-4.752565640956163406e-03
-9.892887435853481293e-03
1.034237351268529892e-02
6.698439270257949829e-02
-1.241367459297180176e-01
-1.742101088166236877e-02
-6.886751949787139893e-02
1.452592760324478149e-01
-5.662234127521514893e-02
-7.591310143470764160e-02
1.071952581405639648e-01
-4.054877161979675293e-02
6.271270103752613068e-03
-8.598448336124420166e-02
1.245618164539337158e-01
-1.069097779691219330e-02
4.117500782012939453e-02
-6.125489622354507446e-02
2.610788680613040924e-02
3.537946939468383789e-02
-2.007616311311721802e-02
-1.122957244515419006e-01
-5.508248135447502136e-02
-6.606142967939376831e-02
-2.310812920331954956e-01
-1.742369681596755981e-01
-6.518887728452682495e-02
-1.394578348845243454e-02
-5.756344646215438843e-02
1.338546127080917358e-01
6.843563169240951538e-02
1.127507239580154419e-01
2.391178160905838013e-02
2.108795009553432465e-02
5.626291781663894653e-02
-3.977110236883163452e-02
-8.280168287456035614e-03
9.460543096065521240e-02
1.826605387032032013e-02
-9.526920318603515625e-02
-1.217806488275527954e-01
-1.657122373580932617e-01
-5.144530534744262695e-02
1.227933913469314575e-02
6.752312928438186646e-02
1.274232119321823120e-01
1.111017838120460510e-01
1.674674637615680695e-02
-7.603740692138671875e-02
7.160422205924987793e-02
4.542021453380584717e-02
-2.686319872736930847e-02
9.195271134376525879e-02
1.539629399776458740e-01
1.108882352709770203e-01
1.276720762252807617e-01
3.832528740167617798e-02
-7.486236840486526489e-02
-3.735674917697906494e-02
-1.498227193951606750e-02
-6.138830631971359253e-02
-9.022946655750274658e-02
-1.117585673928260803e-01
-1.640998572111129761e-02
2.481213063001632690e-01
-7.159823924303054810e-02
-6.042110919952392578e-02
-7.930658012628555298e-02
4.274565353989601135e-02
-1.266978681087493896e-01
1.169395223259925842e-01
-1.734302788972854614e-01
-1.104030460119247437e-01
-7.408524397760629654e-03
9.094920754432678223e-02
-1.072122529149055481e-01
-2.013186812400817871e-01
-9.037517011165618896e-03
-7.097390014678239822e-03
-2.249520123004913330e-01
-1.911082118749618530e-01
-2.020289152860641479e-01
-1.981588006019592285e-01
-9.968201816082000732e-02
-1.552648004144430161e-02
-2.521008811891078949e-02
-9.091533720493316650e-02
-3.978063538670539856e-02
1.299494802951812744e-01
-5.234087258577346802e-02
-4.308236017823219299e-02
3.204264491796493530e-02
2.282516062259674072e-01
6.845642626285552979e-02
-2.439651824533939362e-02
-6.069383397698402405e-02
-1.758601963520050049e-01
6.379337608814239502e-02
-1.765076816082000732e-01
-1.145621463656425476e-01
-4.181462340056896210e-03
-2.853693254292011261e-02
3.162306919693946838e-02
-6.819941848516464233e-02
-4.065584391355514526e-02
1.236682459712028503e-01
8.106517046689987183e-02
7.215736806392669678e-02
8.735129982233047485e-02
-8.771103620529174805e-02
-4.131847620010375977e-02
-7.079103589057922363e-02
1.525677973404526711e-03
2.067350409924983978e-02
8.996674418449401855e-02
9.162646532058715820e-02
1.097829490900039673e-01
6.771324574947357178e-02
1.532485187053680420e-01
1.141579672694206238e-01
8.267538994550704956e-02
-1.932298243045806885e-01
-2.032253704965114594e-02
-6.760259717702865601e-02
2.512658573687076569e-02
2.488375082612037659e-02
5.933642387390136719e-03
-7.470869272947311401e-02
-9.073384106159210205e-02
9.498198330402374268e-02
1.588415205478668213e-01
7.222282141447067261e-02
-6.024257838726043701e-02
6.920552998781204224e-02
4.211812466382980347e-02
7.548409514129161835e-03
-1.064155325293540955e-01
1.268336921930313110e-01
-1.276480853557586670e-01
-8.349329978227615356e-02
-2.669690549373626709e-01
-1.525589674711227417e-01
-9.710753709077835083e-02
-1.011380776762962341e-01
-2.807053679134696722e-04
7.322011142969131470e-02
6.943867355585098267e-02
-3.902056440711021423e-02
1.351051479578018188e-01
6.905725598335266113e-02
-1.351328343152999878e-01
1.420315504074096680e-01
1.587440818548202515e-01
8.797080069780349731e-02
-4.640332609415054321e-02
9.468334168195724487e-02
1.105031967163085938e-01
-2.930311299860477448e-02
-2.373338304460048676e-02
6.899472326040267944e-02
1.168612688779830933e-01
-8.061511814594268799e-02
-1.062643527984619141e-02
1.076507046818733215e-01
9.408047050237655640e-02
-8.216731250286102295e-02
-1.174356602132320404e-02
-1.771739274263381958e-01
4.194377362728118896e-02
-2.144769392907619476e-02
-1.119082644581794739e-01
-8.911786973476409912e-02
4.642692953348159790e-02
-1.894952729344367981e-02
6.522567570209503174e-02
-1.147603616118431091e-01
-4.480456188321113586e-02
-1.515696197748184204e-01
-2.508427798748016357e-01
2.090708166360855103e-02
4.047862719744443893e-03
-1.859379000961780548e-02
2.024895697832107544e-01
1.354453116655349731e-01
-8.460122346878051758e-02
-1.549129337072372437e-01
-1.458722800016403198e-01
1.004529148340225220e-01
-2.312341891229152679e-02
-7.278364896774291992e-02
-1.042985543608665466e-01
-9.470158815383911133e-02
-6.734193116426467896e-02
-1.996349357068538666e-02
-1.888025365769863129e-02
8.083805441856384277e-02
1.046384423971176147e-01
1.712325364351272583e-01
4.750897362828254700e-02
2.239502668380737305e-01
8.513889275491237640e-03
1.619817912578582764e-01
6.343935430049896240e-02
-1.903123110532760620e-01
2.029534243047237396e-02
-1.285939291119575500e-02
-3.914701193571090698e-02
3.529746830463409424e-02
1.875871233642101288e-02
-3.787867352366447449e-02
-6.523656658828258514e-03
1.715749800205230713e-01
7.634622603654861450e-02
1.557530015707015991e-01
5.950744450092315674e-02
1.213578954339027405e-01
-7.607068121433258057e-02
2.352006547152996063e-02
3.112772852182388306e-02
-8.307369798421859741e-02
-1.297563016414642334e-01
-1.340220868587493896e-01
-7.931170612573623657e-02
1.029362529516220093e-02
4.860050603747367859e-02
2.033564150333404541e-01
1.542309671640396118e-01
-7.432187348604202271e-02
3.180998843163251877e-03
1.371653676033020020e-01
1.561615318059921265e-01
-4.275180399417877197e-02
-7.043313235044479370e-03
1.300715357065200806e-01
7.768989354372024536e-02
9.323788806796073914e-03
3.950898349285125732e-02
2.348464578390121460e-01
-5.743924528360366821e-02
9.284491091966629028e-02
-4.647434130311012268e-02
-8.808632381260395050e-03
9.650289267301559448e-02
1.353907138109207153e-01
8.348527550697326660e-02
5.074891448020935059e-02
-1.453735083341598511e-01
5.673676729202270508e-02
1.903128325939178467e-01
7.555931061506271362e-02
2.142902277410030365e-02
9.618800133466720581e-03
-5.729624256491661072e-02
-1.352829933166503906e-01
8.074097335338592529e-02
-6.502620130777359009e-02
1.230466440320014954e-01
-8.038235455751419067e-02
-1.264380011707544327e-02
-9.676335006952285767e-02
-6.627319380640983582e-03
2.064970880746841431e-02
-6.501902639865875244e-02
-9.322650730609893799e-02
-1.169380843639373779e-01
3.783136233687400818e-02
-3.204828873276710510e-02
1.564398556947708130e-01
-1.593972556293010712e-02
9.143726527690887451e-02
-6.425397098064422607e-02
1.635310053825378418e-01
-8.153013885021209717e-03
6.312591582536697388e-02
-1.468862444162368774e-01
4.093524813652038574e-02
-1.885934732854366302e-02
1.209958717226982117e-01
-4.058633744716644287e-02
-3.847902268171310425e-02
4.975041374564170837e-02
4.390704631805419922e-02
5.523158237338066101e-02
-8.293687552213668823e-02
-2.047272026538848877e-01
9.655136615037918091e-02
8.661951869726181030e-02
-6.360404193401336670e-02
-3.058446804061532021e-03
1.521869003772735596e-01
6.282276660203933716e-02
-2.112336903810501099e-01
-5.170161277055740356e-02
1.441626250743865967e-01
4.046688321977853775e-03
-9.645399451255798340e-02
-1.842667907476425171e-02
2.442695796489715576e-01
2.125980108976364136e-01
-3.878210484981536865e-02
1.969853602349758148e-02
-8.494342118501663208e-02
8.272943645715713501e-02
8.352627046406269073e-03
1.798094809055328369e-02
-8.504073321819305420e-02
3.733177855610847473e-02
6.213152408599853516e-02
1.464578043669462204e-02
4.394989833235740662e-02
7.085494697093963623e-02
-7.332466542720794678e-02
1.193406134843826294e-01
6.817073374986648560e-02
-2.980598481371998787e-03
-4.455975070595741272e-02
2.861323766410350800e-02
-4.331561177968978882e-02
-1.171765998005867004e-01
-7.209876924753189087e-02
7.938248664140701294e-02
1.877563595771789551e-01
1.649783924221992493e-02
-5.059314146637916565e-02
-5.860267952084541321e-02
7.362980395555496216e-02
9.319586306810379028e-02
5.619289353489875793e-02
1.849796473979949951e-01
3.918928280472755432e-02
-3.780994098633527756e-03
4.217810928821563721e-02
7.817365229129791260e-02
9.254218079149723053e-03
-1.126230880618095398e-01
-1.619417034089565277e-02
7.387132197618484497e-02
-4.225655272603034973e-02
1.122383475303649902e-01
1.064731553196907043e-01
-4.361956939101219177e-02
-1.158150658011436462e-02
1.850414723157882690e-01
1.003412995487451553e-02
4.684341140091419220e-03
-1.893492229282855988e-02
1.574715971946716309e-01
7.700990885496139526e-02
1.388558149337768555e-01
7.337682694196701050e-02
2.721263654530048370e-02
1.256498694419860840e-01
4.800413176417350769e-02
8.086302876472473145e-02
7.922409474849700928e-02
-3.256945684552192688e-02
3.407764714211225510e-03
1.005422547459602356e-01
5.688041448593139648e-03
-5.438059940934181213e-02
-8.418426662683486938e-02
8.111530542373657227e-02
7.755796611309051514e-02
-1.247462928295135498e-01
-1.073364019393920898e-01
7.946540415287017822e-02
8.971019089221954346e-02
-1.061717197299003601e-01
-4.553019255399703979e-02
6.127647589892148972e-03
-2.240971289575099945e-02
-1.079782545566558838e-01
-1.261952053755521774e-02
-1.676554679870605469e-01
8.812023699283599854e-02
2.141403034329414368e-02
-1.564275659620761871e-02
-6.407833844423294067e-02
4.492932558059692383e-02
8.153241127729415894e-02
-4.512733593583106995e-02
4.186352714896202087e-02
-1.026287078857421875e-01
-3.180519118905067444e-02
1.025601103901863098e-02
1.411899477243423462e-01
3.485918277874588966e-03
1.414324156939983368e-02
-6.521971523761749268e-02
2.225960372015833855e-03
-6.340394727885723114e-03
-5.717451125383377075e-02
-1.652325540781021118e-01
-1.663093268871307373e-01
-2.407559305429458618e-01
2.836042642593383789e-02
2.044373303651809692e-01
-1.690256744623184204e-01
1.954830624163150787e-02
-2.028034813702106476e-02
-2.342297695577144623e-02
-5.540277343243360519e-03
-2.986695244908332825e-02
1.691264845430850983e-02
2.296056412160396576e-02
4.020688124001026154e-03
1.482341811060905457e-02
-1.296822447329759598e-02
2.733398228883743286e-02
2.250893227756023407e-02
2.033717557787895203e-02
-3.355588996782898903e-03
-7.504811976104974747e-03
2.639915421605110168e-02
1.493885647505521774e-02
7.961552590131759644e-02
2.309547364711761475e-01
1.024245619773864746e-01
1.013935953378677368e-01
-1.531554572284221649e-02
6.862465292215347290e-03
1.498006563633680344e-02
5.912076309323310852e-02
3.845569491386413574e-02
-5.199218913912773132e-02
-1.600902713835239410e-02
4.209657013416290283e-02
-2.491402998566627502e-02
1.754160597920417786e-02
-1.120801419019699097e-01
-9.414790198206901550e-03
1.281901895999908447e-01
-6.064528599381446838e-02
-2.418242208659648895e-02
-4.444784019142389297e-03
4.695933312177658081e-02
-2.413786575198173523e-02
8.637797832489013672e-02
1.811704412102699280e-02
4.933814704418182373e-02
2.842407487332820892e-02
9.469457715749740601e-02
4.140839353203773499e-02
-1.415504701435565948e-02
-2.138007804751396179e-02
2.051008865237236023e-02
-6.034695543348789215e-03
1.129024941474199295e-02
4.670990630984306335e-02
6.249749660491943359e-02
-8.043219149112701416e-02
-4.701124876737594604e-02
-1.018628105521202087e-01
-1.621325761079788208e-01
1.496991328895092010e-02
-6.775933504104614258e-02
3.355138003826141357e-02
-1.118424981832504272e-01
4.656945168972015381e-02
-6.320992112159729004e-02
4.932584613561630249e-02
2.579886466264724731e-02
-1.323755830526351929e-01
-3.881266713142395020e-02
-1.984864324331283569e-01
-8.111433684825897217e-02
-2.242234908044338226e-02
-1.519856154918670654e-01
-2.585999965667724609e-01
-1.330355089157819748e-02
2.707880362868309021e-02
1.118807941675186157e-01
1.805664002895355225e-01
-8.989494293928146362e-02
-6.619500368833541870e-02
8.260080218315124512e-02
8.426147699356079102e-02
5.287334322929382324e-02
-1.471288129687309265e-02
-1.431166231632232666e-01
8.177778869867324829e-02
-1.145849525928497314e-01
-3.890951722860336304e-02
8.924157358705997467e-03
6.758816074579954147e-03
-1.926792226731777191e-02
1.954007660970091820e-03
-2.365660071372985840e-01
-1.621931195259094238e-01
-1.054616272449493408e-01
7.515492290258407593e-02
-2.081737816333770752e-01
-2.212165147066116333e-01
-1.773090213537216187e-01
1.229458767920732498e-02
-1.884592324495315552e-02
-1.738982275128364563e-02
9.800742566585540771e-02
4.522017017006874084e-02
-1.468298435211181641e-01
-2.552705118432641029e-03
9.523114562034606934e-02
8.416382223367691040e-02
-1.701272875070571899e-01
-9.931960143148899078e-03
8.821428567171096802e-02
1.191744431853294373e-01
1.787845790386199951e-02
7.284958660602569580e-02
-1.080514937639236450e-01
-1.042378768324851990e-01
-1.194064505398273468e-02
-4.058904945850372314e-02
-1.006463691592216492e-01
-4.987680912017822266e-02
3.160988539457321167e-02
-1.135026291012763977e-01
-3.722630143165588379e-01
-1.190478801727294922e-01
3.046342730522155762e-02
-4.220464080572128296e-02
2.784348726272583008e-01
-1.302562057971954346e-01
-1.381576061248779297e-01
9.743337333202362061e-02
1.779962889850139618e-02
-1.494480222463607788e-01
8.762638270854949951e-02
1.438581496477127075e-01
-1.141311898827552795e-01
1.864935755729675293e-01
2.894969424232840538e-03
-5.715576931834220886e-02
-1.781199276447296143e-01
-1.577066034078598022e-01
9.405095130205154419e-02
7.345388829708099365e-02
2.316595762968063354e-01
-1.284774243831634521e-01
-4.280286654829978943e-02
2.810538411140441895e-01
4.041244685649871826e-01
1.817505508661270142e-01
-1.225197464227676392e-01
-1.530105918645858765e-01
-2.019266635179519653e-01
-1.824369579553604126e-01
1.431862264871597290e-01
1.239886656403541565e-01
7.129671424627304077e-02
3.646650537848472595e-02
-9.955696761608123779e-02
8.558460325002670288e-02
1.841678321361541748e-01
3.240973129868507385e-02
-1.300480663776397705e-01
1.099665164947509766e-01
-7.944492390379309654e-04
-1.942254602909088135e-02
3.018753603100776672e-03
-9.204425849020481110e-03
4.634131491184234619e-02
-1.958530396223068237e-02
1.415189206600189209e-01
1.087779644876718521e-03
6.778477877378463745e-02
1.155530437827110291e-01
1.409471314400434494e-02
1.355115324258804321e-01
1.174381449818611145e-01
1.928181797266006470e-01
-1.562699526548385620e-01
-3.591952472925186157e-02
-7.661031931638717651e-02
-7.602327968925237656e-03
5.099550634622573853e-02
-1.096387058496475220e-01
2.056124620139598846e-02
-2.699531614780426025e-02
5.434639751911163330e-02
-1.493749767541885376e-02
4.502470791339874268e-02
-9.776654839515686035e-02
1.007266938686370850e-01
8.147682249546051025e-02
-4.942751303315162659e-02
-8.068246394395828247e-02
1.573916971683502197e-01
1.285704076290130615e-01
5.242143943905830383e-02
3.149474784731864929e-02
2.592427134513854980e-01
3.979419469833374023e-01
2.404296547174453735e-01
2.476774454116821289e-01
1.303470283746719360e-01
-1.428419649600982666e-01
5.549789406359195709e-03
9.455145895481109619e-02
7.325970102101564407e-03
7.687401026487350464e-02
-1.173069104552268982e-01
8.654464781284332275e-02
-7.197910547256469727e-02
-1.426953971385955811e-01
-1.007509231567382812e-01
8.033864945173263550e-02
-4.304655641317367554e-02
2.087348140776157379e-02
-7.560158148407936096e-03
-6.304629892110824585e-02
-2.245116792619228363e-02
4.212220758199691772e-02
3.878721594810485840e-02
4.217369109392166138e-02
-3.531825914978981018e-02
3.573771193623542786e-02
3.559425100684165955e-02
2.249829098582267761e-02
-1.771553978323936462e-02
4.317863658070564270e-02
4.747615754604339600e-02
2.692990936338901520e-02
2.683938853442668915e-02
-1.906683295965194702e-02
-3.392075188457965851e-03
-8.883624523878097534e-02
1.491694524884223938e-02
1.087523177266120911e-01
9.525980055332183838e-02
6.702966243028640747e-02
1.681805998086929321e-01
3.252223730087280273e-01
2.071261554956436157e-01
2.639082968235015869e-01
6.623283773660659790e-02
2.601834535598754883e-01
2.232725471258163452e-01
1.649455577135086060e-01
4.669132083654403687e-02
4.841851815581321716e-02
2.181859686970710754e-02
-3.347326815128326416e-02
2.435448169708251953e-01
1.633318364620208740e-01
-1.003677304834127426e-02
1.160056814551353455e-01
1.134130060672760010e-01
-3.870289027690887451e-02
6.153484433889389038e-02
1.209021639078855515e-02
-3.509660810232162476e-02
-3.771385550498962402e-02
-1.293465793132781982e-01
-1.136147454380989075e-01
-2.610561251640319824e-01
-1.404223889112472534e-01
-2.233177274465560913e-01
-9.188257157802581787e-02
-1.896263957023620605e-01
-2.165798284113407135e-02
-7.598570734262466431e-02
6.512118130922317505e-02
-1.559144556522369385e-01
1.452025324106216431e-01
2.374924868345260620e-01
-7.358563691377639771e-02
6.821896880865097046e-02
4.952998086810112000e-02
-1.590664833784103394e-01
-3.785260021686553955e-02
1.203840300440788269e-01
1.539890561252832413e-02
1.165366098284721375e-01
1.453169714659452438e-02
-1.245461329817771912e-01
-1.132797896862030029e-01
-4.136745259165763855e-02
1.615998297929763794e-01
-1.934640258550643921e-01
-1.059168055653572083e-01
-4.517853632569313049e-02
1.447766274213790894e-01
-8.470480144023895264e-02
-9.407300502061843872e-02
-2.957320399582386017e-02
-1.150499731302261353e-01
3.898255527019500732e-02
5.265315249562263489e-02
8.152396231889724731e-02
1.027000024914741516e-01
-1.396464109420776367e-01
8.692095056176185608e-03
-1.110087111592292786e-01
5.572065338492393494e-02
-1.283322721719741821e-01
-2.843641340732574463e-01
-2.446252554655075073e-01
-1.376382112503051758e-01
8.729980885982513428e-02
-2.031758800148963928e-02
-1.899400651454925537e-01
-1.536531597375869751e-01
-1.809881776571273804e-01
7.808778434991836548e-02
2.037831954658031464e-02
-1.498907245695590973e-02
2.693486958742141724e-02
1.264619678258895874e-01
1.578429490327835083e-01
1.237971521914005280e-02
1.036383584141731262e-02
5.702988058328628540e-02
1.679158769547939301e-03
-6.780884228646755219e-03
-2.908504568040370941e-02
6.766027305275201797e-03
5.106582492589950562e-02
1.159215159714221954e-02
-1.234649941325187683e-01
6.246784329414367676e-02
3.235508874058723450e-02
2.503046207129955292e-02
-1.303973942995071411e-01
-7.235828787088394165e-02
-1.010238751769065857e-01
-1.362789720296859741e-01
-4.964137077331542969e-02
-1.086367070674896240e-01
-2.915524840354919434e-01
-7.991075515747070312e-02
-1.157290786504745483e-01
-1.287267059087753296e-01
-2.173316627740859985e-01
-5.711816996335983276e-02
-1.695659011602401733e-03
-2.954074554145336151e-02
-3.567314147949218750e-01
-6.417148560285568237e-02
1.179092749953269958e-01
-4.904159530997276306e-02
-2.533410489559173584e-01
5.073528736829757690e-02
-8.050832152366638184e-02
-3.016182184219360352e-01
-2.281196862459182739e-01
2.930897660553455353e-02
8.085258305072784424e-02
-2.169948369264602661e-01
-3.910528123378753662e-02
1.387004107236862183e-01
2.671665884554386139e-02
9.482090920209884644e-02
1.797202229499816895e-01
2.097790986299514771e-01
-5.759660527110099792e-02
-2.391783595085144043e-01
-1.237370371818542480e-01
-9.426939487457275391e-02
1.705762594938278198e-01
-1.421074271202087402e-01
-1.148794740438461304e-01
-7.930809259414672852e-02
5.329145491123199463e-02
-1.024845521897077560e-02
-3.659821748733520508e-01
-2.217212505638599396e-02
-3.094976581633090973e-02
-1.021141484379768372e-01
-1.465644389390945435e-01
5.438125878572463989e-02
-3.963004797697067261e-02
-4.882024973630905151e-02
-1.112439036369323730e-01
4.593716189265251160e-02
-1.304083317518234253e-01
-1.302488744258880615e-01
1.462424248456954956e-01
1.934068091213703156e-02
-2.700152061879634857e-02
-1.474722921848297119e-01
1.059377640485763550e-01
-1.414930820465087891e-01
1.465186476707458496e-01
5.280512943863868713e-02
-5.230183899402618408e-02
1.533417552709579468e-01
1.145414859056472778e-01
-3.970545902848243713e-02
-8.997374027967453003e-02
-5.255073774605989456e-03
1.099376305937767029e-01
-5.816347524523735046e-02
-1.231768205761909485e-01
-1.215958688408136368e-02
3.300448507070541382e-02
6.578043568879365921e-03
8.095637895166873932e-03
-3.206333145499229431e-02
-2.891036495566368103e-02
3.110304102301597595e-02
-7.591903209686279297e-02
4.858196154236793518e-02
2.177009824663400650e-03
1.699656844139099121e-01
1.239515393972396851e-01
2.573386952280998230e-02
-4.325528070330619812e-02
2.314960360527038574e-01
7.166774570941925049e-02
-4.482045769691467285e-02
-1.629889458417892456e-01
-1.374471932649612427e-02
1.055860370397567749e-01
-8.013700693845748901e-02
-9.642225503921508789e-02
-8.771701157093048096e-02
-8.696282655000686646e-02
-5.573152750730514526e-02
-2.082096785306930542e-01
-2.424991726875305176e-01
-1.410529762506484985e-01
-3.367826342582702637e-01
-1.781732738018035889e-01
-1.545058637857437134e-01
1.445342414081096649e-02
-1.900008469820022583e-01
3.807553648948669434e-02
1.649944037199020386e-01
8.699571341276168823e-02
1.966431364417076111e-02
-1.404622048139572144e-01
2.010474167764186859e-02
-4.314308986067771912e-02
-6.389117985963821411e-02
2.454508095979690552e-02
-2.256915122270584106e-01
-1.338246166706085205e-01
-1.095330491662025452e-01
-1.590483076870441437e-02
-1.782429367303848267e-01
1.963336486369371414e-03
7.586479932069778442e-02
-6.300410628318786621e-02
-1.964214444160461426e-01
-5.412231013178825378e-02
-8.489322662353515625e-02
-5.776549503207206726e-02
-5.089928582310676575e-02
-1.734763942658901215e-02
-3.825131058692932129e-02
2.057091593742370605e-01
4.642719402909278870e-02
4.121414572000503540e-02
1.315762400627136230e-01
8.871995657682418823e-02
-1.338727176189422607e-01
-2.171155810356140137e-01
-1.508834771811962128e-02
-7.551097124814987183e-02
-2.340835146605968475e-02
1.154051423072814941e-01
-2.058608271181583405e-02
1.201374307274818420e-01
-1.824711710214614868e-01
-1.143490895628929138e-01
-3.717290610074996948e-02
2.147474139928817749e-01
-2.493639662861824036e-02
3.482396900653839111e-02
8.417680859565734863e-02
1.528402417898178101e-01
2.843791432678699493e-02
-5.198952555656433105e-02
-6.185907870531082153e-02
3.949880972504615784e-02
6.420293822884559631e-03
-7.583202421665191650e-02
-3.831987502053380013e-03
1.007637903094291687e-01
-3.288864716887474060e-02
-6.875067204236984253e-02
-2.939049899578094482e-02
1.522981189191341400e-02
1.747999936342239380e-01
1.264303922653198242e-01
2.528160214424133301e-01
1.803730726242065430e-01
1.751349866390228271e-01
2.053452432155609131e-01
1.596697419881820679e-01
1.291070133447647095e-01
1.158397048711776733e-01
2.010499387979507446e-01
1.656319499015808105e-01
6.179827079176902771e-02
9.667149186134338379e-02
2.235068008303642273e-02
1.435667928308248520e-02
7.229591719806194305e-03
9.325368702411651611e-02
9.874303638935089111e-02
-7.539436966180801392e-02
-1.974173076450824738e-02
-1.465777009725570679e-01
-1.680244952440261841e-01
-4.818870872259140015e-02
1.809839904308319092e-01
1.256243437528610229e-01
-8.484234660863876343e-02
3.850518167018890381e-02
6.801170110702514648e-02
2.559131244197487831e-03
-2.123071849346160889e-01
6.569903809577226639e-03
1.536936759948730469e-01
-2.419127821922302246e-01
-1.986380368471145630e-01
-6.779098883271217346e-03
-5.250962078571319580e-02
-1.042871996760368347e-01
-4.341058805584907532e-02
1.723095625638961792e-01
-6.969111412763595581e-02
1.232423335313796997e-01
7.988308370113372803e-02
1.673034578561782837e-01
4.197396337985992432e-02
2.893515676259994507e-02
1.286346316337585449e-01
-3.292090073227882385e-02
3.252167627215385437e-02
-1.677156686782836914e-01
-2.655974924564361572e-01
-8.320093154907226562e-02
-1.891203373670578003e-01
-1.249468699097633362e-01
-1.140571315772831440e-03
6.383503973484039307e-02
1.723351143300533295e-02
-2.052928060293197632e-01
-9.021193534135818481e-02
4.487508535385131836e-02
2.494551427662372589e-02
5.699369683861732483e-02
-4.619466140866279602e-02
2.374856546521186829e-02
1.216302216053009033e-01
1.142449229955673218e-01
-7.851139456033706665e-02
4.374897107481956482e-02
2.549923211336135864e-02
2.107317186892032623e-02
-6.378620862960815430e-02
-8.379947394132614136e-03
-1.205052360892295837e-01
-1.923971772193908691e-01
-1.292916089296340942e-01
-7.480109483003616333e-02
-1.325673237442970276e-02
1.238942146301269531e-02
3.367005288600921631e-02
-3.902862966060638428e-02
1.291154474020004272e-01
-2.895906567573547363e-02
-6.268174946308135986e-02
-2.842755988240242004e-02
-6.488569825887680054e-02
1.224960014224052429e-01
8.469447493553161621e-02
9.400755912065505981e-02
-2.180805802345275879e-01
-6.532017141580581665e-02
-8.848972618579864502e-02
3.486648947000503540e-02
9.897655993700027466e-02
-9.219931066036224365e-02
5.560702458024024963e-02
5.016255751252174377e-02
-8.846333622932434082e-02
-2.457153648138046265e-01
-9.345840662717819214e-02
-7.096692919731140137e-02
-6.797352340072393417e-03
3.131023794412612915e-02
-9.796742349863052368e-02
1.023539602756500244e-01
-9.106699377298355103e-02
-4.831490293145179749e-02
-1.035104468464851379e-01
1.210067700594663620e-02
-2.625742927193641663e-02
-8.428987930528819561e-04
-9.841041266918182373e-02
4.184270650148391724e-02
-1.191906929016113281e-01
-3.391304612159729004e-01
-1.889639645814895630e-01
5.683269724249839783e-02
-7.849241048097610474e-02
3.730712234973907471e-01
1.560560707002878189e-02
3.385207429528236389e-02
-1.036790758371353149e-02
-6.923739612102508545e-02
-3.983872011303901672e-02
5.328639224171638489e-02
-2.037728577852249146e-01
8.501688390970230103e-02
-2.565194293856620789e-02
-2.211755067110061646e-01
-2.200503088533878326e-02
2.757882475852966309e-01
2.169546484947204590e-01
-1.608874499797821045e-01
-2.176917530596256256e-02
3.463731333613395691e-02
1.223592534661293030e-01
-5.834544822573661804e-02
-1.717299371957778931e-01
2.277984470129013062e-02
1.075226813554763794e-02
-1.378277987241744995e-01
-1.183465272188186646e-01
-1.209407672286033630e-01
-2.060658186674118042e-01
-9.579596668481826782e-02
-3.033438324928283691e-02
-8.881223201751708984e-02
-1.977071911096572876e-01
-1.571897715330123901e-01
-1.171102821826934814e-01
1.711755841970443726e-01
3.402163982391357422e-01
-1.513589322566986084e-01
-8.599479496479034424e-02
1.341048330068588257e-01
1.226073279976844788e-01
-5.166355054825544357e-03
9.018666297197341919e-02
-4.115910455584526062e-02
8.565235882997512817e-03
7.278737425804138184e-02
1.152498871088027954e-01
-2.666709721088409424e-01
-2.034803330898284912e-01
-9.791722148656845093e-02
-1.105007529258728027e-01
-1.781404167413711548e-01
-1.746516078710556030e-01
8.252596110105514526e-02
6.469728797674179077e-02
-1.335978209972381592e-01
-9.489638358354568481e-02
-1.659131199121475220e-01
-1.322386264801025391e-01
2.212665858678519726e-04
-4.463944584131240845e-02
-9.046740829944610596e-02
-1.022521033883094788e-01
4.153508320450782776e-02
3.581011667847633362e-02
6.928003579378128052e-02
-1.463899016380310059e-01
-8.778440952301025391e-02
7.563681900501251221e-02
-1.009647920727729797e-01
-3.762224316596984863e-02
-7.344651967287063599e-02
-1.310952380299568176e-02
-1.799006313085556030e-01
3.635678812861442566e-02
-1.039314195513725281e-01
-3.456306457519531250e-02
-4.642851650714874268e-02
9.733019396662712097e-03
2.777638100087642670e-02
-1.453895866870880127e-02
4.525325074791908264e-02
-9.393560700118541718e-03
1.063423231244087219e-01
2.473573833703994751e-01
1.288784854114055634e-02
-9.790741652250289917e-02
2.981500327587127686e-02
6.935560703277587891e-02
-3.746898472309112549e-02
-2.535016834735870361e-02
-2.074954658746719360e-01
1.743871122598648071e-01
8.014524355530738831e-03
6.029130145907402039e-02
-2.199042290449142456e-01
-2.908066809177398682e-01
-1.222937479615211487e-01
1.216534874401986599e-03
2.321514189243316650e-01
1.231441274285316467e-01
-1.295070946216583252e-01
-2.832246012985706329e-02
2.032112628221511841e-01
1.178411319851875305e-01
-6.573416292667388916e-02
7.122477889060974121e-02
1.052471250295639038e-01
6.767830252647399902e-02
5.598804354667663574e-02
-2.138954550027847290e-01
-1.408048868179321289e-01
-1.981727778911590576e-01
-8.688516169786453247e-02
-8.692991733551025391e-02
-1.728205531835556030e-01
-2.379509806632995605e-01
-1.096346899867057800e-01
-4.477607458829879761e-02
-1.541040390729904175e-01
-2.711779475212097168e-01
-1.340156495571136475e-01
-6.669709831476211548e-02
1.281509269028902054e-02
-1.225852668285369873e-01
-7.096181809902191162e-02
-6.861917674541473389e-02
-5.437708273530006409e-02
-1.416466534137725830e-01
-2.896635979413986206e-02
-3.926631808280944824e-02
-9.141616523265838623e-02
-2.388329505920410156e-01
-7.003255933523178101e-02
-1.365166604518890381e-01
-4.844934120774269104e-02
-2.625777944922447205e-02
3.998026996850967407e-02
-1.045140624046325684e-01
-1.792442202568054199e-01
-1.339420974254608154e-01
4.898903891444206238e-03
-3.815794736146926880e-02
-1.297876685857772827e-01
-6.934493780136108398e-02
-6.296756910160183907e-04
-1.125247627496719360e-01
-5.613862350583076477e-02
8.637040108442306519e-02
-2.367542386054992676e-01
4.654798656702041626e-02
3.352068737149238586e-02
4.271268844604492188e-02
4.285627603530883789e-02
6.304463744163513184e-02
2.092925757169723511e-01
2.248646765947341919e-01
5.503384396433830261e-02
-4.626897629350423813e-03
-1.071955934166908264e-01
-8.247218281030654907e-02
-1.979009062051773071e-02
-1.239869296550750732e-01
3.299419581890106201e-02
1.553359627723693848e-01
1.547615379095077515e-01
-6.514654308557510376e-02
3.653585538268089294e-02
1.390892118215560913e-01
2.994446642696857452e-02
6.586925685405731201e-02
-2.641500532627105713e-02
6.784234941005706787e-02
1.396672725677490234e-01
2.338186278939247131e-02
-2.453802898526191711e-02
6.173121184110641479e-02
1.627698242664337158e-01
-1.272064298391342163e-01
7.890698313713073730e-02
-1.149148195981979370e-01
-2.205822318792343140e-01
1.739447563886642456e-02
8.199632912874221802e-02
2.943883184343576431e-03
8.661094121634960175e-03
-8.031149208545684814e-02
3.659311309456825256e-02
-2.722463198006153107e-02
1.085491292178630829e-02
1.853344589471817017e-02
5.855658091604709625e-03
2.083638869225978851e-02
7.872725278139114380e-02
2.862072549760341644e-02
1.357381045818328857e-01
5.642921477556228638e-02
-1.108862459659576416e-02
6.421671062707901001e-02
1.005135923624038696e-01
7.836650311946868896e-02
8.741582743823528290e-03
-3.280878439545631409e-02
6.537891924381256104e-02
2.565198540687561035e-01
6.581670790910720825e-02
-9.604507684707641602e-02
-1.105582490563392639e-01
-1.561397016048431396e-01
-2.770869433879852295e-01
5.258343368768692017e-02
-6.015438120812177658e-03
-1.036737188696861267e-01
3.370328247547149658e-02
6.549881305545568466e-03
8.514533936977386475e-02
-1.749232038855552673e-02
5.432187765836715698e-02
2.372317202389240265e-02
-1.534330565482378006e-02
1.283013373613357544e-01
5.325257033109664917e-02
-1.099690422415733337e-02
-2.794645726680755615e-01
2.129214257001876831e-02
-9.490835480391979218e-03
-1.650031805038452148e-01
-2.627015411853790283e-01
-2.981840968132019043e-01
-1.057844907045364380e-01
-8.313897252082824707e-02
-1.000155657529830933e-01
1.511250883340835571e-01
3.151766955852508545e-03
5.626056715846061707e-02
7.963910698890686035e-02
9.905656427145004272e-02
7.990387827157974243e-02
6.100370665080845356e-04
1.176461055874824524e-01
7.033955305814743042e-02
-5.851951986551284790e-02
-6.106212362647056580e-02
1.625788658857345581e-01
1.294915080070495605e-01
-5.741601809859275818e-03
-1.716410964727401733e-01
1.271719485521316528e-01
5.564269423484802246e-02
-9.954088181257247925e-02
6.999564170837402344e-02
1.043439060449600220e-01
-2.432825565338134766e-01
-5.895663797855377197e-02
-1.280647329986095428e-02
1.653661727905273438e-01
-1.255935579538345337e-01
-1.941982656717300415e-01
-6.845874339342117310e-02
2.864700509235262871e-03
-2.715019322931766510e-02
-4.609512910246849060e-02
-1.867806017398834229e-01
-2.679559886455535889e-01
-2.240713536739349365e-01
-1.307600457221269608e-02
-1.480063423514366150e-02
2.811426483094692230e-02
6.876349449157714844e-03
-8.727929741144180298e-02
-6.816159933805465698e-02
8.987877517938613892e-02
-4.946165159344673157e-02
-2.420383319258689880e-02
-8.069750852882862091e-03
2.499763853847980499e-02
3.541223332285881042e-02
1.709998697042465210e-01
7.356917858123779297e-02
-6.458768155425786972e-03
4.612526670098304749e-02
1.741727888584136963e-01
-1.190757900476455688e-01
-3.701057657599449158e-02
-2.028310149908065796e-01
-3.040511347353458405e-02
4.035695642232894897e-02
4.321841523051261902e-03
4.471485316753387451e-02
6.389640271663665771e-02
-5.048233270645141602e-02
-9.606572985649108887e-02
-1.033953130245208740e-01
2.054074108600616455e-01
-7.645159214735031128e-02
8.649742603302001953e-02
4.129281640052795410e-02
1.094406917691230774e-01
-3.993858583271503448e-03
7.634612917900085449e-02
1.110462173819541931e-01
-3.728501126170158386e-02
1.416985243558883667e-01
1.395873278379440308e-01
-6.856829673051834106e-02
1.342093646526336670e-01
2.206637263298034668e-01
3.483070433139801025e-02
8.409444987773895264e-02
1.957870572805404663e-01
1.316143870353698730e-01
-1.993064768612384796e-02
-1.337280422449111938e-01
-1.007649302482604980e-01
-8.312685042619705200e-02
-3.787419572472572327e-02
-2.031783573329448700e-02
-2.648665569722652435e-02
-4.225592315196990967e-02
4.781055450439453125e-02
1.222531720995903015e-01
-1.508458554744720459e-01
3.171205520629882812e-03
-2.253629118204116821e-01
-2.960224635899066925e-02
-1.753477305173873901e-01
-6.445696949958801270e-02
-5.575273558497428894e-02
-7.281693071126937866e-02
-5.202915146946907043e-02
-5.129201337695121765e-02
-3.748465329408645630e-02
-2.428069338202476501e-02
1.056005284190177917e-01
7.692279666662216187e-02
-1.213600952178239822e-02
-5.363651365041732788e-02
-6.259886175394058228e-02
1.943943202495574951e-01
1.599072478711605072e-02
9.512881934642791748e-02
7.306326925754547119e-02
9.716350585222244263e-02
6.971661746501922607e-02
4.853832069784402847e-05
3.501779586076736450e-02
-3.158156946301460266e-02
3.901996091008186340e-02
-5.983668193221092224e-02
-5.238082259893417358e-02
7.581006735563278198e-02
-9.583371691405773163e-03
1.204569172114133835e-02
2.067123353481292725e-02
-1.476806700229644775e-01
-1.169340908527374268e-01
1.142338514328002930e-01
4.378268122673034668e-02
1.278170645236968994e-01
2.852462045848369598e-02
9.885430335998535156e-02
2.219981551170349121e-01
-1.155746355652809143e-01
1.563991978764533997e-02
2.188529260456562042e-02
1.716885343194007874e-02
-2.127115875482559204e-01
1.550481319427490234e-01
1.827326267957687378e-01
-1.203053966164588928e-01
-2.176753878593444824e-01
-9.916846454143524170e-02
-9.390793740749359131e-02
8.927864022552967072e-03
-1.266627460718154907e-01
5.442623421549797058e-02
2.372286096215248108e-02
3.775690868496894836e-02
-5.081328004598617554e-02
2.585672959685325623e-02
2.544494159519672394e-02
1.320635825395584106e-01
1.182541673188097775e-04
1.312519609928131104e-01
7.742682844400405884e-02
-3.387316688895225525e-02
5.517139099538326263e-03
1.421158909797668457e-01
7.825944572687149048e-02
-1.588250696659088135e-01
-5.788715928792953491e-02
1.809642761945724487e-01
9.605922736227512360e-03
-1.077438890933990479e-01
7.743385434150695801e-02
9.285060316324234009e-02
-1.122023016214370728e-01
7.607775926589965820e-02
-4.017135873436927795e-02
-1.811699271202087402e-01
-9.333380311727523804e-02
4.816653206944465637e-02
-1.178303509950637817e-01
2.608400397002696991e-02
9.162177890539169312e-02
1.218388304114341736e-01
-3.336598575115203857e-01
-1.787011325359344482e-01
6.483443826436996460e-02
-3.257674351334571838e-02
-9.455699473619461060e-02
8.834122866392135620e-02
2.178305760025978088e-02
-1.374874860048294067e-01
-5.413905903697013855e-02
-6.565651390701532364e-03
-1.044576540589332581e-01
-2.076272964477539062e-01
6.880020257085561752e-03
-1.236950233578681946e-01
-1.266580820083618164e-01
-2.118357084691524506e-02
-5.577366426587104797e-02
-1.593291312456130981e-01
-2.800475060939788818e-01
1.372318901121616364e-02
-1.680757966823875904e-03
3.044253215193748474e-02
-5.671876948326826096e-03
-5.550917703658342361e-03
4.466512706130743027e-03
6.427124608308076859e-03
-1.242468599230051041e-02
5.714783910661935806e-03
-1.152747124433517456e-02
-1.740127103403210640e-03
-1.178506202995777130e-02
1.633847691118717194e-02
-3.110701031982898712e-02
-1.406557112932205200e-02
1.543317735195159912e-02
-2.937250398099422455e-02
5.986061878502368927e-04
-1.124558504670858383e-02
-1.928203105926513672e-01
-6.029758602380752563e-02
4.732703790068626404e-02
-2.166485637426376343e-01
-2.915457785129547119e-01
-5.141150578856468201e-02
-5.746387690305709839e-02
-1.580129265785217285e-01
-1.957888007164001465e-01
-5.743792653083801270e-02
1.115567907691001892e-01
8.543094620108604431e-03
-1.597404032945632935e-01
1.148230358958244324e-01
-1.030402034521102905e-01
-3.956261277198791504e-02
-9.246903657913208008e-02
-5.334678292274475098e-02
-4.787996783852577209e-02
1.083366647362709045e-01
5.188598111271858215e-02
-1.608648151159286499e-02
4.620984196662902832e-02
1.771689057350158691e-01
1.916442215442657471e-01
1.768312044441699982e-02
-9.076935052871704102e-02
7.807678729295730591e-02
-2.502892632037401199e-03
5.460692942142486572e-02
4.490789398550987244e-02
-1.634417474269866943e-02
8.064916729927062988e-02
1.628012210130691528e-01
6.587378680706024170e-02
-1.221258789300918579e-01
1.910793036222457886e-02
1.054544150829315186e-01
-8.353558182716369629e-02
-1.443696320056915283e-01
-1.673332005739212036e-01
-7.233031094074249268e-02
-1.477369368076324463e-01
-1.491623222827911377e-01
-1.994667761027812958e-02
-1.117582321166992188e-01
-1.556873507797718048e-02
1.327693611383438110e-01
-1.638123020529747009e-02
3.907999023795127869e-02
4.586247354745864868e-02
1.368144899606704712e-01
8.401583880186080933e-02
9.818341583013534546e-03
-6.843256205320358276e-02
-6.940938532352447510e-02
4.774612933397293091e-02
5.013332143425941467e-02
4.874469339847564697e-02
8.789604902267456055e-02
1.049178913235664368e-01
1.169895976781845093e-01
-4.105959087610244751e-02
-4.301310982555150986e-03
1.876136660575866699e-02
-1.241168472915887833e-02
-1.075642779469490051e-01
-2.046810984611511230e-01
5.036098882555961609e-02
9.575138799846172333e-03
2.569101192057132721e-02
-8.614466339349746704e-02
4.835349693894386292e-02
-1.842513978481292725e-01
1.178153008222579956e-01
1.727996394038200378e-03
5.715712159872055054e-02
2.092390134930610657e-02
-5.629050731658935547e-02
-2.687292546033859253e-02
-6.753128021955490112e-02
-2.736489102244377136e-02
1.087515428662300110e-02
5.906906351447105408e-02
-1.660731062293052673e-02
3.994796052575111389e-02
-2.827449515461921692e-02
-8.710187673568725586e-02
-6.301701068878173828e-02
-2.896040081977844238e-01
-1.521235406398773193e-01
-8.384577184915542603e-02
-4.162564128637313843e-02
-1.414649467915296555e-02
1.754937507212162018e-02
-3.680674731731414795e-02
-1.281146109104156494e-01
5.955077335238456726e-02
-6.795533746480941772e-02
1.087612099945545197e-02
-6.501122564077377319e-02
1.151125282049179077e-01
-1.134173646569252014e-01
-2.377297915518283844e-02
-8.936253935098648071e-02
-1.770702749490737915e-02
9.375136345624923706e-02
1.717673838138580322e-01
1.490316838026046753e-01
9.703603386878967285e-02
1.154739111661911011e-01
-2.562480978667736053e-02
2.769671566784381866e-02
-1.214874908328056335e-01
-2.150329016149044037e-02
6.282438337802886963e-02
7.319498807191848755e-02
7.290053367614746094e-02
-1.882315799593925476e-02
-1.305185407400131226e-01
-1.372342854738235474e-01
-1.183112412691116333e-01
4.168330505490303040e-02
-1.733727566897869110e-02
6.668605655431747437e-02
-5.316703394055366516e-02
1.837262883782386780e-02
7.226029410958290100e-03
2.699215151369571686e-02
7.515294477343559265e-03
-8.529496379196643829e-03
-7.588592916727066040e-02
5.219546332955360413e-02
5.376489460468292236e-02
1.731649041175842285e-01
1.303741335868835449e-01
-1.411273237317800522e-02
1.637995988130569458e-01
1.246626973152160645e-01
2.951862988993525505e-04
-5.673025920987129211e-02
2.561723627150058746e-02
-5.334473028779029846e-02
-3.293303400278091431e-02
-6.074960902333259583e-02
-5.151486769318580627e-02
-1.189973577857017517e-02
-9.442880749702453613e-02
-5.668680369853973389e-02
-2.307073026895523071e-01
-8.165208995342254639e-02
-5.604325607419013977e-02
-9.983918070793151855e-02
-3.321564570069313049e-02
3.246505558490753174e-02
-1.079015713185071945e-02
-3.228173777461051941e-02
9.051138907670974731e-02
-1.665200442075729370e-01
-1.736705303192138672e-01
-1.144176572561264038e-01
-7.184322178363800049e-02
-1.183398254215717316e-02
8.898324519395828247e-02
1.741302609443664551e-01
-5.223285406827926636e-02
-5.232590436935424805e-02
6.002146750688552856e-02
-1.856690831482410431e-02
-1.150246933102607727e-01
-1.122080609202384949e-01
-5.532893165946006775e-02
-1.175587251782417297e-01
-2.847206406295299530e-02
1.331893354654312134e-01
1.884959340095520020e-01
-4.317263141274452209e-03
1.335733681917190552e-01
7.913328707218170166e-02
-1.095105409622192383e-01
-1.204258203506469727e-01
-3.251208364963531494e-02
3.098165988922119141e-02
-1.947179138660430908e-01
-4.748891294002532959e-02
-1.187693141400814056e-02
3.302082791924476624e-02
-1.275815069675445557e-01
6.571227218955755234e-03
4.861624166369438171e-02
-5.004368722438812256e-02
-8.876644074916839600e-03
1.434042025357484818e-02
-6.084281206130981445e-02
-2.251108363270759583e-02
-7.159292697906494141e-02
8.997383527457714081e-03
-2.601759694516658783e-02
4.171917587518692017e-02
-7.583522237837314606e-03
-4.195975884795188904e-02
7.369880098849534988e-03
-1.305114850401878357e-02
-4.705625772476196289e-02
-1.394681539386510849e-02
9.729791054269298911e-05
-9.565775841474533081e-02
-3.501058742403984070e-02
7.415593136101961136e-03
-1.094237342476844788e-02
-9.803009033203125000e-02
-1.459958702325820923e-01
9.510846436023712158e-02
-2.082383818924427032e-02
-1.872373223304748535e-01
-1.012527942657470703e-01
-6.481392309069633484e-03
-1.140509769320487976e-01
-2.060667239129543304e-02
-1.890866309404373169e-01
-8.054607361555099487e-02
-5.127048492431640625e-02
-1.334495246410369873e-01
1.621126532554626465e-01
7.925997674465179443e-02
-4.455914720892906189e-02
-2.028328478336334229e-01
7.880360633134841919e-02
3.280664235353469849e-02
-8.016393333673477173e-02
-2.070733308792114258e-01
5.370641499757766724e-02
-1.426915545016527176e-02
-6.131568923592567444e-02
-1.868527084589004517e-01
-8.908943831920623779e-02
4.892066866159439087e-02
2.228106744587421417e-02
-1.668172143399715424e-02
8.668058365583419800e-02
1.027303189039230347e-01
-8.497505635023117065e-02
1.572730988264083862e-01
7.788279652595520020e-02
2.045463472604751587e-01
-3.292249515652656555e-02
1.315822005271911621e-01
1.310602873563766479e-01
-7.721039652824401855e-02
-4.475183784961700439e-02
-4.673561453819274902e-02
1.662688702344894409e-01
2.750563919544219971e-01
9.060179442167282104e-02
-1.373265497386455536e-02
4.082012549042701721e-02
-1.959675177931785583e-02
6.684108078479766846e-02
-7.367928046733140945e-03
2.323533594608306885e-02
-5.073540378361940384e-03
-1.060537174344062805e-01
1.521897017955780029e-01
4.247278869152069092e-01
6.988253444433212280e-02
-2.139831520617008209e-02
1.043986380100250244e-01
1.083487346768379211e-01
-3.428093157708644867e-03
5.411997064948081970e-02
-1.719534695148468018e-01
7.653488963842391968e-02
8.955951780080795288e-02
3.190763667225837708e-02
5.727034527808427811e-03
6.429898738861083984e-02
1.276292651891708374e-01
3.071720153093338013e-02
-1.005253121256828308e-01
1.738090217113494873e-01
1.788465380668640137e-01
5.186771973967552185e-02
-1.327228695154190063e-01
7.781930267810821533e-02
8.331032097339630127e-02
3.239920362830162048e-02
-3.591392934322357178e-02
-8.270309120416641235e-02
-6.612820923328399658e-02
-3.259832412004470825e-02
-1.011408716440200806e-01
6.074066087603569031e-02
-3.643522784113883972e-02
-1.018248125910758972e-01
3.550364449620246887e-02
-3.072988614439964294e-02
1.077196672558784485e-01
4.003633186221122742e-02
3.007301874458789825e-02
-4.100161790847778320e-02
1.214189641177654266e-02
-7.513693720102310181e-02
-7.858540862798690796e-02
1.022920086979866028e-01
-5.195181071758270264e-02
-1.239395961165428162e-01
-9.761705249547958374e-02
2.310181558132171631e-01
1.065983995795249939e-01
-6.356211006641387939e-02
-2.464988268911838531e-02
1.511293351650238037e-01
1.293836385011672974e-01
-4.715530201792716980e-02
8.867695927619934082e-02
1.492477953433990479e-01
5.987658351659774780e-02
-4.991190135478973389e-02
1.439114511013031006e-01
5.185287445783615112e-02
5.341893434524536133e-02
9.626379236578941345e-03
-1.125027909874916077e-01
7.703624665737152100e-02
1.226659193634986877e-01
-1.793159358203411102e-02
9.708480536937713623e-02
3.621480986475944519e-02
2.496408820152282715e-01
7.628978230059146881e-03
1.797681092284619808e-03
-8.580206334590911865e-02
-4.458235204219818115e-02
-8.278595656156539917e-02
-4.639256373047828674e-02
-1.911020129919052124e-01
7.412504404783248901e-02
-5.974607542157173157e-02
2.279821038246154785e-01
1.366257816553115845e-01
1.130926609039306641e-01
2.267058007419109344e-02
2.547271177172660828e-02
7.943973690271377563e-02
-1.227486804127693176e-01
-1.502084434032440186e-01
-6.764869391918182373e-02
8.250098675489425659e-02
9.732969105243682861e-02
-5.149498581886291504e-02
-8.963866531848907471e-02
-6.254097074270248413e-02
-9.360277652740478516e-02
3.590911626815795898e-02
-1.536204814910888672e-01
1.323781535029411316e-02
1.087802089750766754e-02
-1.564182713627815247e-02
-3.118988573551177979e-01
-8.574629202485084534e-03
5.277051404118537903e-02
1.018454506993293762e-01
9.683327376842498779e-02
2.594733797013759613e-02
5.698217079043388367e-02
9.450949728488922119e-02
5.665418878197669983e-02
-4.602491483092308044e-02
-1.173570379614830017e-01
-5.564041435718536377e-03
5.001634359359741211e-02
-2.593548735603690147e-03
-8.832686394453048706e-02
3.395749628543853760e-02
-1.202756389975547791e-01
-1.343796104192733765e-01
6.841193418949842453e-03
8.513205498456954956e-02
-1.355818808078765869e-01
-1.221685633063316345e-01
-1.039176955819129944e-01
-8.681265264749526978e-02
-1.200782358646392822e-01
6.438356637954711914e-02
1.337471306324005127e-01
9.526474401354789734e-03
5.857770517468452454e-02
3.493348485790193081e-04
-3.155492991209030151e-02
-1.266386806964874268e-01
-1.316423714160919189e-01
-4.425491392612457275e-02
-2.075957953929901123e-01
-6.872107833623886108e-02
1.324774920940399170e-01
-2.098389901220798492e-02
-2.989139780402183533e-02
-2.396178059279918671e-02
-1.471894383430480957e-01
-4.161233827471733093e-02
-1.235690489411354065e-01
-2.280419915914535522e-01
6.074157357215881348e-02
-6.568698212504386902e-03
4.381148517131805420e-02
-1.521692574024200439e-01
2.629551105201244354e-02
-5.882404372096061707e-02
-2.205750644207000732e-01
3.204786684364080429e-03
-1.565012633800506592e-01
-3.106537163257598877e-01
-2.589208781719207764e-01
-1.659836620092391968e-01
2.676847204566001892e-02
4.930344969034194946e-02
-1.988202147185802460e-02
6.264946609735488892e-02
-6.316926330327987671e-02
-2.693286538124084473e-02
-7.944865524768829346e-02
4.758903011679649353e-02
-1.904899477958679199e-01
1.463980376720428467e-01
2.331736832857131958e-01
-2.412594668567180634e-02
4.860395193099975586e-02
1.389047652482986450e-01
6.892413645982742310e-02
-1.305557042360305786e-02
5.036729201674461365e-02
3.545038774609565735e-02
2.564651332795619965e-02
2.761523239314556122e-03
-1.676383465528488159e-01
-8.980236947536468506e-02
-8.999699354171752930e-02
-1.178246736526489258e-01
-1.116881668567657471e-01
-2.133676111698150635e-01
4.009312484413385391e-03
-3.284827573224902153e-03
1.471980661153793335e-01
2.574269019532948732e-04
-6.817199289798736572e-02
-2.740996144711971283e-02
-1.055616587400436401e-01
-1.094753220677375793e-01
1.918679475784301758e-01
-4.145622253417968750e-03
7.910691946744918823e-02
-1.459218654781579971e-02
-1.781789958477020264e-01
-1.987546384334564209e-01
9.302859008312225342e-02
-1.638241671025753021e-02
-2.414245307445526123e-01
-2.766880691051483154e-01
-6.210533156991004944e-02
-3.496991470456123352e-02
-5.991991236805915833e-02
-5.639322102069854736e-03
-1.168915331363677979e-01
-9.055980294942855835e-02
-2.435920983552932739e-01
-1.185236051678657532e-01
-9.927612543106079102e-02
-1.090835258364677429e-01
-9.301861748099327087e-03
-8.836830966174602509e-03
-1.652346551418304443e-01
-1.151583623141050339e-02
-7.495007943361997604e-03
-1.360900234431028366e-02
-3.601501509547233582e-02
-1.432478427886962891e-01
-2.313362509012222290e-01
-1.637463271617889404e-01
-9.863527119159698486e-02
-2.174225077033042908e-02
2.127714641392230988e-02
-1.121052424423396587e-03
-1.621429920196533203e-01
-2.066421508789062500e-02
-1.199622750282287598e-01
-8.731527626514434814e-02
-7.731886208057403564e-02
-9.789841715246438980e-04
-3.632353618741035461e-02
-2.901486754417419434e-01
7.636637240648269653e-02
3.804406523704528809e-02
5.945229902863502502e-02
5.623666942119598389e-02
-6.522877514362335205e-02
3.734134370461106300e-03
9.706020355224609375e-02
-2.095134928822517395e-02
-1.382698714733123779e-01
-1.245516836643218994e-01
-5.550578236579895020e-02
-3.287992626428604126e-02
-1.596109271049499512e-01
-1.777629107236862183e-01
5.666959565132856369e-03
-4.863461852073669434e-02
-1.079471334815025330e-01
2.651578001677989960e-02
1.546823605895042419e-02
-9.901978075504302979e-02
-2.005714625120162964e-01
-4.851461271755397320e-04
4.924701899290084839e-02
4.869908094406127930e-02
9.470119327306747437e-02
5.638754367828369141e-02
1.874955743551254272e-01
-7.668494433164596558e-02
3.686833381652832031e-02
1.729708351194858551e-02
-3.852048143744468689e-02
-1.891362965106964111e-01
-1.011598482728004456e-02
-2.245398238301277161e-02
5.868793651461601257e-02
-1.860756874084472656e-01
-3.471671370789408684e-03
5.322617013007402420e-03
-3.600357100367546082e-03
9.478867053985595703e-03
3.884454444050788879e-02
-3.356378152966499329e-02
-2.995036169886589050e-02
-2.225065231323242188e-01
1.782192736864089966e-01
2.444487251341342926e-02
-7.118309289216995239e-02
-1.544042676687240601e-01
2.324599474668502808e-01
2.168656326830387115e-02
5.354371294379234314e-02
4.858214035630226135e-02
-4.272488877177238464e-02
-2.138503082096576691e-02
-4.226158931851387024e-02
1.469368580728769302e-02
-2.417833916842937469e-02
3.221859456971287727e-03
-5.122933909296989441e-02
2.502094954252243042e-02
-1.320836693048477173e-01
-1.806824207305908203e-01
2.783237770199775696e-02
-9.046906232833862305e-02
8.926943689584732056e-02
1.037800014019012451e-01
8.105508983135223389e-02
4.763445630669593811e-02
-5.878615006804466248e-02
2.612338960170745850e-02
1.156202480196952820e-01
5.132766091264784336e-04
4.696006700396537781e-02
-6.102530169300734997e-04
-6.274303048849105835e-02
2.233314700424671173e-02
-3.942392021417617798e-02
-5.299416184425354004e-02
-7.111684232950210571e-02
-5.453269183635711670e-02
1.461713463068008423e-01
1.381326019763946533e-01
2.157561630010604858e-01
1.351225972175598145e-01
9.598382562398910522e-02
1.152459308505058289e-01
6.077875569462776184e-02
-2.129052206873893738e-02
5.537272617220878601e-02
-3.899286314845085144e-02
1.125769689679145813e-01
-6.847766041755676270e-02
-1.444569043815135956e-02
3.318830206990242004e-02
6.857884675264358521e-02
-5.776684358716011047e-02
-6.265831738710403442e-02
-6.566480547189712524e-02
-1.047253794968128204e-02
-2.222724556922912598e-01
2.409017086029052734e-02
-2.186188474297523499e-02
-7.063903845846652985e-03
-2.139682881534099579e-02
-4.599056392908096313e-02
-1.127772927284240723e-01
-1.604047268629074097e-01
3.575295582413673401e-02
-8.019106835126876831e-02
-1.989255659282207489e-02
-6.074533611536026001e-02
-9.462843090295791626e-02
4.357410129159688950e-03
-6.130057573318481445e-02
-5.459168180823326111e-02
-1.512976177036762238e-02
-4.778121365234255791e-04
-6.436542421579360962e-02
-2.776193805038928986e-02
-8.996567875146865845e-02
1.568045914173126221e-01
4.412689432501792908e-02
-1.530329138040542603e-01
-2.017508086282759905e-05
7.980629801750183105e-02
-1.670394279062747955e-02
-2.780536115169525146e-01
1.792533993721008301e-01
-4.581922292709350586e-02
-1.396410018205642700e-01
-1.278349459171295166e-01
-6.460582464933395386e-02
6.571508944034576416e-02
8.500482141971588135e-02
1.935889571905136108e-02
-5.372818559408187866e-03
3.415835648775100708e-02
-1.394897103309631348e-01
-6.451999396085739136e-02
-4.116451367735862732e-02
3.415467590093612671e-02
1.966381072998046875e-02
-3.657487407326698303e-02
-6.984446197748184204e-02
6.946587935090065002e-03
1.629073768854141235e-01
1.191621199250221252e-01
2.683940157294273376e-02
-2.768807485699653625e-02
-7.257119566202163696e-02
6.335511058568954468e-02
-3.021131083369255066e-02
5.127960816025733948e-02
5.544625595211982727e-02
8.747591823339462280e-02
1.315674632787704468e-01
2.844333834946155548e-02
9.370021522045135498e-02
3.194367289543151855e-01
6.776179373264312744e-02
-7.547422498464584351e-02
8.612944930791854858e-02
1.980533301830291748e-01
3.470733016729354858e-02
6.030384078621864319e-02
1.773526333272457123e-02
1.680134423077106476e-02
-3.160424530506134033e-02
-6.916578859090805054e-02
-4.502018913626670837e-02
4.151321202516555786e-02
-2.197558730840682983e-01
-1.244175285100936890e-01
1.204875260591506958e-01
8.731309324502944946e-02
-1.801441609859466553e-01
-1.030460279434919357e-02
2.252017147839069366e-02
-5.072627216577529907e-02
8.187844604253768921e-02
-2.325008995831012726e-02
-1.090350896120071411e-01
-1.991716586053371429e-02
1.616842746734619141e-01
9.047316014766693115e-02
5.571313574910163879e-02
1.044221818447113037e-01
4.363479465246200562e-02
-5.889014899730682373e-02
-1.080434694886207581e-01
-1.343855261802673340e-01
-1.396459043025970459e-01
-5.043419823050498962e-02
-1.222069468349218369e-02
3.842698410153388977e-02
-1.182312518358230591e-01
1.027712225914001465e-01
1.180689632892608643e-01
1.084874123334884644e-01
1.034671887755393982e-01
1.140249297022819519e-01
-3.033305704593658447e-02
-4.907087236642837524e-02
8.930413424968719482e-02
-5.824432708323001862e-03
-2.061557769775390625e-02
-1.104918420314788818e-01
-2.550862170755863190e-02
6.251281499862670898e-02
1.629431173205375671e-02
2.352200215682387352e-03
1.348516494035720825e-01
-3.326826170086860657e-02
-3.541024029254913330e-02
2.096814662218093872e-02
1.194345578551292419e-01
-7.952721416950225830e-02
-6.355819106101989746e-02
8.208300918340682983e-02
4.608911648392677307e-02
6.835098564624786377e-02
3.009755536913871765e-02
1.010187938809394836e-01
2.092437259852886200e-02
4.588576499372720718e-03
-3.496482968330383301e-02
1.218298599123954773e-01
-7.142969965934753418e-02
1.880647242069244385e-02
-8.310794830322265625e-02
-5.937763303518295288e-02
2.791763655841350555e-02
-3.570075333118438721e-02
-7.524941861629486084e-02
-4.216559231281280518e-03
9.816256165504455566e-02
9.595633298158645630e-02
-1.710948944091796875e-01
2.254613675177097321e-02
9.663731604814529419e-02
8.048047125339508057e-02
-1.462350785732269287e-01
-1.199476942420005798e-01
1.198290735483169556e-01
6.843800190836191177e-03
-4.839098826050758362e-02
1.308352202177047729e-01
6.819495558738708496e-02
6.410409510135650635e-02
1.550845503807067871e-01
2.872627787292003632e-02
7.798157632350921631e-02
-9.095855057239532471e-02
-8.630448579788208008e-02
3.987094759941101074e-02
2.325847372412681580e-02
7.063334435224533081e-02
-1.186282262206077576e-01
-1.339294165372848511e-01
4.454837180674076080e-03
1.370627284049987793e-01
4.191264137625694275e-02
7.710470259189605713e-02
-1.715924125164747238e-03
2.089400887489318848e-01
-1.484232097864151001e-01
6.480398774147033691e-02
1.920474767684936523e-01
1.996358484029769897e-01
5.160179361701011658e-02
-4.685345664620399475e-02
8.994171768426895142e-02
1.154643855988979340e-02
-1.974503695964813232e-01
-1.296149194240570068e-01
1.974836923182010651e-02
2.877363562583923340e-02
-5.615729093551635742e-02
2.966292947530746460e-02
-2.022322267293930054e-01
-7.907889783382415771e-02
1.427127271890640259e-01
1.345730572938919067e-01
-1.615044772624969482e-01
-2.364187538623809814e-01
-5.972892418503761292e-02
1.637424528598785400e-01
-9.265616536140441895e-03
5.540295317769050598e-02
-1.673610806465148926e-01
-1.218262091279029846e-01
-9.663279354572296143e-02
7.580694556236267090e-02
4.401840642094612122e-02
7.483378797769546509e-02
-2.124422462657094002e-03
5.944950878620147705e-02
1.400408893823623657e-01
2.544980347156524658e-01
-6.067708134651184082e-02
-1.001273468136787415e-01
-3.197625279426574707e-02
1.591182053089141846e-01
7.104228716343641281e-03
-9.934791177511215210e-02
-1.114609092473983765e-01
-5.123321712017059326e-02
-1.803339123725891113e-01
-5.874967947602272034e-02
7.507076952606439590e-04
-1.229119077324867249e-01
-9.767897427082061768e-02
4.370941594243049622e-02
8.435419201850891113e-02
-2.212158739566802979e-01
-1.008564531803131104e-01
8.134685456752777100e-02
1.765634864568710327e-01
1.219506859779357910e-01
-4.334586113691329956e-02
4.978512600064277649e-02
5.351166054606437683e-02
1.199203953146934509e-01
2.491426281630992889e-02
5.924392119050025940e-02
-1.573053188621997833e-02
7.982240058481693268e-03
1.718333177268505096e-02
-5.121362581849098206e-02
1.717051714658737183e-01
-2.714335918426513672e-02
8.508454263210296631e-02
-8.433156460523605347e-02
1.786703616380691528e-01
1.708402633666992188e-01
1.031443253159523010e-01
7.134850136935710907e-03
-8.879315108060836792e-02
-4.680890217423439026e-02
2.863793820142745972e-02
-5.424961075186729431e-02
2.281712368130683899e-02
6.883629411458969116e-02
2.343481965363025665e-02
5.467359349131584167e-02
8.663515001535415649e-02
1.263165920972824097e-01
3.756486997008323669e-02
8.092857152223587036e-02
1.448593735694885254e-01
1.090558767318725586e-01
2.023401558399200439e-01
1.046057716012001038e-01
1.898637264966964722e-01
-3.014463558793067932e-02
-6.745295226573944092e-02
9.621178358793258667e-02
1.498557031154632568e-01
1.141302809119224548e-01
-1.705444231629371643e-02
5.135073140263557434e-02
-1.417262107133865356e-01
1.074439436197280884e-01
5.178764462471008301e-02
-9.433556348085403442e-02
-5.781008396297693253e-03
3.899627551436424255e-02
1.215889975428581238e-01
6.480633467435836792e-02
-6.860914826393127441e-02
9.715225547552108765e-02
7.866790518164634705e-03
8.447831869125366211e-02
7.159008085727691650e-02
-1.273547857999801636e-02
-4.599567875266075134e-02
7.721137255430221558e-02
-5.820211023092269897e-02
-4.402707144618034363e-02
-3.447430673986673355e-03
5.308957397937774658e-02
1.247366443276405334e-01
9.604785591363906860e-02
-4.018236417323350906e-03
1.928668767213821411e-01
-9.967156685888767242e-03
-1.369437128305435181e-01
-2.719412185251712799e-02
-2.608123794198036194e-02
-5.536365136504173279e-02
-3.429662436246871948e-02
1.627886295318603516e-02
-5.492281168699264526e-02
5.538089200854301453e-02
1.479234546422958374e-01
-1.320225303061306477e-03
-3.437620401382446289e-02
1.093489527702331543e-01
8.455503731966018677e-02
8.742871135473251343e-02
-1.358590926975011826e-02
-7.104419916868209839e-02
6.576734781265258789e-02
2.132226973772048950e-01
1.020760238170623779e-01
2.274973690509796143e-02
8.097198605537414551e-02
-2.632451988756656647e-02
-5.591319128870964050e-02
2.502598240971565247e-02
-3.170275688171386719e-02
-1.240226700901985168e-01
-2.101696580648422241e-01
8.794074505567550659e-02
-7.329502701759338379e-02
-1.765199154615402222e-01
-4.860753566026687622e-02
-1.040860638022422791e-01
-6.441471725702285767e-02
-1.122143119573593140e-01
-1.447404325008392334e-01
-6.515211611986160278e-02
-1.206821650266647339e-01
-4.323497787117958069e-02
7.531343027949333191e-03
-6.908218562602996826e-02
-4.489473253488540649e-02
-4.248397052288055420e-02
-9.587560594081878662e-02
-1.956972107291221619e-02
5.106740444898605347e-02
-1.061591207981109619e-01
6.453885883092880249e-02
3.025422804057598114e-02
1.179799735546112061e-01
6.088655907660722733e-03
6.923068314790725708e-02
-4.771197959780693054e-02
-1.074537038803100586e-01
-9.169612824916839600e-02
5.553269758820533752e-02
1.658712327480316162e-01
2.011618465185165405e-01
6.085325405001640320e-02
8.197841793298721313e-02
1.070137917995452881e-01
7.610537111759185791e-02
9.779725968837738037e-02
9.372105449438095093e-02
9.590002894401550293e-02
-1.160793378949165344e-01
-1.440701354295015335e-02
-4.572473093867301941e-02
5.169245600700378418e-02
5.736153945326805115e-02
-1.295262277126312256e-01
4.224658012390136719e-02
3.227794170379638672e-02
7.409153133630752563e-02
1.804237216711044312e-01
1.270065605640411377e-01
1.552373766899108887e-01
1.159115284681320190e-01
1.681694295257329941e-03
4.219177737832069397e-02
-1.073730140924453735e-01
-7.490917295217514038e-02
-5.273164808750152588e-02
-7.117257267236709595e-02
5.466735363006591797e-02
-7.130111008882522583e-02
9.707054495811462402e-02
-1.428528428077697754e-01
-7.241114228963851929e-02
6.218200549483299255e-02
4.335315525531768799e-02
1.848358847200870514e-02
-1.036733761429786682e-01
-6.000244244933128357e-02
1.227328926324844360e-01
-2.247081510722637177e-02
-2.292019501328468323e-02
-3.591285645961761475e-02
5.023709684610366821e-02
-7.544226944446563721e-02
-1.485127583146095276e-02
-1.160107553005218506e-01
9.327703155577182770e-03
-3.118031658232212067e-02
-1.145106330513954163e-01
-9.197527915239334106e-02
-7.632324099540710449e-02
3.523483127355575562e-02
5.561055988073348999e-02
8.913673460483551025e-02
-4.685335606336593628e-02
1.291566640138626099e-01
8.936923742294311523e-02
5.210832133889198303e-02
5.165231972932815552e-02
6.481045857071876526e-03
1.040030121803283691e-01
1.516981869935989380e-01
2.846875414252281189e-02
6.027061119675636292e-02
1.468492150306701660e-01
2.645365893840789795e-02
1.712639778852462769e-01
-2.819478325545787811e-02
2.770056203007698059e-02
1.328010018914937973e-02
5.945488810539245605e-02
-1.241467967629432678e-01
6.171994656324386597e-02
8.822840452194213867e-02
3.909840434789657593e-02
-3.103847242891788483e-02
5.578421521931886673e-03
2.252381667494773865e-02
-3.445110470056533813e-02
2.901398390531539917e-02
5.027732346206903458e-03
1.096893916837871075e-03
1.002537101157940924e-04
1.191886980086565018e-02
-2.108507975935935974e-02
1.041397452354431152e-03
1.023257244378328323e-02
1.905363425612449646e-02
-1.264799106866121292e-02
-2.053783088922500610e-02
-1.553594879806041718e-02
-7.483384758234024048e-02
-1.414941847324371338e-01
1.506556756794452667e-02
-7.292673923075199127e-03
-7.378751039505004883e-02
3.994873538613319397e-02
3.427992016077041626e-02
2.277086256071925163e-03
-3.950035199522972107e-02
-3.891172632575035095e-02
-4.074573144316673279e-02
5.176291614770889282e-02
5.235508084297180176e-02
2.029846757650375366e-01
2.453190088272094727e-01
7.482685893774032593e-02
-5.153938755393028259e-02
5.498928949236869812e-02
1.139478981494903564e-01
6.907016038894653320e-02
-2.624102123081684113e-02
1.417322456836700439e-01
-2.283492125570774078e-02
-1.123671457171440125e-01
3.792516887187957764e-02
-2.567983232438564301e-02
-1.017013415694236755e-01
-3.804335743188858032e-02
7.104758918285369873e-02
-6.914294511079788208e-02
-3.247289359569549561e-02
1.113637834787368774e-01
4.109515249729156494e-02
3.893008455634117126e-02
7.543938606977462769e-02
-2.806292101740837097e-02
1.703879050910472870e-02
1.935862451791763306e-01
1.852658763527870178e-02
-3.976214677095413208e-02
-1.605090945959091187e-01
2.089682966470718384e-01
7.543610781431198120e-02
-9.048110991716384888e-02
-5.989529192447662354e-02
5.869800224900245667e-02
1.430348493158817291e-02
-2.512703090906143188e-02
1.332459300756454468e-01
1.486884355545043945e-01
-4.355973750352859497e-02
2.278727712109684944e-03
4.403598606586456299e-03
-4.452121630311012268e-02
-1.803907155990600586e-01
-2.314506024122238159e-01
4.446282237768173218e-02
-7.159227877855300903e-02
1.194194983690977097e-02
-1.070010513067245483e-01
5.342781543731689453e-03
-9.764502942562103271e-02
-1.738321781158447266e-01
-3.194144666194915771e-01
-1.382789015769958496e-02
4.496508836746215820e-02
5.015925318002700806e-02
-4.908175393939018250e-02
1.807087957859039307e-01
-1.074641477316617966e-02
1.384866684675216675e-01
5.485588684678077698e-02
1.587145775556564331e-02
2.267442457377910614e-02
-3.166333585977554321e-02
-1.340988576412200928e-01
-4.385434091091156006e-03
1.692689508199691772e-01
-2.261831797659397125e-02
1.193643659353256226e-01
-3.126694262027740479e-02
-1.644364558160305023e-02
-7.603368163108825684e-02
-1.002937704324722290e-01
-2.232323400676250458e-03
-5.243036523461341858e-02
-1.255495101213455200e-02
9.090865403413772583e-02
-4.833608493208885193e-02
-1.027207598090171814e-01
-6.203364208340644836e-02
8.220165222883224487e-02
8.703304454684257507e-03
-1.254136413335800171e-01
-2.745820442214608192e-03
2.695186529308557510e-03
-2.740022353827953339e-02
9.863398969173431396e-02
3.245950490236282349e-02
-4.859692603349685669e-02
3.897853195667266846e-02
-5.153926461935043335e-02
7.133335620164871216e-02
-2.675068005919456482e-02
8.109114132821559906e-03
-1.178119052201509476e-02
1.957015506923198700e-02
-4.095770046114921570e-02
-5.613289773464202881e-03
-1.215883642435073853e-01
-1.961121335625648499e-02
-8.562294393777847290e-02
4.176088795065879822e-02
1.540793180465698242e-01
9.540738910436630249e-02
1.247704550623893738e-01
-1.449570152908563614e-02
-5.481725931167602539e-02
-8.787984028458595276e-03
2.480865828692913055e-02
-3.007670864462852478e-02
-3.440551087260246277e-02
-2.040288597345352173e-02
4.455628991127014160e-02
-1.259223371744155884e-02
3.608943894505500793e-02
-1.086355894804000854e-01
-3.719139099121093750e-02
-1.114630252122879028e-01
-1.957433223724365234e-01
5.759137868881225586e-02
2.330210432410240173e-02
-4.920709133148193359e-02
9.445434808731079102e-02
-5.565856024622917175e-02
-9.818647988140583038e-03
-7.306950632482767105e-03
-1.079978048801422119e-01
2.847483567893505096e-02
8.829741273075342178e-05
-7.199349999427795410e-02
1.901725656352937222e-03
-8.748845756053924561e-02
1.206918340176343918e-02
-6.742728501558303833e-02
-1.114896778017282486e-02
-2.034118771553039551e-02
1.494198199361562729e-02
-3.939164429903030396e-02
-4.268261045217514038e-02
1.760474778711795807e-02
-3.491429612040519714e-03
1.943694427609443665e-02
1.331993937492370605e-01
1.412070728838443756e-02
-1.292465776205062866e-01
-4.519709199666976929e-02
2.608301490545272827e-02
6.476586312055587769e-02
-1.214690506458282471e-03
2.068161265924572945e-03
-3.510689735412597656e-02
1.237962096929550171e-01
-1.780710555613040924e-02
-3.643705323338508606e-02
-1.498023271560668945e-01
-9.050646424293518066e-02
4.744457453489303589e-02
-1.010290756821632385e-01
-7.122289389371871948e-02
-5.133696645498275757e-02
4.474094882607460022e-02
3.354737907648086548e-02
-7.375223562121391296e-03
-1.342280954122543335e-02
7.541301101446151733e-02
-5.642865970730781555e-02
-4.533166065812110901e-02
2.207212708890438080e-02
-4.558840021491050720e-02
-6.295475363731384277e-02
1.187097877264022827e-01
2.295646071434020996e-01
2.242121146991848946e-03
-7.096383720636367798e-03
7.106456905603408813e-02
7.408411800861358643e-02
1.371188648045063019e-02
-1.739587038755416870e-01
-1.092889681458473206e-01
4.690730012953281403e-03
-1.039882376790046692e-01
2.803688682615756989e-02
-2.901228331029415131e-02
-2.073055692017078400e-02
-2.152229193598031998e-03
-2.616502344608306885e-02
3.015707246959209442e-02
8.516333997249603271e-03
-2.960612066090106964e-02
-6.448773294687271118e-02
-5.587289854884147644e-02
-2.779196947813034058e-02
-1.296604331582784653e-02
3.326909849420189857e-03
-7.144545204937458038e-03
-5.737407505512237549e-02
-4.085193201899528503e-02
1.585262119770050049e-01
5.696571990847587585e-02
-5.783407762646675110e-02
2.560869604349136353e-02
1.537041515111923218e-01
7.322634011507034302e-02
7.795762270689010620e-02
-1.847782544791698456e-02
1.944474130868911743e-02
3.469979017972946167e-02
-2.118973247706890106e-02
-9.670766443014144897e-02
4.201871342957019806e-03
-1.227900311350822449e-01
-5.079440027475357056e-02
-1.065191328525543213e-01
1.560183893889188766e-02
-9.259544312953948975e-02
1.342705823481082916e-02
8.202154189348220825e-02
-3.458055434748530388e-04
-1.050752848386764526e-01
3.060351312160491943e-02
5.676912143826484680e-02
-6.040745973587036133e-02
-2.742790579795837402e-01
-7.955792546272277832e-02
-1.388501934707164764e-02
9.097373485565185547e-02
-6.405380088835954666e-03
1.573008596897125244e-01
6.926900893449783325e-02
7.194560766220092773e-02
1.040828227996826172e-01
-2.162574231624603271e-02
-2.062804996967315674e-03
-5.535921454429626465e-02
-1.510462611913681030e-01
4.318688809871673584e-02
5.265389382839202881e-02
5.776484683156013489e-02
-4.705972224473953247e-02
-1.056781262159347534e-01
5.631471052765846252e-02
-4.200713708996772766e-02
-1.379848718643188477e-01
1.586276665329933167e-02
1.214526370167732239e-01
4.482975602149963379e-02
-8.864375203847885132e-02
-1.371380537748336792e-01
-6.699492782354354858e-02
3.686296194791793823e-02
-8.025591820478439331e-02
-1.558511238545179367e-02
-1.126893982291221619e-01
8.810724318027496338e-02
3.839197382330894470e-02
1.030864310450851917e-03
-1.115613281726837158e-01
1.570874750614166260e-01
1.086734682321548462e-01
-4.955883137881755829e-03
6.978340446949005127e-02
1.255133152008056641e-01
4.193478822708129883e-02
-9.084680676460266113e-02
5.860103294253349304e-03
3.055242635309696198e-02
8.032611757516860962e-02
5.815061181783676147e-02
2.439633198082447052e-02
1.069751083850860596e-01
-1.460176240652799606e-02
8.247515559196472168e-02
1.884429901838302612e-02
4.217881709337234497e-02
-3.619598969817161560e-02
8.810711652040481567e-02
4.862177744507789612e-02
4.979619383811950684e-02
6.696653552353382111e-03
1.991888694465160370e-02
1.047062948346138000e-01
1.114864796400070190e-01
3.106805495917797089e-03
-1.079532280564308167e-01
-2.946760505437850952e-02
-4.866523202508687973e-03
-2.625818923115730286e-02
-8.992113173007965088e-03
5.906991288065910339e-02
4.726127907633781433e-02
-1.191105693578720093e-01
9.083061479032039642e-03
3.345490619540214539e-02
5.506072565913200378e-02
3.967316821217536926e-03
1.887198835611343384e-01
1.434602141380310059e-01
-5.327994003891944885e-02
5.399303883314132690e-02
-3.552411124110221863e-02
-3.010734915733337402e-02
-6.647955742664635181e-04
-2.787486836314201355e-02
4.073442518711090088e-02
4.513729736208915710e-02
1.039926931262016296e-01
2.177646011114120483e-02
-4.909596592187881470e-02
6.511454284191131592e-02
3.375485911965370178e-02
4.540855810046195984e-02
7.655673474073410034e-02
2.209887653589248657e-01
8.948148228228092194e-03
6.664594262838363647e-02
-4.658666998147964478e-02
1.264623254537582397e-01
-4.066911712288856506e-02
5.052822083234786987e-02
-4.101867973804473877e-02
-1.202818006277084351e-02
-7.737316936254501343e-02
7.379341125488281250e-02
-1.339066121727228165e-02
1.525072604417800903e-01
8.919978886842727661e-02
3.011398715898394585e-03
9.036318212747573853e-02
3.288532048463821411e-02
8.157474547624588013e-02
-1.786625012755393982e-02
-3.109462000429630280e-02
8.148298412561416626e-02
5.560955777764320374e-02
2.325484761968255043e-03
1.202321872115135193e-01
2.870892919600009918e-02
7.238603197038173676e-03
3.096200525760650635e-02
-6.696573644876480103e-02
5.418319627642631531e-02
-8.128966391086578369e-02
-1.087204143404960632e-01
-1.324183046817779541e-01
2.583298087120056152e-02
-3.081626445055007935e-02
1.286324262619018555e-01
7.401736080646514893e-02
-2.542197518050670624e-02
-9.754253923892974854e-02
3.082898072898387909e-02
-1.025611087679862976e-01
7.027678936719894409e-02
2.263115160167217255e-02
-6.825079675763845444e-03
9.261180646717548370e-03
6.198390200734138489e-02
8.609345555305480957e-02
-2.610491588711738586e-02
1.777835339307785034e-01
-3.292688354849815369e-02
1.987056061625480652e-02
-6.795679684728384018e-03
5.037434771656990051e-02
2.988562546670436859e-02
-1.436719484627246857e-02
-3.221281338483095169e-03
5.206513404846191406e-02
-6.266311556100845337e-02
-6.809149682521820068e-02
3.337418660521507263e-02
2.515802718698978424e-02
-5.312548205256462097e-02
3.970885183662176132e-03
-2.074305666610598564e-03
-8.398587256669998169e-02
-9.628387540578842163e-02
6.634765863418579102e-02
-6.647488474845886230e-02
-2.455204278230667114e-01
9.161108173429965973e-03
-3.163139522075653076e-02
-5.412088334560394287e-02
3.711510449647903442e-02
-1.278847008943557739e-01
9.267427027225494385e-02
4.867292195558547974e-02
1.012025400996208191e-01
-3.724753111600875854e-02
2.212239205837249756e-01
2.419237643480300903e-01
3.624680638313293457e-02
1.937695294618606567e-01
-1.108977757394313812e-02
-6.101515889167785645e-02
-1.675503402948379517e-01
1.907222419977188110e-01
3.975995630025863647e-02
-3.741685152053833008e-01
-2.765809893608093262e-01
1.273178756237030029e-01
-2.384342812001705170e-02
1.153179351240396500e-02
-1.994600892066955566e-01
9.384370595216751099e-02
-5.330708622932434082e-02
6.005662307143211365e-02
8.994013816118240356e-02
-7.542063295841217041e-02
-2.398068271577358246e-02
1.964309960603713989e-01
1.126045212149620056e-01
-2.012437768280506134e-02
-1.815035380423069000e-02
-1.219453364610671997e-01
-4.706436395645141602e-02
6.092700362205505371e-02
1.467503700405359268e-02
1.846438460052013397e-02
7.609372586011886597e-02
-9.031938761472702026e-02
5.484757199883460999e-02
1.946713216602802277e-02
4.631276801228523254e-02
1.016723513603210449e-01
-2.657301537692546844e-02
-1.264772266149520874e-01
-3.810799494385719299e-02
-1.673262566328048706e-02
-2.726044878363609314e-02
-2.054996937513351440e-01
-8.558102697134017944e-02
-1.008712202310562134e-01
5.052639171481132507e-02
-1.028036698698997498e-01
-1.596104167401790619e-02
9.784440696239471436e-02
6.867903470993041992e-02
1.440140604972839355e-02
7.590091973543167114e-02
6.304863840341567993e-02
-6.786417961120605469e-02
1.174397766590118408e-01
1.223541498184204102e-01
9.808300435543060303e-02
-2.143156677484512329e-01
-7.795336842536926270e-02
-5.465924739837646484e-03
1.363139897584915161e-01
-1.287409216165542603e-01
-1.039371639490127563e-01
-1.201463192701339722e-01
-3.520601661875844002e-03
-3.365705255419015884e-03
6.731043010950088501e-02
6.167320907115936279e-02
6.077969074249267578e-02
2.671658992767333984e-03
-1.315924972295761108e-01
-1.223712936043739319e-01
-2.284477949142456055e-01
-4.209364578127861023e-02
-1.125630587339401245e-01
-6.286798417568206787e-02
-7.635338604450225830e-02
-6.789257284253835678e-03
-4.733635857701301575e-02
7.465587556362152100e-02
-1.234339475631713867e-01
6.219414621591567993e-02
3.810963034629821777e-02
1.285699903964996338e-01
4.146352410316467285e-02
1.080505922436714172e-01
8.853822946548461914e-02
9.760669618844985962e-02
3.665059106424450874e-03
4.251636937260627747e-02
-2.617160975933074951e-01
-7.168149948120117188e-02
5.775397643446922302e-02
6.100312992930412292e-02
-1.596102863550186157e-01
-1.402654945850372314e-01
8.904694579541683197e-03
-1.336960047483444214e-01
6.042361725121736526e-03
1.041020676493644714e-01
7.593137025833129883e-02
6.661698222160339355e-02
-6.766254454851150513e-02
-1.218655779957771301e-01
1.244323793798685074e-03
1.096571907401084900e-01
5.893778055906295776e-02
-6.414089351892471313e-02
2.008669078350067139e-02
1.959449239075183868e-02
8.902713656425476074e-02
1.097546666860580444e-01
3.102334588766098022e-02
1.853542476892471313e-01
9.281399101018905640e-02
5.576660484075546265e-02
8.288472890853881836e-02
4.882556200027465820e-02
3.058611229062080383e-02
7.999151945114135742e-02
-7.507932372391223907e-03
8.709337562322616577e-02
5.879044160246849060e-02
4.208913538604974747e-03
-1.872754469513893127e-02
1.151525005698204041e-01
-3.002371825277805328e-02
-1.709844321012496948e-01
-1.562136597931385040e-02
-1.391697768121957779e-02
-4.708055406808853149e-02
-6.247864291071891785e-02
-5.694500729441642761e-02
1.318565662950277328e-02
-5.880995839834213257e-02
-1.936766132712364197e-02
9.593584574759006500e-03
-1.299290452152490616e-02
2.520806528627872467e-02
5.273160710930824280e-02
4.203402996063232422e-02
-3.861036524176597595e-02
1.220514401793479919e-01
1.369497627019882202e-01
1.006536409258842468e-01
6.912805140018463135e-03
-3.793845325708389282e-02
2.379242144525051117e-02
9.115722775459289551e-02
-4.909599199891090393e-03
-5.798449739813804626e-02
-1.196606531739234924e-01
-1.506114937365055084e-02
-6.239625439047813416e-02
8.915185928344726562e-02
-1.119521558284759521e-01
-4.045752808451652527e-02
1.680851131677627563e-01
1.885707117617130280e-02
7.989717647433280945e-03
-2.517371205613017082e-03
6.537026166915893555e-02
-1.112565845251083374e-01
-4.166925325989723206e-02
3.524755313992500305e-02
-5.123791843652725220e-02
-9.486366994678974152e-03
-1.260655373334884644e-02
5.556172505021095276e-02
5.279927048832178116e-03
1.560346484184265137e-01
6.196058914065361023e-02
4.362570121884346008e-03
-4.880394414067268372e-02
-2.109424956142902374e-02
8.150207251310348511e-02
-1.560931205749511719e-01
-3.056316636502742767e-03
-6.007884442806243896e-02
7.343234028667211533e-04
1.023129280656576157e-02
3.247838839888572693e-02
1.272133737802505493e-01
3.521475940942764282e-02
2.201115712523460388e-02
7.569281384348869324e-03
-8.559261262416839600e-02
-1.778164133429527283e-02
1.423942148685455322e-01
8.400959521532058716e-02
-1.970489136874675751e-02
-5.633237585425376892e-02
-7.275824248790740967e-02
-1.124439537525177002e-01
7.926641032099723816e-03
5.267553776502609253e-02
-1.025403384119272232e-02
2.909187227487564087e-02
-2.932963073253631592e-01
-2.633659243583679199e-01
-3.612858057022094727e-02
3.615248203277587891e-02
-1.264727562665939331e-01
-1.288055479526519775e-01
4.422010108828544617e-02
-4.565836861729621887e-03
1.131453085690736771e-02
3.575640544295310974e-02
1.011537835001945496e-01
-6.462953239679336548e-02
-5.782075598835945129e-02
5.061825737357139587e-02
-4.950963333249092102e-02
4.322921112179756165e-02
-1.595043949782848358e-02
-5.917045101523399353e-02
-1.218685414642095566e-02
-3.727110847830772400e-02
8.527185022830963135e-02
1.867129758466035128e-04
-9.775943309068679810e-02
-1.870744489133358002e-02
1.549792438745498657e-01
4.545915499329566956e-02
-5.161309614777565002e-02
5.995394662022590637e-02
6.103077321313321590e-04
-1.489083981141448021e-03
7.520999759435653687e-02
-6.934379786252975464e-02
8.570244908332824707e-02
-3.421066561713814735e-03
3.255108743906021118e-02
1.096249371767044067e-02
5.852372571825981140e-02
-1.352248899638652802e-02
-5.021722242236137390e-02
5.414059013128280640e-02
2.722116559743881226e-02
-2.677339315414428711e-02
1.728139631450176239e-02
-1.381510347127914429e-01
2.930308319628238678e-02
1.384566277265548706e-01
-7.708509266376495361e-02
1.103533059358596802e-01
-6.855424493551254272e-02
-4.097441677004098892e-03
1.296967361122369766e-02
1.735380142927169800e-01
-9.015104733407497406e-03
-1.422964781522750854e-01
1.127389296889305115e-01
4.637708514928817749e-02
-7.756699621677398682e-02
-8.487523347139358521e-02
-4.461285471916198730e-02
-8.920733630657196045e-02
1.481810808181762695e-01
1.002590879797935486e-01
1.785194873809814453e-01
2.091545313596725464e-01
4.279737547039985657e-02
5.475084763020277023e-03
-1.191068887710571289e-01
4.943590983748435974e-02
-8.596090227365493774e-02
-1.810472905635833740e-01
-1.257857978343963623e-01
5.768361315131187439e-02
-9.256824105978012085e-02
-3.259301185607910156e-03
6.025759130716323853e-02
8.715417981147766113e-02
2.978423982858657837e-02
9.673853963613510132e-02
1.921730302274227142e-02
-6.689561903476715088e-02
-3.862722590565681458e-02
-2.470840513706207275e-02
9.477410465478897095e-02
1.844617165625095367e-02
-2.458385191857814789e-02
-9.693139046430587769e-02
1.299579162150621414e-02
2.922924794256687164e-02
-6.390976905822753906e-02
-2.260529622435569763e-02
2.120228856801986694e-02
-7.812713086605072021e-02
-4.680333659052848816e-02
-1.481201499700546265e-02
4.454251378774642944e-03
1.336652785539627075e-02
1.400113850831985474e-01
7.237402349710464478e-02
-9.371403604745864868e-03
-2.664796821773052216e-02
1.089940890669822693e-01
7.015342265367507935e-02
-7.855410873889923096e-02
-4.506143555045127869e-02
-4.279267974197864532e-03
-1.814307831227779388e-02
9.857434034347534180e-02
-9.253683686256408691e-02
-2.145292051136493683e-02
-2.711123414337635040e-02
-1.040494814515113831e-01
2.065878547728061676e-02
-9.860801510512828827e-03
1.903647482395172119e-01
-5.049173906445503235e-02
2.871096692979335785e-02
-7.367412000894546509e-02
6.160313636064529419e-02
-5.590628087520599365e-02
8.893840759992599487e-02
-2.933933958411216736e-02
-4.386103712022304535e-03
-1.654161810874938965e-01
-7.528841495513916016e-02
6.463058292865753174e-02
-6.811586022377014160e-02
-1.022696271538734436e-01
-2.983120828866958618e-02
3.846227005124092102e-02
1.398962438106536865e-01
-1.520106103271245956e-02
-8.791089057922363281e-02
2.606163546442985535e-02
7.258479297161102295e-02
-4.408911615610122681e-02
4.782107844948768616e-02
-2.026944607496261597e-02
1.448799818754196167e-01
-8.657071739435195923e-02
1.010014563798904419e-01
5.040564015507698059e-02
7.355315238237380981e-02
3.540531545877456665e-02
5.598212406039237976e-02
5.484699737280607224e-03
2.455501817166805267e-02
-6.369727104902267456e-02
4.354986548423767090e-02
-5.763224512338638306e-02
-1.390140503644943237e-01
-4.033351689577102661e-02
-4.094470664858818054e-02
-4.199981223791837692e-03
-1.003058701753616333e-01
-8.304248005151748657e-02
-1.323181986808776855e-01
-5.715069174766540527e-02
-1.001707464456558228e-01
-8.778783679008483887e-02
3.461393341422080994e-02
2.996316552162170410e-02
-5.673001334071159363e-02
3.462327644228935242e-02
-2.649754658341407776e-02
3.701857849955558777e-02
-4.997945204377174377e-02
3.505471348762512207e-02
-1.204602941870689392e-01
1.293651945888996124e-02
2.165482752025127411e-02
2.448448725044727325e-02
3.734025731682777405e-02
2.749328035861253738e-03
-5.748227238655090332e-02
-8.926109969615936279e-02
1.124076917767524719e-01
-2.943590050563216209e-03
-1.566667705774307251e-01
-1.697282679378986359e-02
9.226533770561218262e-02
5.208690091967582703e-02
-1.304620653390884399e-01
-1.293420344591140747e-01
-3.519948571920394897e-02
-1.663994342088699341e-01
-3.997527062892913818e-02
5.345991253852844238e-02
-3.105821274220943451e-02
2.701013348996639252e-02
2.060881815850734711e-02
7.229766249656677246e-02
-1.043294817209243774e-01
-5.855087935924530029e-02
-1.088141463696956635e-02
4.279173910617828369e-02
1.100708246231079102e-01
1.175959780812263489e-01
5.519013106822967529e-02
-2.259453944861888885e-02
8.788233995437622070e-02
7.132028788328170776e-02
-3.318379446864128113e-02
9.155201166868209839e-02
6.310952454805374146e-02
-8.505070954561233521e-02
-2.043730579316616058e-02
5.423012375831604004e-02
-5.251955986022949219e-02
-1.427451670169830322e-01
-3.160692155361175537e-01
-2.169526517391204834e-01
-3.433928191661834717e-01
-2.631378471851348877e-01
-2.384904772043228149e-01
-2.520820796489715576e-01
-2.449586056172847748e-02
-4.447406530380249023e-02
-3.040631674230098724e-02
-7.926259934902191162e-02
-1.195720955729484558e-01
-1.433865129947662354e-01
-5.494460090994834900e-02
7.204419374465942383e-02
-9.053041785955429077e-02
-2.441414445638656616e-01
-2.169122695922851562e-01
1.082948818802833557e-01
4.137518350034952164e-03
4.242997244000434875e-02
3.797773644328117371e-02
1.826384849846363068e-02
8.985451422631740570e-03
-1.560235302895307541e-02
-1.728159748017787933e-02
4.894771426916122437e-02
-3.418561071157455444e-02
-1.664387732744216919e-01
-9.966377168893814087e-02
-4.639430344104766846e-02
2.109669335186481476e-02
-2.010295689105987549e-01
-1.860014908015727997e-02
-7.919243723154067993e-02
-5.073906108736991882e-02
-5.476412549614906311e-02
-1.089621037244796753e-01
1.472235657274723053e-02
2.429173141717910767e-02
-8.711843937635421753e-02
8.278023451566696167e-03
3.084479831159114838e-03
-1.257544606924057007e-01
2.296417579054832458e-02
9.251803904771804810e-02
-1.239713951945304871e-01
-2.078173905611038208e-01
4.172980040311813354e-02
2.912752144038677216e-02
-4.935892671346664429e-02
-4.215329885482788086e-02
-2.670104056596755981e-02
-2.157904766499996185e-02
-1.406243294477462769e-01
-1.220851298421621323e-02
3.483950719237327576e-02
5.722164735198020935e-02
-1.135388668626546860e-02
2.809333242475986481e-02
1.825257390737533569e-02
-8.861433714628219604e-02
5.344925820827484131e-02
-6.823004037141799927e-02
7.147736847400665283e-02
-1.077582091093063354e-01
-2.393647469580173492e-02
6.689093261957168579e-02
-2.439552731812000275e-02
-1.494364906102418900e-02
-8.143982850015163422e-03
4.467765614390373230e-02
-1.493064686655998230e-02
-1.231152340769767761e-01
-5.772556737065315247e-02
1.124229934066534042e-02
5.027051549404859543e-03
-8.899999409914016724e-02
4.791178181767463684e-02
-8.571391552686691284e-02
-2.395503968000411987e-01
-2.497747838497161865e-01
1.596933603286743164e-01
-7.736779004335403442e-02
-8.647843450307846069e-02
-1.346116811037063599e-01
-1.246791854500770569e-01
8.401422202587127686e-02
6.641093641519546509e-02
-1.499334275722503662e-01
-7.153978571295738220e-03
-7.785847038030624390e-02
-1.256308853626251221e-01
-4.346195235848426819e-02
-1.203832477331161499e-01
-9.099847823381423950e-02
1.494266688823699951e-01
1.914853453636169434e-01
-2.906451001763343811e-02
-4.746066406369209290e-02
2.925572693347930908e-01
9.641986340284347534e-02
7.589343935251235962e-02
2.679731138050556183e-02
1.005472615361213684e-01
1.290019750595092773e-01
5.580807104706764221e-02
-5.357344821095466614e-02
3.811081871390342712e-02
7.393289357423782349e-02
2.717208676040172577e-02
8.421671390533447266e-02
-1.390281915664672852e-01
2.870151214301586151e-02
4.023414850234985352e-02
-6.210223585367202759e-02
-1.927655041217803955e-01
-9.486967325210571289e-02
7.067422568798065186e-02
6.883028894662857056e-02
-9.202134609222412109e-02
4.083995148539543152e-02
4.198935627937316895e-02
-1.538251712918281555e-02
6.585631519556045532e-03
1.405034512281417847e-01
1.918281316757202148e-01
1.254680901765823364e-01
-7.721076905727386475e-02
-9.892355650663375854e-02
-6.414559483528137207e-02
-3.838951885700225830e-02
-2.410563454031944275e-02
-6.941165775060653687e-02
5.558689683675765991e-02
-4.016830027103424072e-02
-9.377495199441909790e-02
-9.373876452445983887e-02
